{"learner":{"attributes":{"best_iteration":"275","best_score":"0.9261233905326837","scikit_learn":"{\"_estimator_type\": \"classifier\"}"},"feature_names":[],"feature_types":[],"gradient_booster":{"model":{"cats":{"enc":[],"feature_segments":[],"sorted_idx":[]},"gbtree_model_param":{"num_parallel_tree":"1","num_trees":"276"},"iteration_indptr":[0,1,2,3,4,5,6,7,8,9,10,11,12,13,14,15,16,17,18,19,20,21,22,23,24,25,26,27,28,29,30,31,32,33,34,35,36,37,38,39,40,41,42,43,44,45,46,47,48,49,50,51,52,53,54,55,56,57,58,59,60,61,62,63,64,65,66,67,68,69,70,71,72,73,74,75,76,77,78,79,80,81,82,83,84,85,86,87,88,89,90,91,92,93,94,95,96,97,98,99,100,101,102,103,104,105,106,107,108,109,110,111,112,113,114,115,116,117,118,119,120,121,122,123,124,125,126,127,128,129,130,131,132,133,134,135,136,137,138,139,140,141,142,143,144,145,146,147,148,149,150,151,152,153,154,155,156,157,158,159,160,161,162,163,164,165,166,167,168,169,170,171,172,173,174,175,176,177,178,179,180,181,182,183,184,185,186,187,188,189,190,191,192,193,194,195,196,197,198,199,200,201,202,203,204,205,206,207,208,209,210,211,212,213,214,215,216,217,218,219,220,221,222,223,224,225,226,227,228,229,230,231,232,233,234,235,236,237,238,239,240,241,242,243,244,245,246,247,248,249,250,251,252,253,254,255,256,257,258,259,260,261,262,263,264,265,266,267,268,269,270,271,272,273,274,275,276],"tree_info":[0,0,0,0,0,0,0,0,0,0,0,0,0,0,0,0,0,0,0,0,0,0,0,0,0,0,0,0,0,0,0,0,0,0,0,0,0,0,0,0,0,0,0,0,0,0,0,0,0,0,0,0,0,0,0,0,0,0,0,0,0,0,0,0,0,0,0,0,0,0,0,0,0,0,0,0,0,0,0,0,0,0,0,0,0,0,0,0,0,0,0,0,0,0,0,0,0,0,0,0,0,0,0,0,0,0,0,0,0,0,0,0,0,0,0,0,0,0,0,0,0,0,0,0,0,0,0,0,0,0,0,0,0,0,0,0,0,0,0,0,0,0,0,0,0,0,0,0,0,0,0,0,0,0,0,0,0,0,0,0,0,0,0,0,0,0,0,0,0,0,0,0,0,0,0,0,0,0,0,0,0,0,0,0,0,0,0,0,0,0,0,0,0,0,0,0,0,0,0,0,0,0,0,0,0,0,0,0,0,0,0,0,0,0,0,0,0,0,0,0,0,0,0,0,0,0,0,0,0,0,0,0,0,0,0,0,0,0,0,0,0,0,0,0,0,0,0,0,0,0,0,0,0,0,0,0,0,0,0,0,0,0,0,0,0,0,0,0,0,0,0,0,0,0,0,0],"trees":[{"base_weights":[-4.8130103E-3,-2.579948E-1,1.3407493E0,-1.1549602E0,-8.897043E-2,-3.4508133E-1,1.8666043E0,-1.4798628E0,-1.00033194E-1,-2.540832E-1,8.128047E-1,1.655785E0,-7.150106E-1,2.2035093E0,-3.9686677E-1,5.488305E-1,-1.5519719E0,1.6810572E0,-7.3680395E-1,-3.252168E-1,7.6012474E-1,2.453686E-1,2.1344306E0,1.0145419E-1,-0E0,6.6309905E-1,-1.12089E0,1.2143138E-1,2.3491333E0,6.946179E-1,-1.130587E0,8.2054526E-2,-4.8956957E-2,-1.609446E0,3.7847072E-2,-1.471586E-2,1.0827023E-1,-1.1265048E0,1.1557187E0,-1.0138275E-1,-5.666631E-1,1.4605892E0,-2.6069418E-1,1.308577E0,-5.8573212E-2,-7.185778E-1,1.21038616E-1,-5.6783255E-2,1.4642216E0,4.3510646E-1,-1.3435729E0,-5.6964077E-2,8.24421E-2,2.4066086E0,-4.8956957E-2,9.625713E-2,-7.7377397E-1,-7.391066E-2,2.2228045E-2,-8.1954524E-2,2.2523131E-2,2.9295383E-2,-6.8554334E-2,-2.2480695E-2,9.056042E-2,-1.9144218E-2,1.078199E-2,-1.9122375E-2,-6.025231E-2,-1.4330414E-2,8.9968145E-2,4.0177673E-2,-5.1811703E-2,1.08860664E-1,-0E0,2.7878752E-2,-2.7885405E-2,-5.2032936E-2,-0E0,-2.2480695E-2,1.0033907E-1,7.820366E-2,-4.8956957E-2,2.2228045E-2,-7.499661E-2,1.22272275E-1,3.569508E-3,-0E0,-5.4603305E-2],"categories":[],"categories_nodes":[],"categories_segments":[],"categories_sizes":[],"default_left":[0,0,0,0,0,0,0,0,0,0,0,0,0,0,0,0,0,0,0,0,0,0,0,0,0,0,0,0,0,0,0,0,0,0,0,0,0,0,0,0,0,0,0,0,0,0,0,0,0,0,0,0,0,0,0,0,0,0,0,0,0,0,0,0,0,0,0,0,0,0,0,0,0,0,0,0,0,0,0,0,0,0,0,0,0,0,0,0,0],"id":0,"left_children":[1,3,5,7,9,11,13,15,17,19,21,23,25,27,29,31,33,35,37,39,41,43,45,-1,-1,47,49,51,53,55,57,-1,-1,59,-1,-1,-1,61,63,65,67,69,71,73,75,77,-1,-1,79,81,83,-1,-1,85,-1,-1,87,-1,-1,-1,-1,-1,-1,-1,-1,-1,-1,-1,-1,-1,-1,-1,-1,-1,-1,-1,-1,-1,-1,-1,-1,-1,-1,-1,-1,-1,-1,-1,-1],"loss_changes":[3.5317538E2,1.3217038E2,1.4620053E2,4.722412E1,1.0968097E2,3.068835E1,9.6443634E1,1.6313171E1,3.9376083E1,4.513559E1,8.496224E1,4.027603E0,1.996408E1,3.280664E1,1.4466102E1,8.88918E0,1.4797546E1,9.418798E0,2.0090769E1,3.1399662E1,2.9762447E1,2.6234707E1,2.962616E1,0E0,0E0,1.3826778E1,9.919891E0,1.7671564E1,2.1887268E1,1.501487E1,6.4708366E0,0E0,0E0,6.863098E0,0E0,0E0,0E0,9.873201E0,5.920361E0,2.7156164E1,3.2432068E1,1.50421715E1,1.53263035E1,2.0490448E1,1.9953682E1,8.988559E-1,0E0,0E0,7.437957E0,8.114659E0,7.330654E0,0E0,0E0,8.922546E0,0E0,0E0,1.0155983E0,0E0,0E0,0E0,0E0,0E0,0E0,0E0,0E0,0E0,0E0,0E0,0E0,0E0,0E0,0E0,0E0,0E0,0E0,0E0,0E0,0E0,0E0,0E0,0E0,0E0,0E0,0E0,0E0,0E0,0E0,0E0,0E0],"parents":[2147483647,0,0,1,1,2,2,3,3,4,4,5,5,6,6,7,7,8,8,9,9,10,10,11,11,12,12,13,13,14,14,15,15,16,16,17,17,18,18,19,19,20,20,21,21,22,22,25,25,26,26,27,27,28,28,29,29,30,30,33,33,37,37,38,38,39,39,40,40,41,41,42,42,43,43,44,44,45,45,48,48,49,49,50,50,53,53,56,56],"right_children":[2,4,6,8,10,12,14,16,18,20,22,24,26,28,30,32,34,36,38,40,42,44,46,-1,-1,48,50,52,54,56,58,-1,-1,60,-1,-1,-1,62,64,66,68,70,72,74,76,78,-1,-1,80,82,84,-1,-1,86,-1,-1,88,-1,-1,-1,-1,-1,-1,-1,-1,-1,-1,-1,-1,-1,-1,-1,-1,-1,-1,-1,-1,-1,-1,-1,-1,-1,-1,-1,-1,-1,-1,-1,-1],"split_conditions":[2.7156033E-2,2.2557445E-7,1.0287457E-2,8.791524E-3,3.8429894E-2,-4.0298354E-2,-1.6352283E-2,-5.9000067E-2,-1.9054553E-2,7.834153E-2,5.9720084E-2,1.9570757E-2,-1.9988097E-2,-1.5987707E-2,-3.144979E-2,3.690257E-2,6.734997E-2,-5.9116162E-2,2.0559741E-2,-5.0715287E-3,1.765514E-2,-4.2526018E-2,-1.0278118E-2,1.0145419E-1,-0E0,-1.0979331E-2,-4.1937448E-2,-1.8298931E-2,6.691806E-2,3.0009236E-2,4.7210276E-2,8.2054526E-2,-4.8956957E-2,4.505419E-2,3.7847072E-2,-1.471586E-2,1.0827023E-1,-2.4910409E-2,1.7777393E-2,-9.122926E-3,2.0178223E-2,-3.1955283E-2,2.7155394E-2,6.4161303E-3,3.8078547E-2,-1.3969994E-2,1.21038616E-1,-5.6783255E-2,-3.1414945E-2,1.1238589E-2,-3.738702E-2,-5.6964077E-2,8.24421E-2,3.3588793E-2,-4.8956957E-2,9.625713E-2,-2.7084649E-3,-7.391066E-2,2.2228045E-2,-8.1954524E-2,2.2523131E-2,2.9295383E-2,-6.8554334E-2,-2.2480695E-2,9.056042E-2,-1.9144218E-2,1.078199E-2,-1.9122375E-2,-6.025231E-2,-1.4330414E-2,8.9968145E-2,4.0177673E-2,-5.1811703E-2,1.08860664E-1,-0E0,2.7878752E-2,-2.7885405E-2,-5.2032936E-2,-0E0,-2.2480695E-2,1.0033907E-1,7.820366E-2,-4.8956957E-2,2.2228045E-2,-7.499661E-2,1.22272275E-1,3.569508E-3,-0E0,-5.4603305E-2],"split_indices":[265,688,568,532,459,268,749,80,407,73,0,646,416,760,97,321,159,287,60,150,185,493,3,0,0,37,651,649,361,47,365,0,0,655,0,0,0,651,363,677,588,107,153,623,203,326,0,0,492,690,92,0,0,697,0,0,318,0,0,0,0,0,0,0,0,0,0,0,0,0,0,0,0,0,0,0,0,0,0,0,0,0,0,0,0,0,0,0,0],"split_type":[0,0,0,0,0,0,0,0,0,0,0,0,0,0,0,0,0,0,0,0,0,0,0,0,0,0,0,0,0,0,0,0,0,0,0,0,0,0,0,0,0,0,0,0,0,0,0,0,0,0,0,0,0,0,0,0,0,0,0,0,0,0,0,0,0,0,0,0,0,0,0,0,0,0,0,0,0,0,0,0,0,0,0,0,0,0,0,0,0],"sum_hessian":[1.0347189E3,8.7154425E2,1.6317458E2,1.3725862E2,7.3428564E2,3.8873943E1,1.2430064E2,1.046237E2,3.263492E1,6.2126324E2,1.1302239E2,5.5191402E0,3.3354805E1,1.08223145E2,1.6077496E1,3.3594768E0,1.0126423E2,8.15873E0,2.4476187E1,5.8118945E2,4.0073757E1,7.9907555E1,3.311484E1,4.3193274E0,1.1998131E0,7.4388413E0,2.5915964E1,7.198879E0,1.0102426E2,6.478991E0,9.598505E0,1.919701E0,1.4397757E0,9.910456E1,2.1596637E0,1.6797384E0,6.478991E0,2.0636786E1,3.839402E0,3.023529E2,2.7883658E2,2.3516336E1,1.655742E1,1.7037346E1,6.287021E1,2.8795514E0,3.023529E1,2.1596637E0,5.2791777E0,3.119514E0,2.279645E1,4.079365E0,3.119514E0,9.958449E1,1.4397757E0,3.3594768E0,3.119514E0,7.9187665E0,1.6797384E0,9.790475E1,1.1998131E0,2.3996263E0,1.823716E1,1.1998131E0,2.6395888E0,1.6005507E2,1.4229784E2,2.176461E2,6.1190468E1,3.839402E0,1.9676935E1,6.958916E0,9.598505E0,9.838468E0,7.198879E0,2.8075626E1,3.479458E1,1.6797384E0,1.1998131E0,1.1998131E0,4.079365E0,1.6797384E0,1.4397757E0,1.6797384E0,2.111671E1,9.790475E1,1.6797384E0,1.1998131E0,1.919701E0],"tree_param":{"num_deleted":"0","num_feature":"768","num_nodes":"89","size_leaf_vector":"1"}},{"base_weights":[1.5416391E-2,-1.9994907E-1,1.3684304E0,-1.0882527E0,-3.4880508E-2,-4.1742906E-1,1.9233278E0,9.577005E-1,-1.2587008E0,1.2206517E0,-1.3724826E-1,-7.195178E-1,8.385584E-2,-1.1653012E0,2.1438577E0,1.0597517E-1,-5.343395E-2,-1.4525129E0,-1.7705923E-1,2.1602757E0,2.3214582E-1,-7.5288855E-2,-1.4332241E0,7.939559E-1,-9.8210347E-1,6.486851E-4,-6.893997E-2,2.2245018E0,-5.5021793E-2,6.498148E-2,-1.495591E0,-8.902578E-1,1.2035542E0,3.8274904E-3,1.1424958E-1,-2.5511742E-1,1.5374732E0,-3.4444544E-1,2.163219E-1,3.329697E-2,-1.5549213E0,7.7045135E-2,-4.4740736E-2,-1.3216355E0,2.7036744E-1,2.2802765E0,-2.006385E-2,7.35045E-3,-7.69122E-2,-5.9528768E-2,5.2408297E-2,-5.0138157E-2,9.996725E-2,5.8159698E-2,-3.4801032E-2,-2.2959685E-2,9.8059945E-2,-5.837366E-2,-1.355956E-2,4.7397863E-2,-3.4175836E-3,-7.929787E-2,-2.1348132E-2,-7.254881E-2,2.2528516E-2,7.869638E-2,-3.134923E-2,1.1546814E-1,-8.273734E-4],"categories":[],"categories_nodes":[],"categories_segments":[],"categories_sizes":[],"default_left":[0,0,0,0,0,0,0,0,0,0,0,0,0,0,0,0,0,0,0,0,0,0,0,0,0,0,0,0,0,0,0,0,0,0,0,0,0,0,0,0,0,0,0,0,0,0,0,0,0,0,0,0,0,0,0,0,0,0,0,0,0,0,0,0,0,0,0,0,0],"id":1,"left_children":[1,3,5,7,9,11,13,15,17,19,21,23,-1,25,27,-1,-1,29,31,33,35,37,39,41,43,-1,-1,45,-1,-1,47,49,51,-1,-1,53,55,57,59,-1,61,-1,-1,63,65,67,-1,-1,-1,-1,-1,-1,-1,-1,-1,-1,-1,-1,-1,-1,-1,-1,-1,-1,-1,-1,-1,-1,-1],"loss_changes":[3.0091617E2,1.3058434E2,1.4134186E2,4.9879074E1,9.68512E1,2.2984522E1,7.6323456E1,2.8870237E1,2.6825928E1,5.2240868E1,5.580643E1,1.3020932E1,0E0,2.0105486E0,2.9016052E1,0E0,0E0,1.4925262E1,2.1539076E1,7.3376465E0,1.872954E1,5.2334236E1,9.147118E0,7.8193135E0,1.1720657E1,0E0,0E0,1.548764E1,0E0,0E0,7.8249817E0,9.566969E0,1.5186393E1,0E0,0E0,1.4456817E1,7.666258E0,2.056783E1,6.675761E1,0E0,3.629074E-1,0E0,0E0,5.518387E0,8.620224E0,6.572174E0,0E0,0E0,0E0,0E0,0E0,0E0,0E0,0E0,0E0,0E0,0E0,0E0,0E0,0E0,0E0,0E0,0E0,0E0,0E0,0E0,0E0,0E0,0E0],"parents":[2147483647,0,0,1,1,2,2,3,3,4,4,5,5,6,6,7,7,8,8,9,9,10,10,11,11,13,13,14,14,17,17,18,18,19,19,20,20,21,21,22,22,23,23,24,24,27,27,30,30,31,31,32,32,35,35,36,36,37,37,38,38,40,40,43,43,44,44,45,45],"right_children":[2,4,6,8,10,12,14,16,18,20,22,24,-1,26,28,-1,-1,30,32,34,36,38,40,42,44,-1,-1,46,-1,-1,48,50,52,-1,-1,54,56,58,60,-1,62,-1,-1,64,66,68,-1,-1,-1,-1,-1,-1,-1,-1,-1,-1,-1,-1,-1,-1,-1,-1,-1,-1,-1,-1,-1,-1,-1],"split_conditions":[2.9881714E-2,2.2557445E-7,1.01034315E-2,-5.7066508E-2,-4.8599545E-2,2.2804908E-2,-1.5406581E-2,2.5574196E-2,2.9816762E-2,1.7270496E-2,3.52475E-2,-2.1376139E-2,8.385584E-2,-5.5451285E-2,3.2905806E-2,1.0597517E-1,-5.343395E-2,-6.236843E-2,1.674625E-2,-4.269973E-2,6.49119E-2,-1.379109E-2,-5.712422E-2,3.4935392E-2,6.503477E-2,6.486851E-4,-6.893997E-2,2.9630492E-2,-5.5021793E-2,6.498148E-2,-6.007689E-2,4.20376E-2,-2.1857707E-2,3.8274904E-3,1.1424958E-1,-5.0028614E-3,-1.9463157E-2,-2.350291E-2,-3.2126307E-2,3.329697E-2,5.479809E-2,7.7045135E-2,-4.4740736E-2,2.6826942E-2,-1.0706779E-2,1.4209999E-2,-2.006385E-2,7.35045E-3,-7.69122E-2,-5.9528768E-2,5.2408297E-2,-5.0138157E-2,9.996725E-2,5.8159698E-2,-3.4801032E-2,-2.2959685E-2,9.8059945E-2,-5.837366E-2,-1.355956E-2,4.7397863E-2,-3.4175836E-3,-7.929787E-2,-2.1348132E-2,-7.254881E-2,2.2528516E-2,7.869638E-2,-3.134923E-2,1.1546814E-1,-8.273734E-4],"split_indices":[265,688,231,451,534,298,678,733,363,382,707,567,0,332,312,0,0,458,107,206,70,164,605,656,271,0,0,733,0,0,643,185,515,0,0,623,678,297,177,0,596,0,0,386,404,439,0,0,0,0,0,0,0,0,0,0,0,0,0,0,0,0,0,0,0,0,0,0,0],"split_type":[0,0,0,0,0,0,0,0,0,0,0,0,0,0,0,0,0,0,0,0,0,0,0,0,0,0,0,0,0,0,0,0,0,0,0,0,0,0,0,0,0,0,0,0,0,0,0,0,0,0,0,0,0,0,0,0,0,0,0,0,0,0,0,0,0,0,0,0,0],"sum_hessian":[1.0307043E3,8.898998E2,1.4080461E2,1.3856573E2,7.5133405E2,3.3433453E1,1.0737116E2,1.0296429E1,1.282693E2,5.5809776E1,6.9552423E2,2.979717E1,3.6362839E0,6.8669357E0,1.0050423E2,6.5182433E0,3.778186E0,1.0847948E2,1.9789827E1,2.7999422E1,2.7810354E1,6.648063E2,3.0717964E1,4.100617E0,2.5696554E1,1.1902815E0,5.676654E0,9.837628E1,2.1279492E0,1.2187034E0,1.0726077E2,1.3287944E1,6.501883E0,1.6768556E0,2.6322567E1,2.0831207E1,6.979147E0,3.4563678E2,3.191695E2,1.4337001E0,2.9284264E1,2.907919E0,1.1926978E0,2.0178997E1,5.5175567E0,9.6462685E1,1.9135951E0,2.6468618E0,1.04613914E2,1.1843938E1,1.4440058E0,1.6512282E0,4.8506546E0,4.5461426E0,1.6285065E1,1.2030177E0,5.7761292E0,2.7017323E1,3.1861948E2,8.8758286E1,2.3041121E2,2.809628E1,1.1879845E0,1.8980639E1,1.198359E0,1.9467452E0,3.5708113E0,9.525531E1,1.2073765E0],"tree_param":{"num_deleted":"0","num_feature":"768","num_nodes":"69","size_leaf_vector":"1"}},{"base_weights":[2.3053063E-3,-3.2377028E-1,7.3666364E-1,-4.4751444E-1,8.57362E-1,-1.3461208E-1,1.3617724E0,-1.1895416E0,-2.8234863E-1,1.7750179E0,4.7617856E-2,-3.8645345E-1,1.0056591E0,1.8071549E0,3.9925568E-2,1.2131072E0,-1.3151501E0,-2.3122863E-1,-1.484372E0,-5.3217334E-1,2.0443096E0,1.466869E0,-3.9185584E-1,-1.871317E-2,-1.1567265E0,-4.91866E-1,1.3950384E0,1.9952036E0,-5.257221E-1,7.285625E-1,-9.594078E-1,-4.2455953E-2,9.2143424E-2,6.923959E-2,-1.3947356E0,2.508853E-1,-3.457769E-1,-7.634788E-2,-1.996371E-2,2.2031333E-2,-5.436119E-2,1.0846746E-1,1.4532976E-3,1.0150063E-1,-2.0163765E-2,1.3836606E0,-7.1491414E-1,7.7914E-1,-4.7077522E-1,-1.3729862E0,4.8002505E-1,-6.28589E-2,5.3124815E-2,1.8068601E0,-1.4430581E-1,2.069074E0,-4.6782646E-2,1.0663577E0,-1.217852E0,-5.565894E-3,1.7875433E0,-1.3087804E0,8.0545956E-1,1.1756572E-2,-7.260556E-2,1.2272414E-3,6.29066E-2,-1.9809948E-2,3.2695837E-2,9.1686055E-2,2.2981378E-4,-6.42249E-2,1.00489585E-2,-5.3599518E-2,5.589763E-2,-3.4798957E-2,6.1447363E-2,-7.301138E-2,2.262158E-2,6.854858E-2,-4.859146E-2,2.4874317E-3,1.00842945E-1,7.0861176E-2,-5.860293E-2,-3.0102307E-2,1.0652635E-1,-4.9682846E-4,7.782262E-2,-7.118532E-2,-4.2014613E-4,-4.8567068E-2,3.9616432E-2,1.042069E-1,-2.2317287E-2,-7.322693E-2,1.0184438E-2,-2.3411186E-2,7.778437E-2],"categories":[],"categories_nodes":[],"categories_segments":[],"categories_sizes":[],"default_left":[0,0,0,0,0,0,0,0,0,0,0,0,0,0,0,0,0,0,0,0,0,0,0,0,0,0,0,0,0,0,0,0,0,0,0,0,0,0,0,0,0,0,0,0,0,0,0,0,0,0,0,0,0,0,0,0,0,0,0,0,0,0,0,0,0,0,0,0,0,0,0,0,0,0,0,0,0,0,0,0,0,0,0,0,0,0,0,0,0,0,0,0,0,0,0,0,0,0,0],"id":2,"left_children":[1,3,5,7,9,11,13,15,17,19,21,23,25,27,29,31,33,35,37,39,41,43,45,47,49,51,53,55,57,59,61,-1,-1,-1,63,65,67,-1,-1,-1,-1,-1,-1,-1,-1,69,71,73,75,77,79,-1,-1,81,83,85,-1,87,89,91,93,95,97,-1,-1,-1,-1,-1,-1,-1,-1,-1,-1,-1,-1,-1,-1,-1,-1,-1,-1,-1,-1,-1,-1,-1,-1,-1,-1,-1,-1,-1,-1,-1,-1,-1,-1,-1,-1],"loss_changes":[2.4657216E2,1.0460062E2,1.7264748E2,7.883539E1,5.039396E1,3.8626183E1,1.0850464E2,3.7E1,3.219459E1,2.0874672E1,2.3747286E1,3.107228E1,1.4901213E1,6.1577972E1,3.3396023E1,9.814337E0,2.5990341E1,2.8218487E1,3.6087036E-1,2.7077768E0,7.1486664E0,1.0309402E1,1.7696146E1,2.7541975E1,1.3219551E1,8.191393E0,1.270327E1,2.9630432E1,1.3506524E1,2.2344013E1,1.3274349E1,0E0,0E0,0E0,1.05711975E1,2.2379295E1,2.1025417E1,0E0,0E0,0E0,0E0,0E0,0E0,0E0,0E0,2.9657211E0,1.3476242E1,1.8522963E1,1.9503498E1,5.700863E0,7.6409698E0,0E0,0E0,5.6143E0,9.776086E0,2.1822388E1,0E0,2.0803561E0,2.0132837E0,1.4598941E1,8.739029E0,4.2975483E0,4.454427E0,0E0,0E0,0E0,0E0,0E0,0E0,0E0,0E0,0E0,0E0,0E0,0E0,0E0,0E0,0E0,0E0,0E0,0E0,0E0,0E0,0E0,0E0,0E0,0E0,0E0,0E0,0E0,0E0,0E0,0E0,0E0,0E0,0E0,0E0,0E0,0E0],"parents":[2147483647,0,0,1,1,2,2,3,3,4,4,5,5,6,6,7,7,8,8,9,9,10,10,11,11,12,12,13,13,14,14,15,15,16,16,17,17,18,18,19,19,20,20,21,21,22,22,23,23,24,24,25,25,26,26,27,27,28,28,29,29,30,30,34,34,35,35,36,36,45,45,46,46,47,47,48,48,49,49,50,50,53,53,54,54,55,55,57,57,58,58,59,59,60,60,61,61,62,62],"right_children":[2,4,6,8,10,12,14,16,18,20,22,24,26,28,30,32,34,36,38,40,42,44,46,48,50,52,54,56,58,60,62,-1,-1,-1,64,66,68,-1,-1,-1,-1,-1,-1,-1,-1,70,72,74,76,78,80,-1,-1,82,84,86,-1,88,90,92,94,96,98,-1,-1,-1,-1,-1,-1,-1,-1,-1,-1,-1,-1,-1,-1,-1,-1,-1,-1,-1,-1,-1,-1,-1,-1,-1,-1,-1,-1,-1,-1,-1,-1,-1,-1,-1,-1],"split_conditions":[3.5470106E-2,6.1120108E-2,1.8704996E-2,2.2782903E-7,2.3543052E-3,1.8863434E-2,1.0495179E-2,-6.1549332E-2,7.0396736E-2,-9.991336E-3,-9.197356E-3,4.428763E-5,-2.652536E-2,7.294194E-2,3.5131065E-4,-2.0837868E-2,-6.8834044E-2,-2.5251178E-2,2.6264159E-2,-2.665245E-2,7.65249E-2,2.0276401E-2,-1.4612955E-2,-2.3429161E-2,4.582478E-2,3.0711275E-2,1.5474397E-2,4.4242855E-2,-1.1840481E-2,2.320388E-2,3.4570284E-2,-4.2455953E-2,9.2143424E-2,6.923959E-2,-5.2326854E-2,2.3129154E-2,3.7787586E-2,-7.634788E-2,-1.996371E-2,2.2031333E-2,-5.436119E-2,1.0846746E-1,1.4532976E-3,1.0150063E-1,-2.0163765E-2,-3.7265863E-2,-3.129309E-3,-2.9069904E-2,3.665749E-2,4.8342273E-2,-5.1313927E-3,-6.28589E-2,5.3124815E-2,-2.950057E-2,-2.6464604E-2,-4.499378E-2,-4.6782646E-2,1.9226102E-2,4.815486E-2,2.0726712E-3,2.8819362E-2,6.188381E-2,-1.641889E-2,1.1756572E-2,-7.260556E-2,1.2272414E-3,6.29066E-2,-1.9809948E-2,3.2695837E-2,9.1686055E-2,2.2981378E-4,-6.42249E-2,1.00489585E-2,-5.3599518E-2,5.589763E-2,-3.4798957E-2,6.1447363E-2,-7.301138E-2,2.262158E-2,6.854858E-2,-4.859146E-2,2.4874317E-3,1.00842945E-1,7.0861176E-2,-5.860293E-2,-3.0102307E-2,1.0652635E-1,-4.9682846E-4,7.782262E-2,-7.118532E-2,-4.2014613E-4,-4.8567068E-2,3.9616432E-2,1.042069E-1,-2.2317287E-2,-7.322693E-2,1.0184438E-2,-2.3411186E-2,7.778437E-2],"split_indices":[48,578,363,688,173,424,567,451,666,241,502,438,213,728,579,48,75,617,184,36,49,7,665,649,580,135,177,581,357,46,267,0,0,0,654,575,473,0,0,0,0,0,0,0,0,496,720,636,141,653,17,0,0,546,302,297,0,579,135,56,556,135,385,0,0,0,0,0,0,0,0,0,0,0,0,0,0,0,0,0,0,0,0,0,0,0,0,0,0,0,0,0,0,0,0,0,0,0,0],"split_type":[0,0,0,0,0,0,0,0,0,0,0,0,0,0,0,0,0,0,0,0,0,0,0,0,0,0,0,0,0,0,0,0,0,0,0,0,0,0,0,0,0,0,0,0,0,0,0,0,0,0,0,0,0,0,0,0,0,0,0,0,0,0,0,0,0,0,0,0,0,0,0,0,0,0,0,0,0,0,0,0,0,0,0,0,0,0,0,0,0,0,0,0,0,0,0,0,0,0,0],"sum_hessian":[1.0277032E3,7.120699E2,3.156334E2,6.451127E2,6.69572E1,1.3217572E2,1.8345767E2,1.1631064E2,5.28802E2,3.0822582E1,3.6134617E1,1.08813034E2,2.3362692E1,1.3694185E2,4.6515827E1,5.344437E0,1.10966194E2,5.0838208E2,2.0419935E1,3.1156373E0,2.7706944E1,7.9962444E0,2.8138372E1,7.435302E1,3.446001E1,4.761482E0,1.8601212E1,1.2686457E2,1.0077279E1,2.770522E1,1.8810606E1,1.1650729E0,4.179364E0,2.7040856E0,1.08262115E2,9.735482E1,4.1102728E2,1.9248102E1,1.1718327E0,1.2002219E0,1.9154155E0,2.6011576E1,1.6953692E0,6.0840573E0,1.9121876E0,3.8215141E0,2.4316858E1,2.6621887E1,4.7731136E1,3.058602E1,3.8739905E0,3.3229887E0,1.438493E0,1.4543176E1,4.058035E0,1.24035774E2,2.828794E0,2.8852684E0,7.192011E0,1.694415E1,1.0761069E1,1.5922654E1,2.8879519E0,3.5702307E0,1.0469188E2,8.033653E1,1.7018291E1,3.918757E2,1.915156E1,2.6271892E0,1.194325E0,1.4751518E1,9.565341E0,3.7793918E0,2.2842495E1,4.2673542E1,5.0575933E0,2.9387074E1,1.1989468E0,2.439538E0,1.4344524E0,1.689685E0,1.2853491E1,1.4564601E0,2.601575E0,2.58795E0,1.2144782E2,1.2029022E0,1.6823664E0,5.9874887E0,1.2045221E0,7.5729575E0,9.371193E0,9.56291E0,1.1981597E0,1.4470722E1,1.4519321E0,1.2049077E0,1.6830443E0],"tree_param":{"num_deleted":"0","num_feature":"768","num_nodes":"99","size_leaf_vector":"1"}},{"base_weights":[3.6755784E-3,-2.0016162E-1,1.2170655E0,-1.2371814E0,-9.02608E-2,-4.8500833E-1,1.6394261E0,4.4845328E-1,-1.419062E0,-2.1919979E-1,7.58636E-1,-9.116196E-1,1.4844146E0,1.8472863E0,-6.8273944E-1,-4.763912E-2,1.3438102E0,6.527188E-2,-1.4815143E0,-1.2162967E-1,-1.1364799E0,2.5839165E-1,1.9418931E0,-1.1779884E0,2.9884315E-1,8.5097924E-2,1.844004E-2,1.9378014E0,-7.8445023E-1,7.225715E-2,-1.2750293E0,-2.0766044E-2,9.415858E-2,-1.5066878E0,1.9201987E-3,2.3677166E-1,-3.280269E-1,2.4970601E-1,-1.3277524E0,1.2837977E0,-1.2980685E-1,1.0284269E-1,-2.3622248E-2,1.5855432E-2,-1.34418E0,6.524187E-2,-5.1105496E-2,2.030089E0,1.607628E-1,-2.0921727E-4,-5.3935226E-2,-1.888007E-2,-6.808978E-2,-7.661087E-2,-5.690915E-3,-1.1929206E-2,3.845508E-2,4.9491573E-2,-1.8393511E-2,-6.05804E-2,7.132389E-2,5.5531856E-2,-7.0446536E-2,-4.255416E-2,8.057378E-2,3.9748207E-2,-2.9846659E-2,6.6265004E-4,-7.180087E-2,2.7419006E-2,1.02691114E-1,-5.4013617E-2,5.7808466E-2],"categories":[],"categories_nodes":[],"categories_segments":[],"categories_sizes":[],"default_left":[0,0,0,0,0,0,0,0,0,0,0,0,0,0,0,0,0,0,0,0,0,0,0,0,0,0,0,0,0,0,0,0,0,0,0,0,0,0,0,0,0,0,0,0,0,0,0,0,0,0,0,0,0,0,0,0,0,0,0,0,0,0,0,0,0,0,0,0,0,0,0,0,0],"id":3,"left_children":[1,3,5,7,9,11,13,15,17,19,21,23,25,27,29,-1,31,-1,33,35,37,39,41,43,45,-1,-1,47,49,-1,51,-1,-1,53,-1,55,57,59,61,63,65,-1,-1,-1,67,-1,-1,69,71,-1,-1,-1,-1,-1,-1,-1,-1,-1,-1,-1,-1,-1,-1,-1,-1,-1,-1,-1,-1,-1,-1,-1,-1],"loss_changes":[2.5081943E2,9.882439E1,1.0566077E2,2.6125282E1,8.620456E1,2.6355133E1,5.7791077E1,1.2385542E1,1.4741058E1,6.0997917E1,6.0959187E1,8.450201E0,7.291126E-1,2.7197723E1,1.4880303E1,0E0,6.316925E0,0E0,2.9055634E0,4.5843834E1,1.7724304E1,2.970059E1,9.509972E0,5.597994E0,8.400822E0,0E0,0E0,1.6782074E1,9.69785E-1,0E0,1.4024353E-1,0E0,0E0,2.4003448E0,0E0,5.754134E1,2.0994862E1,1.683659E1,1.30037155E1,1.5696117E1,2.4101954E1,0E0,0E0,0E0,2.3883476E0,0E0,0E0,2.3363647E0,8.9683485E0,0E0,0E0,0E0,0E0,0E0,0E0,0E0,0E0,0E0,0E0,0E0,0E0,0E0,0E0,0E0,0E0,0E0,0E0,0E0,0E0,0E0,0E0,0E0,0E0],"parents":[2147483647,0,0,1,1,2,2,3,3,4,4,5,5,6,6,7,7,8,8,9,9,10,10,11,11,12,12,13,13,14,14,16,16,18,18,19,19,20,20,21,21,22,22,23,23,24,24,27,27,28,28,30,30,33,33,35,35,36,36,37,37,38,38,39,39,40,40,44,44,47,47,48,48],"right_children":[2,4,6,8,10,12,14,16,18,20,22,24,26,28,30,-1,32,-1,34,36,38,40,42,44,46,-1,-1,48,50,-1,52,-1,-1,54,-1,56,58,60,62,64,66,-1,-1,-1,68,-1,-1,70,72,-1,-1,-1,-1,-1,-1,-1,-1,-1,-1,-1,-1,-1,-1,-1,-1,-1,-1,-1,-1,-1,-1,-1,-1],"split_conditions":[2.9881714E-2,-4.510008E-2,1.0759087E-2,-8.598224E-3,4.651752E-2,2.1058837E-2,2.9630492E-2,-3.389359E-2,-6.3080706E-2,2.1861918E-2,5.8606617E-2,5.5032116E-3,3.5293307E-2,3.174436E-2,-2.9103778E-2,-4.763912E-2,-2.0551149E-2,6.527188E-2,3.8566116E-2,-2.5350954E-2,-6.53713E-2,5.2243406E-3,9.491781E-2,-6.560997E-2,-5.360928E-3,8.5097924E-2,1.844004E-2,1.0967598E-2,-2.7992437E-2,7.225715E-2,-4.7908105E-2,-2.0766044E-2,9.415858E-2,5.583557E-2,1.9201987E-3,-1.379109E-2,-3.981851E-2,-3.776145E-2,-8.244918E-2,-4.009798E-2,-2.892833E-2,1.0284269E-1,-2.3622248E-2,1.5855432E-2,-5.7154305E-2,6.524187E-2,-5.1105496E-2,-2.085174E-2,-1.7864024E-2,-2.0921727E-4,-5.3935226E-2,-1.888007E-2,-6.808978E-2,-7.661087E-2,-5.690915E-3,-1.1929206E-2,3.845508E-2,4.9491573E-2,-1.8393511E-2,-6.05804E-2,7.132389E-2,5.5531856E-2,-7.0446536E-2,-4.255416E-2,8.057378E-2,3.9748207E-2,-2.9846659E-2,6.6265004E-4,-7.180087E-2,2.7419006E-2,1.02691114E-1,-5.4013617E-2,5.7808466E-2],"split_indices":[265,131,678,137,113,28,733,420,255,707,0,628,511,252,39,0,455,0,567,177,477,236,299,411,472,0,0,707,418,0,682,0,0,93,0,164,567,618,552,547,419,0,0,0,625,0,0,460,418,0,0,0,0,0,0,0,0,0,0,0,0,0,0,0,0,0,0,0,0,0,0,0,0],"split_type":[0,0,0,0,0,0,0,0,0,0,0,0,0,0,0,0,0,0,0,0,0,0,0,0,0,0,0,0,0,0,0,0,0,0,0,0,0,0,0,0,0,0,0,0,0,0,0,0,0,0,0,0,0,0,0,0,0,0,0,0,0,0,0,0,0,0,0,0,0,0,0,0,0],"sum_hessian":[1.01206586E3,8.6721014E2,1.4485571E2,8.210667E1,7.8510345E2,2.8764692E1,1.1609102E2,7.848413E0,7.425825E1,6.8223267E2,1.02870804E2,2.4088825E1,4.6758676E0,1.0674494E2,9.346079E0,3.0304484E0,4.8179646E0,1.2144517E0,7.30438E1,6.1767474E2,6.455792E1,7.316552E1,2.9705284E1,1.9772804E1,4.3160214E0,3.4655452E0,1.2103226E0,1.03454254E2,3.2906902E0,1.7178085E0,7.62827E0,1.1801926E0,3.6377718E0,7.186877E1,1.1750308E0,2.2564856E2,3.9202618E2,7.784497E0,5.6773426E1,1.9465942E1,5.3699577E1,2.8500422E1,1.204862E0,1.8811654E0,1.7891638E1,2.4613266E0,1.8546948E0,9.8206055E1,5.248196E0,1.1881938E0,2.1024964E0,1.1544921E0,6.4737782E0,7.046991E1,1.3988544E0,1.1948491E2,1.0616366E2,1.0797386E1,3.812288E2,3.4554372E0,4.3290596E0,1.4166366E0,5.535679E1,2.3736093E0,1.7092333E1,1.7779078E1,3.5920498E1,1.1810803E0,1.6710558E1,1.934896E0,9.6271164E1,2.293475E0,2.9547212E0],"tree_param":{"num_deleted":"0","num_feature":"768","num_nodes":"73","size_leaf_vector":"1"}},{"base_weights":[3.146048E-2,-1.7605412E-1,1.0949991E0,-9.8483735E-1,-3.50459E-2,-2.8071007E-1,1.5754026E0,-1.3396018E0,1.3148152E-2,-1.7088619E-1,7.144178E-1,-5.158703E-1,1.4739859E0,1.7948835E0,-5.336689E-1,3.556857E-2,-1.3963856E0,-6.5714335E-1,1.3191886E0,-1.1432356E-1,-1.3109691E0,2.1737982E-1,1.759875E0,-7.0989186E-1,1.1952455E0,8.463501E-2,1.917817E-2,2.1920365E-1,1.9156703E0,7.220041E-2,-1.1150043E0,1.6788015E-2,-1.4367111E0,-1.0097666E0,8.280699E-2,-3.894305E-2,9.500404E-2,1.586936E-1,-3.0748558E-1,1.8780949E-2,-1.440269E0,-4.5261046E-1,7.5752854E-1,-4.1432434E-1,9.801407E-2,5.556674E-1,-9.485785E-1,-3.5343177E-4,8.2633555E-2,7.370677E-2,-9.189892E-1,-8.089826E-3,1.9465861E0,-6.797647E-2,1.9144088E-2,1.15664E-2,-7.333597E-2,-6.2813215E-2,4.5691073E-2,-7.124194E-3,2.6757075E-2,3.4045313E-2,-1.906013E-2,-7.375649E-2,-1.668323E-2,-6.745035E-2,4.108508E-3,-1.1433265E-3,7.08896E-2,2.4783228E-2,-5.044463E-2,-4.6843715E-2,5.880199E-2,-5.842721E-2,1.5765956E-2,3.1624828E-4,-5.9044994E-2,-3.6984062E-4,9.849038E-2],"categories":[],"categories_nodes":[],"categories_segments":[],"categories_sizes":[],"default_left":[0,0,0,0,0,0,0,0,0,0,0,0,0,0,0,0,0,0,0,0,0,0,0,0,0,0,0,0,0,0,0,0,0,0,0,0,0,0,0,0,0,0,0,0,0,0,0,0,0,0,0,0,0,0,0,0,0,0,0,0,0,0,0,0,0,0,0,0,0,0,0,0,0,0,0,0,0,0,0],"id":4,"left_children":[1,3,5,7,9,11,13,15,17,19,21,23,25,27,29,-1,31,33,35,37,39,41,43,45,47,-1,-1,49,51,-1,53,-1,55,57,-1,-1,-1,59,61,-1,63,65,67,69,-1,71,73,-1,-1,-1,75,-1,77,-1,-1,-1,-1,-1,-1,-1,-1,-1,-1,-1,-1,-1,-1,-1,-1,-1,-1,-1,-1,-1,-1,-1,-1,-1,-1],"loss_changes":[2.2393153E2,9.678851E1,1.0993222E2,4.4644234E1,7.383229E1,1.8790035E1,5.7876007E1,1.1828781E1,3.0663635E1,3.941662E1,5.7423542E1,1.3889818E1,6.227684E-1,2.0794556E1,1.5809732E1,0E0,6.8369293E0,2.0549961E1,1.5968393E1,3.0947521E1,6.8558617E0,2.8056633E1,1.6387802E1,1.1383604E1,2.431161E0,0E0,0E0,1.43288765E1,6.9802246E0,0E0,4.235302E0,0E0,4.803833E0,1.0972786E1,0E0,0E0,0E0,2.7676056E1,2.5283031E1,0E0,5.3370667E-1,1.6803637E1,2.2087286E1,2.5802233E0,0E0,6.960432E0,8.884905E0,0E0,0E0,0E0,1.3213501E0,0E0,4.6652527E0,0E0,0E0,0E0,0E0,0E0,0E0,0E0,0E0,0E0,0E0,0E0,0E0,0E0,0E0,0E0,0E0,0E0,0E0,0E0,0E0,0E0,0E0,0E0,0E0,0E0,0E0],"parents":[2147483647,0,0,1,1,2,2,3,3,4,4,5,5,6,6,7,7,8,8,9,9,10,10,11,11,12,12,13,13,14,14,16,16,17,17,18,18,19,19,20,20,21,21,22,22,23,23,24,24,27,27,28,28,30,30,32,32,33,33,37,37,38,38,40,40,41,41,42,42,43,43,45,45,46,46,50,50,52,52],"right_children":[2,4,6,8,10,12,14,16,18,20,22,24,26,28,30,-1,32,34,36,38,40,42,44,46,48,-1,-1,50,52,-1,54,-1,56,58,-1,-1,-1,60,62,-1,64,66,68,70,-1,72,74,-1,-1,-1,76,-1,78,-1,-1,-1,-1,-1,-1,-1,-1,-1,-1,-1,-1,-1,-1,-1,-1,-1,-1,-1,-1,-1,-1,-1,-1,-1,-1],"split_conditions":[2.7156033E-2,2.2557445E-7,1.1557457E-2,7.1277576E-3,3.8429894E-2,2.7305892E-2,5.264467E-3,-5.242235E-2,3.4709197E-2,3.52475E-2,5.9720084E-2,5.9275962E-2,4.0995307E-2,-2.8048178E-2,-2.0529103E-2,3.556857E-2,-7.7721134E-2,3.9346427E-2,-1.2274458E-2,-5.9603537E-3,5.4680333E-3,9.255976E-3,-1.0278118E-2,-5.208386E-2,-3.7678745E-2,8.463501E-2,1.917817E-2,-1.8245153E-2,-6.631116E-2,7.220041E-2,2.3409983E-2,1.6788015E-2,-7.0439115E-2,3.1296235E-2,8.280699E-2,-3.894305E-2,9.500404E-2,1.5947626E-3,-3.8635593E-2,1.8780949E-2,4.7837276E-2,-1.7619148E-2,2.3219695E-3,1.6911749E-2,9.801407E-2,-4.5419727E-2,3.8840536E-2,-3.5343177E-4,8.2633555E-2,7.370677E-2,-2.2459654E-2,-8.089826E-3,-4.8835054E-2,-6.797647E-2,1.9144088E-2,1.15664E-2,-7.333597E-2,-6.2813215E-2,4.5691073E-2,-7.124194E-3,2.6757075E-2,3.4045313E-2,-1.906013E-2,-7.375649E-2,-1.668323E-2,-6.745035E-2,4.108508E-3,-1.1433265E-3,7.08896E-2,2.4783228E-2,-5.044463E-2,-4.6843715E-2,5.880199E-2,-5.842721E-2,1.5765956E-2,3.1624828E-4,-5.9044994E-2,-3.6984062E-4,9.849038E-2],"split_indices":[265,688,231,532,459,298,458,458,59,707,0,711,635,120,75,0,409,236,390,630,155,93,3,38,42,0,0,534,722,0,639,0,464,397,0,0,0,114,397,0,372,56,591,666,0,142,492,0,0,0,356,0,240,0,0,0,0,0,0,0,0,0,0,0,0,0,0,0,0,0,0,0,0,0,0,0,0,0,0],"split_type":[0,0,0,0,0,0,0,0,0,0,0,0,0,0,0,0,0,0,0,0,0,0,0,0,0,0,0,0,0,0,0,0,0,0,0,0,0,0,0,0,0,0,0,0,0,0,0,0,0,0,0,0,0,0,0,0,0,0,0,0,0,0,0,0,0,0,0,0,0,0,0,0,0,0,0,0,0,0,0],"sum_hessian":[1.012728E3,8.480785E2,1.6464958E2,1.2500872E2,7.2306976E2,4.2717194E1,1.2193238E2,9.1979515E1,3.3029205E1,6.1278735E2,1.1028237E2,3.8296494E1,4.4207006E0,1.10578705E2,1.135368E1,2.162658E0,8.981686E1,2.2150314E1,1.0878891E1,5.8487897E2,2.7908403E1,7.557128E1,3.4711094E1,3.492712E1,3.3693752E0,3.2144492E0,1.2062516E0,8.079409E0,1.024993E2,2.2382164E0,9.115463E0,1.8711046E0,8.794575E1,1.9713171E1,2.4371443E0,2.2813084E0,8.597582E0,2.4239795E2,3.4248102E2,1.8460581E0,2.6062344E1,3.3795513E1,4.177577E1,2.8351674E0,3.1875925E1,5.3246984E0,2.960242E1,1.1939194E0,2.1754558E0,3.7064443E0,4.372964E0,1.4361548E0,1.0106314E2,7.921369E0,1.1940941E0,1.429752E0,8.6516E1,1.778609E1,1.9270802E0,1.3499223E2,1.07405716E2,2.3189224E1,3.192918E2,2.4934774E1,1.1275703E0,1.2066262E1,2.1729252E1,1.9581608E1,2.219416E1,1.1794859E0,1.6556814E0,1.4088571E0,3.915841E0,2.52852E1,4.3172193E0,1.1715654E0,3.2013986E0,1.1898865E0,9.987325E1],"tree_param":{"num_deleted":"0","num_feature":"768","num_nodes":"79","size_leaf_vector":"1"}},{"base_weights":[2.8615357E-2,-1.6839366E-1,1.0411143E0,-9.990545E-1,-2.664903E-2,-3.512382E-1,1.4361516E0,-1.3093466E0,-3.148437E-2,-1.526101E-1,6.5548205E-1,-7.856552E-1,1.0948391E0,1.6192987E0,-6.480227E-1,5.098157E-1,-1.3851085E0,-1.1836778E0,7.820868E-1,-2.633803E-1,3.9453122E-1,-3.0168736E-1,1.1367965E0,-9.7660244E-1,7.2274394E-2,-1.9704634E-2,1.5420083E0,1.7422354E0,-3.8010722E-1,-6.4917825E-2,2.4988566E-1,-4.4833317E-2,7.767096E-2,-1.4345202E0,2.177508E-2,-6.903063E-2,2.2720661E-2,-3.5162017E-1,1.5429956E0,-1.2866265E0,-2.0455171E-1,-5.045168E-2,9.898047E-1,1.3548391E0,-6.4926356E-1,2.0698074E-1,1.6205201E0,-1.2234557E0,3.0011484E-1,1.5388499E-2,8.6919956E-2,1.8195888E0,-4.2502272E-1,-9.845586E-1,6.399079E-2,6.445735E-2,-4.075819E-2,-7.272819E-2,-1.0663204E-2,5.2970357E-2,-5.5230808E-2,-2.2911912E-2,9.292313E-2,4.6687257E-2,-7.109194E-2,-1.2480387E-2,4.2033836E-2,2.8867526E-2,-3.4573294E-2,7.6196246E-2,-1.4309277E-3,-2.8213114E-2,9.7380936E-2,4.4821743E-2,-4.815437E-2,7.894277E-2,-2.0169564E-2,9.044171E-2,-3.914319E-2,2.0704713E-2,-6.653777E-2,7.098628E-2,-4.0263865E-2,1.3629218E-3,9.3946226E-2,4.002098E-2,-5.4094423E-2,1.8371703E-3,-6.139353E-2],"categories":[],"categories_nodes":[],"categories_segments":[],"categories_sizes":[],"default_left":[0,0,0,0,0,0,0,0,0,0,0,0,0,0,0,0,0,0,0,0,0,0,0,0,0,0,0,0,0,0,0,0,0,0,0,0,0,0,0,0,0,0,0,0,0,0,0,0,0,0,0,0,0,0,0,0,0,0,0,0,0,0,0,0,0,0,0,0,0,0,0,0,0,0,0,0,0,0,0,0,0,0,0,0,0,0,0,0,0],"id":5,"left_children":[1,3,5,7,9,11,13,15,17,19,21,23,25,27,29,31,33,35,37,39,41,43,45,47,-1,-1,49,51,53,-1,55,-1,-1,57,-1,-1,-1,59,61,63,65,67,69,71,73,75,77,79,81,-1,-1,83,85,87,-1,-1,-1,-1,-1,-1,-1,-1,-1,-1,-1,-1,-1,-1,-1,-1,-1,-1,-1,-1,-1,-1,-1,-1,-1,-1,-1,-1,-1,-1,-1,-1,-1,-1,-1],"loss_changes":[2.0290697E2,1.0023366E2,9.164781E1,3.7203697E1,6.2690422E1,2.436231E1,5.0402557E1,1.3661072E1,3.0144945E1,3.742323E1,5.2748245E1,1.3915482E1,6.648835E0,2.9954987E1,6.8468843E0,7.9771137E0,8.771744E0,4.9277554E0,1.6828018E1,3.0585625E1,2.7623959E1,2.323452E1,3.3781944E1,9.089638E0,0E0,0E0,1.183258E0,1.9630829E1,8.998972E0,0E0,7.161512E0,0E0,0E0,1.834549E0,0E0,0E0,0E0,1.0080257E1,8.112686E0,9.641586E0,2.3093561E1,2.474338E1,2.4303955E1,9.138375E0,1.676656E1,2.336218E1,2.3951675E1,4.6667023E0,7.6788855E0,0E0,0E0,1.14921875E1,4.6357503E0,1.6041479E0,0E0,0E0,0E0,0E0,0E0,0E0,0E0,0E0,0E0,0E0,0E0,0E0,0E0,0E0,0E0,0E0,0E0,0E0,0E0,0E0,0E0,0E0,0E0,0E0,0E0,0E0,0E0,0E0,0E0,0E0,0E0,0E0,0E0,0E0,0E0],"parents":[2147483647,0,0,1,1,2,2,3,3,4,4,5,5,6,6,7,7,8,8,9,9,10,10,11,11,12,12,13,13,14,14,15,15,16,16,17,17,18,18,19,19,20,20,21,21,22,22,23,23,26,26,27,27,28,28,30,30,33,33,37,37,38,38,39,39,40,40,41,41,42,42,43,43,44,44,45,45,46,46,47,47,48,48,51,51,52,52,53,53],"right_children":[2,4,6,8,10,12,14,16,18,20,22,24,26,28,30,32,34,36,38,40,42,44,46,48,-1,-1,50,52,54,-1,56,-1,-1,58,-1,-1,-1,60,62,64,66,68,70,72,74,76,78,80,82,-1,-1,84,86,88,-1,-1,-1,-1,-1,-1,-1,-1,-1,-1,-1,-1,-1,-1,-1,-1,-1,-1,-1,-1,-1,-1,-1,-1,-1,-1,-1,-1,-1,-1,-1,-1,-1,-1,-1],"split_conditions":[2.7156033E-2,2.2474349E-7,-1.0379177E-2,9.41311E-3,3.8429894E-2,1.7801126E-2,1.8614024E-2,-5.9000067E-2,1.6662308E-3,2.4736023E-2,-1.2950444E-2,7.547214E-2,8.407678E-3,3.521829E-2,3.5523478E-2,4.7766854E-4,6.734997E-2,2.2540124E-2,-3.3360077E-3,-5.0751828E-2,-1.21107E-3,-1.7811771E-2,7.975156E-3,3.9487607E-3,7.2274394E-2,-1.9704634E-2,-8.4895946E-5,5.2081715E-2,2.1377482E-2,-6.4917825E-2,3.080004E-2,-4.4833317E-2,7.767096E-2,4.6932008E-2,2.177508E-2,-6.903063E-2,2.2720661E-2,-1.17700575E-2,-4.9709395E-2,-4.541872E-2,8.369221E-2,-3.005474E-3,3.355157E-2,-5.0664274E-3,-5.289893E-2,-2.545617E-2,4.356634E-2,-5.2981466E-2,4.385515E-4,1.5388499E-2,8.6919956E-2,-3.65206E-2,-1.5682295E-3,-1.8439572E-2,6.399079E-2,6.445735E-2,-4.075819E-2,-7.272819E-2,-1.0663204E-2,5.2970357E-2,-5.5230808E-2,-2.2911912E-2,9.292313E-2,4.6687257E-2,-7.109194E-2,-1.2480387E-2,4.2033836E-2,2.8867526E-2,-3.4573294E-2,7.6196246E-2,-1.4309277E-3,-2.8213114E-2,9.7380936E-2,4.4821743E-2,-4.815437E-2,7.894277E-2,-2.0169564E-2,9.044171E-2,-3.914319E-2,2.0704713E-2,-6.653777E-2,7.098628E-2,-4.0263865E-2,1.3629218E-3,9.3946226E-2,4.002098E-2,-5.4094423E-2,1.8371703E-3,-6.139353E-2],"split_indices":[265,688,760,532,459,28,87,80,363,424,721,241,310,697,395,328,159,252,400,487,360,102,311,695,0,0,286,272,327,0,487,0,0,578,0,0,0,693,15,116,73,127,94,47,530,200,740,128,705,0,0,677,7,665,0,0,0,0,0,0,0,0,0,0,0,0,0,0,0,0,0,0,0,0,0,0,0,0,0,0,0,0,0,0,0,0,0,0,0],"split_type":[0,0,0,0,0,0,0,0,0,0,0,0,0,0,0,0,0,0,0,0,0,0,0,0,0,0,0,0,0,0,0,0,0,0,0,0,0,0,0,0,0,0,0,0,0,0,0,0,0,0,0,0,0,0,0,0,0,0,0,0,0,0,0,0,0,0,0,0,0,0,0,0,0,0,0,0,0,0,0,0,0,0,0,0,0,0,0,0,0],"sum_hessian":[1.01530054E3,8.506144E2,1.6468619E2,1.2309958E2,7.275148E2,3.6416775E1,1.2826941E2,9.2933105E1,3.0166477E1,6.147814E2,1.1273345E2,2.8360573E1,8.056204E0,1.18117645E2,1.0151758E1,3.481268E0,8.9451836E1,1.2301813E1,1.7864664E1,5.1171933E2,1.0306203E2,3.783836E1,7.4895096E1,2.6646833E1,1.7137398E0,1.8829405E0,6.173263E0,1.11401566E2,6.7160773E0,5.63536E0,4.516399E0,1.538722E0,1.9425459E0,8.730005E1,2.1517825E0,1.1127348E1,1.1744657E0,7.385492E0,1.0479173E1,2.667646E1,4.8504285E2,5.949006E1,4.3571964E1,6.0548043E0,3.1783554E1,2.6125364E1,4.8769733E1,2.2370958E1,4.2758746E0,1.2068344E0,4.9664288E0,1.0772182E2,3.6797526E0,5.2259626E0,1.4901148E0,2.1841311E0,2.3322675E0,8.569439E1,1.6056588E0,2.42365E0,4.9618416E0,1.3610138E0,9.118158E0,1.1880084E0,2.5488451E1,4.6573737E2,1.93055E1,3.0097054E1,2.9393003E1,2.8262785E1,1.5309181E1,1.4362473E0,4.6185575E0,5.045288E0,2.6738266E1,7.5609703E0,1.8564394E1,4.5459362E1,3.31037E0,1.1941435E0,2.1176815E1,1.9874961E0,2.2883782E0,3.5040584E0,1.0421776E2,1.2025393E0,2.4772134E0,1.160914E0,4.0650487E0],"tree_param":{"num_deleted":"0","num_feature":"768","num_nodes":"89","size_leaf_vector":"1"}},{"base_weights":[-4.5419815E-3,-2.0782028E-1,1.0158421E0,-7.9531324E-1,-5.4820366E-2,-2.690234E-1,1.4007149E0,7.329316E-1,-1.0315877E0,-3.291126E-1,2.4158889E-1,-5.339582E-1,1.3940136E0,1.6023811E0,-1.3672183E-1,-5.447729E-1,1.7539818E0,-1.2799085E0,-3.3121344E-1,-1.5695414E-2,-5.922924E-1,1.1427807E0,5.919815E-2,7.752472E-2,-7.420424E-1,1.6136048E-2,8.042976E-2,1.7043499E0,-3.259821E-1,-9.583587E-1,1.410746E0,-1.2105398E0,6.6067435E-2,-1.7691102E-2,9.890863E-2,6.514068E-1,-1.3332627E0,7.825457E-2,-5.901336E-1,-1.06532805E-1,1.016136E-1,-6.347636E-1,1.0883815E0,1.7205521E0,9.563344E-2,1.1153139E0,-7.22824E-2,-9.1991764E-1,5.2242603E-2,-4.321717E-2,1.7446094E0,5.2785605E-2,-5.139054E-2,-1.2481476E0,3.7580542E-2,1.6981011E-2,8.0185466E-2,-6.5162174E-2,-1.3675432E-2,-2.2435108E-2,6.811452E-2,-6.869674E-2,3.0967101E-2,-5.837008E-2,4.7027566E-3,3.9608084E-2,-1.3434944E-2,-6.135675E-4,-3.790911E-2,-4.2980503E-2,9.54266E-2,-1.4592801E-2,9.392499E-2,-2.9974863E-2,5.0293516E-2,7.573793E-2,-3.5975035E-2,-5.8779985E-2,9.5191965E-4,1.0554432E-2,-6.248812E-2,-2.0876406E-2,8.8622764E-2,-6.585591E-2,-1.8131081E-2],"categories":[],"categories_nodes":[],"categories_segments":[],"categories_sizes":[],"default_left":[0,0,0,0,0,0,0,0,0,0,0,0,0,0,0,0,0,0,0,0,0,0,0,0,0,0,0,0,0,0,0,0,0,0,0,0,0,0,0,0,0,0,0,0,0,0,0,0,0,0,0,0,0,0,0,0,0,0,0,0,0,0,0,0,0,0,0,0,0,0,0,0,0,0,0,0,0,0,0,0,0,0,0,0,0],"id":6,"left_children":[1,3,5,7,9,11,13,15,17,19,21,23,25,27,29,31,33,35,37,39,41,43,45,-1,47,-1,-1,49,51,53,55,57,-1,-1,-1,59,61,-1,63,65,-1,67,69,71,73,75,77,79,-1,-1,81,-1,-1,83,-1,-1,-1,-1,-1,-1,-1,-1,-1,-1,-1,-1,-1,-1,-1,-1,-1,-1,-1,-1,-1,-1,-1,-1,-1,-1,-1,-1,-1,-1,-1],"loss_changes":[2.0918369E2,7.554071E1,8.32348E1,6.3470642E1,5.4415535E1,1.8116848E1,4.0256058E1,3.2062252E1,2.5793823E1,2.8651806E1,5.280813E1,1.6217712E1,7.7019787E-1,2.302478E1,2.154353E1,1.5693995E1,7.0904884E0,1.2313004E1,2.096704E1,2.9902136E1,1.41677475E1,3.2545914E1,3.739775E1,0E0,1.122068E1,0E0,0E0,1.275058E1,7.455742E0,6.38155E0,6.5726376E-1,3.9984512E-1,0E0,0E0,0E0,3.4754496E0,9.463089E0,0E0,1.4602306E1,2.262929E1,0E0,1.4184479E1,9.667564E0,1.1624207E1,1.3451469E1,2.2948544E1,2.4200523E1,1.1427326E1,0E0,0E0,7.2130737E0,0E0,0E0,1.0201645E-1,0E0,0E0,0E0,0E0,0E0,0E0,0E0,0E0,0E0,0E0,0E0,0E0,0E0,0E0,0E0,0E0,0E0,0E0,0E0,0E0,0E0,0E0,0E0,0E0,0E0,0E0,0E0,0E0,0E0,0E0,0E0],"parents":[2147483647,0,0,1,1,2,2,3,3,4,4,5,5,6,6,7,7,8,8,9,9,10,10,11,11,12,12,13,13,14,14,15,15,16,16,17,17,18,18,19,19,20,20,21,21,22,22,24,24,27,27,28,28,29,29,30,30,31,31,35,35,36,36,38,38,39,39,41,41,42,42,43,43,44,44,45,45,46,46,47,47,50,50,53,53],"right_children":[2,4,6,8,10,12,14,16,18,20,22,24,26,28,30,32,34,36,38,40,42,44,46,-1,48,-1,-1,50,52,54,56,58,-1,-1,-1,60,62,-1,64,66,-1,68,70,72,74,76,78,80,-1,-1,82,-1,-1,84,-1,-1,-1,-1,-1,-1,-1,-1,-1,-1,-1,-1,-1,-1,-1,-1,-1,-1,-1,-1,-1,-1,-1,-1,-1,-1,-1,-1,-1,-1,-1],"split_conditions":[2.6139196E-2,1.7167673E-6,1.0287457E-2,-4.7885474E-2,1.1106281E-2,2.8635658E-2,1.1398412E-2,1.7458253E-3,9.055536E-3,-2.134307E-3,-4.7110327E-2,-5.8561426E-2,-9.210971E-3,2.0265592E-2,9.241359E-3,-5.3756246E-3,-4.4163033E-2,-6.711994E-2,-6.129129E-2,1.9153357E-2,1.01311795E-1,1.5169965E-2,-2.8714933E-2,7.752472E-2,3.2516304E-2,1.6136048E-2,8.042976E-2,-3.6943585E-2,1.4264293E-2,3.523349E-2,-3.8749043E-2,4.2750333E-2,6.6067435E-2,-1.7691102E-2,9.890863E-2,-5.256106E-4,6.257339E-2,7.825457E-2,-1.1527299E-2,-8.470041E-3,1.016136E-1,-3.2536305E-2,-2.1360863E-2,-6.330956E-2,2.3355538E-2,3.5285603E-2,-4.859901E-2,-2.0242602E-2,5.2242603E-2,-4.321717E-2,-5.7490896E-2,5.2785605E-2,-5.139054E-2,9.607543E-3,3.7580542E-2,1.6981011E-2,8.0185466E-2,-6.5162174E-2,-1.3675432E-2,-2.2435108E-2,6.811452E-2,-6.869674E-2,3.0967101E-2,-5.837008E-2,4.7027566E-3,3.9608084E-2,-1.3434944E-2,-6.135675E-4,-3.790911E-2,-4.2980503E-2,9.54266E-2,-1.4592801E-2,9.392499E-2,-2.9974863E-2,5.0293516E-2,7.573793E-2,-3.5975035E-2,-5.8779985E-2,9.5191965E-4,1.0554432E-2,-6.248812E-2,-2.0876406E-2,8.8622764E-2,-6.585591E-2,-1.8131081E-2],"split_indices":[265,34,568,451,48,298,388,241,220,630,651,651,204,439,320,362,690,75,38,273,8,490,17,0,164,0,0,511,697,657,169,697,0,0,0,650,483,0,430,542,0,317,685,359,577,389,561,416,0,0,677,0,0,353,0,0,0,0,0,0,0,0,0,0,0,0,0,0,0,0,0,0,0,0,0,0,0,0,0,0,0,0,0,0,0],"split_type":[0,0,0,0,0,0,0,0,0,0,0,0,0,0,0,0,0,0,0,0,0,0,0,0,0,0,0,0,0,0,0,0,0,0,0,0,0,0,0,0,0,0,0,0,0,0,0,0,0,0,0,0,0,0,0,0,0,0,0,0,0,0,0,0,0,0,0,0,0,0,0,0,0,0,0,0,0,0,0,0,0,0,0,0,0],"sum_hessian":[1.0065145E3,8.399817E2,1.6653287E2,1.7267528E2,6.673064E2,3.8449036E1,1.2808383E2,2.2834604E1,1.4984068E2,3.4654385E2,3.2076254E2,3.3756325E1,4.692709E0,1.1319965E2,1.4884186E1,1.03454075E1,1.2489197E1,1.09998474E2,3.98422E1,1.5867621E2,1.8786765E2,5.3095844E1,2.676667E2,2.474005E0,3.1282322E1,1.2087275E0,3.4839814E0,1.07629715E2,5.569935E0,9.975037E0,4.909148E0,7.8879347E0,2.4574735E0,1.1407968E0,1.13484E1,2.6507287E0,1.0734775E2,4.175795E0,3.566641E1,1.5284944E2,5.8267574E0,1.8384996E2,4.017683E0,3.3796005E1,1.9299837E1,2.8813774E1,2.3885292E2,2.889661E1,2.3857114E0,1.3411604E0,1.0628856E2,1.7015685E0,3.8683662E0,8.765474E0,1.2095628E0,1.1786107E0,3.730538E0,6.8124614E0,1.075473E0,1.1797625E0,1.4709662E0,1.0545268E2,1.8950646E0,1.896961E1,1.6696796E1,2.2761711E1,1.3008774E2,3.0615173E1,1.5323479E2,1.1724993E0,2.8451836E0,2.393198E0,3.1402807E1,1.1130263E1,8.169575E0,2.3810123E1,5.00365E0,1.73592E1,2.2149373E2,6.598997E0,2.2297613E1,1.1689649E0,1.0511959E2,7.6694484E0,1.0960258E0],"tree_param":{"num_deleted":"0","num_feature":"768","num_nodes":"85","size_leaf_vector":"1"}},{"base_weights":[-9.509923E-3,-2.652381E-1,6.214614E-1,-1.1153766E0,-1.6579348E-1,-1.5429077E-1,1.1743401E0,-2.4028707E-2,-1.3350389E0,-8.4141634E-2,-1.0459174E0,-4.7043246E-1,6.3166255E-1,1.5070969E0,3.8352486E-2,-8.869303E-1,1.1799653E0,-1.3904368E0,2.1054853E-2,-2.349735E-1,5.8733827E-1,-1.1707097E0,1.0165259E0,-7.557425E-1,4.5232752E-1,1.0277305E0,-5.040097E-1,-9.0849787E-1,1.6615872E0,-3.744327E-1,8.06114E-2,4.6549913E-2,-6.5745525E-2,-4.1173555E-2,9.0780206E-2,-7.018217E-2,-1.6554113E-2,-2.5816464E-1,8.6428516E-2,-1.4318135E-1,1.2149589E0,-1.2590632E0,6.954594E-2,7.456804E-2,8.718692E-4,1.0118839E0,-8.8158876E-1,1.4947132E0,-4.3201312E-1,1.3195875E0,-5.882994E-2,8.957577E-1,-6.5076806E-2,-6.476844E-2,2.0681845E-2,1.7106236E0,-5.0542306E-2,1.1888844E0,-6.522284E-1,6.8474473E-3,-1.8322848E-2,3.4333244E-2,-3.3550054E-2,8.221626E-2,1.1750486E-3,4.852005E-2,-6.6597395E-2,8.090808E-2,-2.3435006E-2,-4.8325922E-2,5.0299633E-2,-3.107707E-2,9.956141E-2,3.7555356E-2,-6.1700966E-2,7.722307E-2,-3.6005016E-2,-2.2476502E-2,7.970434E-2,-3.5829972E-2,8.776655E-2,-4.0516597E-3,7.9599E-2,4.187903E-2,-4.543595E-2],"categories":[],"categories_nodes":[],"categories_segments":[],"categories_sizes":[],"default_left":[0,0,0,0,0,0,0,0,0,0,0,0,0,0,0,0,0,0,0,0,0,0,0,0,0,0,0,0,0,0,0,0,0,0,0,0,0,0,0,0,0,0,0,0,0,0,0,0,0,0,0,0,0,0,0,0,0,0,0,0,0,0,0,0,0,0,0,0,0,0,0,0,0,0,0,0,0,0,0,0,0,0,0,0,0],"id":7,"left_children":[1,3,5,7,9,11,13,15,17,19,21,23,25,27,29,31,33,35,-1,37,39,41,43,45,47,49,51,53,55,57,-1,-1,-1,-1,-1,-1,-1,59,-1,61,63,65,-1,-1,-1,67,69,71,73,75,-1,77,-1,-1,-1,79,-1,81,83,-1,-1,-1,-1,-1,-1,-1,-1,-1,-1,-1,-1,-1,-1,-1,-1,-1,-1,-1,-1,-1,-1,-1,-1,-1,-1],"loss_changes":[1.6115457E2,5.9886314E1,1.2373174E2,1.7752434E1,4.571096E1,3.0295712E1,6.3546844E1,1.5033306E1,6.6052933E0,5.932686E1,1.5095242E1,2.3166971E1,1.6289818E1,5.0083588E1,2.6059559E1,7.7787485E0,9.204296E0,3.5913086E-1,0E0,2.2196587E1,4.946032E1,1.3384979E1,1.6728296E0,1.5705025E1,2.009761E1,1.8489693E1,1.2029794E1,4.874684E0,1.7812256E1,1.4594466E1,0E0,0E0,0E0,0E0,0E0,0E0,0E0,2.0302279E1,0E0,2.2603197E1,2.9575493E1,9.456978E0,0E0,0E0,0E0,5.1562777E0,1.1025005E1,1.1663668E1,1.2489471E1,1.2000904E1,0E0,4.5973125E0,0E0,0E0,0E0,1.43811035E1,0E0,2.7813578E0,1.1339294E1,0E0,0E0,0E0,0E0,0E0,0E0,0E0,0E0,0E0,0E0,0E0,0E0,0E0,0E0,0E0,0E0,0E0,0E0,0E0,0E0,0E0,0E0,0E0,0E0,0E0,0E0],"parents":[2147483647,0,0,1,1,2,2,3,3,4,4,5,5,6,6,7,7,8,8,9,9,10,10,11,11,12,12,13,13,14,14,15,15,16,16,17,17,19,19,20,20,21,21,22,22,23,23,24,24,25,25,26,26,27,27,28,28,29,29,37,37,39,39,40,40,41,41,45,45,46,46,47,47,48,48,49,49,51,51,55,55,57,57,58,58],"right_children":[2,4,6,8,10,12,14,16,18,20,22,24,26,28,30,32,34,36,-1,38,40,42,44,46,48,50,52,54,56,58,-1,-1,-1,-1,-1,-1,-1,60,-1,62,64,66,-1,-1,-1,68,70,72,74,76,-1,78,-1,-1,-1,80,-1,82,84,-1,-1,-1,-1,-1,-1,-1,-1,-1,-1,-1,-1,-1,-1,-1,-1,-1,-1,-1,-1,-1,-1,-1,-1,-1,-1],"split_conditions":[3.897176E-2,-4.332591E-2,1.1709749E-2,-1.2400909E-2,2.1861918E-2,1.9427646E-2,1.0495179E-2,-1.4423851E-2,1.7825305E-2,5.9531385E-4,3.3941183E-34,3.605132E-2,-4.494073E-3,-3.0478418E-2,6.029521E-2,-2.8291877E-2,-6.943482E-2,4.13737E-2,2.1054853E-2,9.63265E-2,3.525548E-3,5.127021E-2,4.9518407E-3,-5.258042E-2,-3.3530463E-2,5.37853E-2,6.739844E-4,-1.5584698E-2,4.087032E-2,-1.9759504E-2,8.06114E-2,4.6549913E-2,-6.5745525E-2,-4.1173555E-2,9.0780206E-2,-7.018217E-2,-1.6554113E-2,-3.6326855E-2,8.6428516E-2,-3.3938542E-2,1.3493669E-2,-7.831679E-2,6.954594E-2,7.456804E-2,8.718692E-4,-1.3159531E-2,7.0202045E-2,-4.620293E-2,-2.2563918E-2,2.7597511E-2,-5.882994E-2,-1.5938988E-2,-6.5076806E-2,-6.476844E-2,2.0681845E-2,-6.363874E-2,-5.0542306E-2,-1.303939E-2,-3.8347702E-2,6.8474473E-3,-1.8322848E-2,3.4333244E-2,-3.3550054E-2,8.221626E-2,1.1750486E-3,4.852005E-2,-6.6597395E-2,8.090808E-2,-2.3435006E-2,-4.8325922E-2,5.0299633E-2,-3.107707E-2,9.956141E-2,3.7555356E-2,-6.1700966E-2,7.722307E-2,-3.6005016E-2,-2.2476502E-2,7.970434E-2,-3.5829972E-2,8.776655E-2,-4.0516597E-3,7.9599E-2,4.187903E-2,-4.543595E-2],"split_indices":[48,131,231,439,707,585,567,139,318,648,756,577,599,742,241,538,496,28,0,73,401,296,129,651,766,179,175,456,201,84,0,0,0,0,0,0,0,508,0,664,464,453,0,0,0,176,101,45,415,87,0,383,0,0,0,52,0,215,491,0,0,0,0,0,0,0,0,0,0,0,0,0,0,0,0,0,0,0,0,0,0,0,0,0,0],"split_type":[0,0,0,0,0,0,0,0,0,0,0,0,0,0,0,0,0,0,0,0,0,0,0,0,0,0,0,0,0,0,0,0,0,0,0,0,0,0,0,0,0,0,0,0,0,0,0,0,0,0,0,0,0,0,0,0,0,0,0,0,0,0,0,0,0,0,0,0,0,0,0,0,0,0,0,0,0,0,0,0,0,0,0,0,0],"sum_hessian":[9.9674506E2,7.09703E2,2.8704208E2,7.32429E1,6.364601E2,1.19738335E2,1.6730376E2,1.2465501E1,6.0777397E1,5.834396E2,5.3020542E1,8.5686134E1,3.40522E1,1.2914017E2,3.816359E1,7.419558E0,5.045943E0,5.912618E1,1.6512188E0,4.7696564E2,1.0647393E2,5.0407738E1,2.612806E0,6.559616E1,2.0089975E1,2.532419E1,8.728008E0,7.465477E0,1.2167468E2,3.0832735E1,7.3308554E0,1.1854471E0,6.2341113E0,1.1403862E0,3.9055564E0,5.806783E1,1.0583488E0,4.722614E2,4.7042E0,4.955282E1,5.6921116E1,4.9222397E1,1.1853412E0,1.4302998E0,1.1825063E0,3.8865075E0,6.1709652E1,8.909417E0,1.1180558E1,2.27217E1,2.6024902E0,3.1186476E0,5.60936E0,5.7970157E0,1.6684616E0,1.198394E2,1.8352865E0,4.151898E0,2.6680838E1,1.0151574E2,3.707457E2,1.9140282E1,3.0412535E1,4.1556786E1,1.5364329E1,1.1640477E0,4.8058346E1,2.6962605E0,1.1902469E0,5.9524662E1,2.1849902E0,1.6414125E0,7.2680054E0,4.537633E0,6.6429253E0,2.0688507E1,2.033193E0,1.1825312E0,1.9361162E0,1.8915638E0,1.1794784E2,1.1868848E0,2.965013E0,3.58031E0,2.3100527E1],"tree_param":{"num_deleted":"0","num_feature":"768","num_nodes":"85","size_leaf_vector":"1"}},{"base_weights":[-1.3795826E-2,-2.6330668E-1,5.3726894E-1,-3.360189E-1,1.0901552E0,1.0131305E0,-1.0518621E-1,-1.0216026E0,-2.0721161E-1,1.5031066E0,-7.759062E-1,2.2303903E-1,1.4090148E0,6.5157056E-1,-4.6567258E-1,5.947296E-2,-1.2479362E0,-2.748561E-1,7.423658E-1,-5.2631713E-2,1.7387158E0,-6.407289E-2,3.622243E-2,5.071018E-1,-8.8773143E-1,-5.064771E-1,1.5302655E0,1.1423885E0,-3.469242E-1,-7.41277E-1,3.6679137E-1,1.348353E0,-5.622191E-1,4.6881836E-2,-1.3044193E0,-1.2129912E0,-2.194558E-1,1.17153965E-1,1.4693685E0,9.3637496E-2,-8.707191E-4,1.3265342E0,-2.9393794E-2,3.7409004E-2,-1.2973019E0,-1.0384376E0,6.396826E-2,1.599136E0,-5.3516805E-2,1.5002892E0,-2.4349557E-1,-9.173186E-1,1.0444847E0,-8.547449E-2,-9.961209E-1,1.345312E0,-2.6264396E-1,1.3290501E-2,7.672934E-2,7.21179E-2,-4.9399193E-2,8.099283E-3,-6.677437E-2,2.4354715E-2,-7.01836E-2,-1.417157E-2,3.9018646E-2,4.0614232E-2,-4.3769833E-2,1.0064437E-1,-8.681641E-3,7.949442E-2,-4.786582E-2,-3.0284375E-2,4.9333103E-2,-6.937701E-2,-1.2284889E-2,7.3988124E-4,-6.3761264E-2,8.24726E-2,-3.8587652E-2,8.3818026E-2,-4.1650143E-2,7.3651046E-2,-6.2088966E-2,-6.476441E-2,4.6750147E-2,7.927485E-2,-2.001141E-2,3.808756E-2,-5.7593405E-2,-5.541126E-2,3.543762E-2,-4.2316455E-2,9.119296E-2,-5.6417257E-2,6.345694E-2],"categories":[],"categories_nodes":[],"categories_segments":[],"categories_sizes":[],"default_left":[0,0,0,0,0,0,0,0,0,0,0,0,0,0,0,0,0,0,0,0,0,0,0,0,0,0,0,0,0,0,0,0,0,0,0,0,0,0,0,0,0,0,0,0,0,0,0,0,0,0,0,0,0,0,0,0,0,0,0,0,0,0,0,0,0,0,0,0,0,0,0,0,0,0,0,0,0,0,0,0,0,0,0,0,0,0,0,0,0,0,0,0,0,0,0,0,0],"id":8,"left_children":[1,3,5,7,9,11,13,15,17,19,21,23,25,27,29,31,33,35,37,-1,39,-1,-1,41,43,45,47,49,51,53,55,57,59,-1,61,63,65,67,69,-1,-1,71,73,-1,75,77,-1,79,-1,81,83,85,87,89,91,93,95,-1,-1,-1,-1,-1,-1,-1,-1,-1,-1,-1,-1,-1,-1,-1,-1,-1,-1,-1,-1,-1,-1,-1,-1,-1,-1,-1,-1,-1,-1,-1,-1,-1,-1,-1,-1,-1,-1,-1,-1],"loss_changes":[1.355112E2,6.7120834E1,9.402232E1,5.6696815E1,2.8002079E1,5.489624E1,3.6202374E1,2.4965797E1,3.5135338E1,1.9210411E1,6.2158794E0,1.942057E1,2.8058975E1,2.1413883E1,2.0862715E1,1.56293745E1,1.1612579E1,2.6145664E1,1.6369883E1,0E0,6.358734E0,0E0,0E0,2.1387539E1,9.420402E0,8.676479E0,2.1542572E1,1.4752872E1,1.277316E1,1.1227386E1,1.4516883E1,8.5134697E-1,1.2698393E1,0E0,3.9836426E0,9.809021E0,3.1004889E1,1.4978261E1,1.5324909E1,0E0,0E0,1.3095314E1,1.8336E1,0E0,6.344185E-1,1.6569538E0,0E0,1.4194305E1,0E0,1.0927147E1,1.3484035E1,8.984085E0,4.391354E0,1.900998E1,1.0094753E1,1.1165064E1,2.1074827E1,0E0,0E0,0E0,0E0,0E0,0E0,0E0,0E0,0E0,0E0,0E0,0E0,0E0,0E0,0E0,0E0,0E0,0E0,0E0,0E0,0E0,0E0,0E0,0E0,0E0,0E0,0E0,0E0,0E0,0E0,0E0,0E0,0E0,0E0,0E0,0E0,0E0,0E0,0E0,0E0],"parents":[2147483647,0,0,1,1,2,2,3,3,4,4,5,5,6,6,7,7,8,8,9,9,10,10,11,11,12,12,13,13,14,14,15,15,16,16,17,17,18,18,20,20,23,23,24,24,25,25,26,26,27,27,28,28,29,29,30,30,31,31,32,32,34,34,35,35,36,36,37,37,38,38,41,41,42,42,44,44,45,45,47,47,49,49,50,50,51,51,52,52,53,53,54,54,55,55,56,56],"right_children":[2,4,6,8,10,12,14,16,18,20,22,24,26,28,30,32,34,36,38,-1,40,-1,-1,42,44,46,48,50,52,54,56,58,60,-1,62,64,66,68,70,-1,-1,72,74,-1,76,78,-1,80,-1,82,84,86,88,90,92,94,96,-1,-1,-1,-1,-1,-1,-1,-1,-1,-1,-1,-1,-1,-1,-1,-1,-1,-1,-1,-1,-1,-1,-1,-1,-1,-1,-1,-1,-1,-1,-1,-1,-1,-1,-1,-1,-1,-1,-1,-1],"split_conditions":[3.5470106E-2,7.25193E-2,-1.9307273E-2,2.2474349E-7,3.5675147E-3,1.1557457E-2,-4.3465845E-2,-7.4441093E-3,4.858998E-2,-1.0016841E-2,2.4989102E-4,6.767919E-3,-1.8891089E-2,7.272504E-3,3.1795576E-2,-1.7491253E-2,-5.423816E-2,-4.862384E-2,-5.25683E-3,-5.2631713E-2,2.2405552E-2,-6.407289E-2,3.622243E-2,8.803238E-4,-2.376682E-3,7.0017306E-3,8.085238E-2,1.4879888E-2,6.267765E-2,-3.1483423E-2,-1.618811E-2,-1.4268105E-2,-3.2676086E-2,4.6881836E-2,-3.2125905E-2,-1.9475617E-2,4.8599035E-2,-1.7455155E-2,3.685073E-2,9.3637496E-2,-8.707191E-4,6.494178E-2,2.5639495E-2,3.7409004E-2,2.886259E-2,7.6453006E-3,6.396826E-2,6.710826E-2,-5.3516805E-2,5.005397E-2,2.3518967E-2,3.654583E-2,2.1196652E-2,-4.179019E-3,4.7894128E-2,-4.917892E-2,4.1106087E-3,1.3290501E-2,7.672934E-2,7.21179E-2,-4.9399193E-2,8.099283E-3,-6.677437E-2,2.4354715E-2,-7.01836E-2,-1.417157E-2,3.9018646E-2,4.0614232E-2,-4.3769833E-2,1.0064437E-1,-8.681641E-3,7.949442E-2,-4.786582E-2,-3.0284375E-2,4.9333103E-2,-6.937701E-2,-1.2284889E-2,7.3988124E-4,-6.3761264E-2,8.24726E-2,-3.8587652E-2,8.3818026E-2,-4.1650143E-2,7.3651046E-2,-6.2088966E-2,-6.476441E-2,4.6750147E-2,7.927485E-2,-2.001141E-2,3.808756E-2,-5.7593405E-2,-5.541126E-2,3.543762E-2,-4.2316455E-2,9.119296E-2,-5.6417257E-2,6.345694E-2],"split_indices":[48,578,177,688,477,231,38,463,230,426,53,707,742,316,77,391,379,487,48,0,196,0,0,598,266,762,699,55,406,749,388,85,742,0,367,446,589,562,12,0,0,656,675,0,500,752,0,370,0,651,232,605,658,458,408,722,463,0,0,0,0,0,0,0,0,0,0,0,0,0,0,0,0,0,0,0,0,0,0,0,0,0,0,0,0,0,0,0,0,0,0,0,0,0,0,0,0],"split_type":[0,0,0,0,0,0,0,0,0,0,0,0,0,0,0,0,0,0,0,0,0,0,0,0,0,0,0,0,0,0,0,0,0,0,0,0,0,0,0,0,0,0,0,0,0,0,0,0,0,0,0,0,0,0,0,0,0,0,0,0,0,0,0,0,0,0,0,0,0,0,0,0,0,0,0,0,0,0,0,0,0,0,0,0,0,0,0,0,0,0,0,0,0,0,0,0,0],"sum_hessian":[9.8355115E2,6.773853E2,3.061659E2,6.435698E2,3.3815456E1,1.755649E2,1.3060098E2,1.0068096E2,5.4288885E2,2.7851828E1,5.963628E0,5.913468E1,1.16430214E2,4.186984E1,8.873115E1,1.7549479E1,8.3131485E1,5.074603E2,3.542856E1,2.0546052E0,2.5797222E1,4.5747175E0,1.3889104E0,4.753165E1,1.160303E1,6.7372284E0,1.09692986E2,2.7981312E1,1.3888526E1,6.675281E1,2.1978344E1,5.335423E0,1.2214055E1,1.6968193E0,8.143467E1,2.7121178E1,4.8033914E2,1.9679432E1,1.5749127E1,2.3911499E1,1.8857231E0,1.8231413E1,2.9300238E1,2.152866E0,9.450164E0,5.51774E0,1.2194887E0,1.07241875E2,2.4511049E0,2.2178453E1,5.8028593E0,1.0097194E1,3.791332E0,1.9065434E1,4.768737E1,8.164446E0,1.3813898E1,1.1473097E0,4.188113E0,1.7173392E0,1.0496716E1,1.5954189E0,7.983925E1,2.5730674E0,2.4548111E1,4.521351E2,2.820404E1,1.1686506E1,7.9929256E0,1.1669661E1,4.079467E0,1.6622843E1,1.6085703E0,1.8960062E1,1.0340177E1,8.400367E0,1.0497974E0,1.1771284E0,4.3406115E0,1.0531534E2,1.9265375E0,2.0888063E1,1.2903903E0,1.9552684E0,3.847591E0,8.640254E0,1.4569396E0,2.6925187E0,1.0988133E0,1.0778476E1,8.286959E0,4.5079025E1,2.608347E0,1.3217385E0,6.842707E0,8.99832E0,4.8155775E0],"tree_param":{"num_deleted":"0","num_feature":"768","num_nodes":"97","size_leaf_vector":"1"}},{"base_weights":[2.2631022E-4,-1.7640088E-1,9.173828E-1,-9.313042E-1,-6.495033E-2,-2.610369E-1,1.2936457E0,-1.0586134E-1,-1.203634E0,-1.7740956E-1,6.456247E-1,6.8141496E-1,-7.9559106E-1,1.476436E0,-4.0119797E-1,-5.6899595E-1,1.4760829E0,3.0358678E-2,-1.2471575E0,-7.491556E-1,-5.430764E-2,1.4669468E0,4.934214E-2,1.3990104E0,-6.2433654E-1,2.604178E-1,-1.1949234E0,-3.7152883E-1,1.552313E0,-9.5388865E-1,1.0699432E0,-8.946377E-1,1.1581154E0,-4.3392516E-5,9.03615E-2,-1.2981724E0,1.8349269E-1,5.1072466E-1,-9.28705E-1,-1.1191671E-1,9.7840774E-1,-3.9650347E-2,1.6087362E0,9.058735E-1,-2.3067959E-1,5.0521228E-3,8.190016E-2,4.364869E-2,-5.9489656E-2,9.1692734E-1,-5.023362E-2,2.4440193E-3,-1.3170404E0,-5.5316307E-2,4.356785E-2,1.6087626E0,-3.920201E-1,1.7252596E-2,-1.2048626E0,6.403128E-2,1.5271288E-2,-5.7736464E-2,4.879723E-2,7.1021885E-2,1.5446685E-2,-6.662105E-2,1.08308755E-2,-4.454502E-2,6.2154986E-2,-3.733995E-2,6.714831E-2,-5.286398E-2,2.6994526E-2,2.3868114E-2,-9.463074E-3,7.928426E-3,9.178584E-2,-6.5472275E-3,8.416804E-2,6.692776E-2,-2.6500924E-2,-4.4093877E-2,1.1343542E-2,7.1969375E-2,-3.623129E-2,-1.469221E-2,-6.8108685E-2,-1.777684E-2,8.164089E-2,-4.1787937E-2,1.1906137E-2,-1.6178397E-2,-6.419385E-2],"categories":[],"categories_nodes":[],"categories_segments":[],"categories_sizes":[],"default_left":[0,0,0,0,0,0,0,0,0,0,0,0,0,0,0,0,0,0,0,0,0,0,0,0,0,0,0,0,0,0,0,0,0,0,0,0,0,0,0,0,0,0,0,0,0,0,0,0,0,0,0,0,0,0,0,0,0,0,0,0,0,0,0,0,0,0,0,0,0,0,0,0,0,0,0,0,0,0,0,0,0,0,0,0,0,0,0,0,0,0,0,0,0],"id":9,"left_children":[1,3,5,7,9,11,13,15,17,19,21,23,25,27,29,31,33,-1,35,37,39,41,43,45,47,49,51,53,55,57,59,61,63,-1,-1,65,67,69,71,73,75,-1,77,79,81,-1,-1,-1,-1,83,-1,-1,85,-1,-1,87,89,-1,91,-1,-1,-1,-1,-1,-1,-1,-1,-1,-1,-1,-1,-1,-1,-1,-1,-1,-1,-1,-1,-1,-1,-1,-1,-1,-1,-1,-1,-1,-1,-1,-1,-1,-1],"loss_changes":[1.608474E2,6.99741E1,7.144241E1,2.3915245E1,5.8166485E1,2.050913E1,3.8308807E1,2.1090717E1,7.0970383E0,4.4154915E1,4.862924E1,1.4819185E1,1.1181829E1,1.6023712E1,1.1288394E1,1.3472563E1,3.2161465E0,0E0,6.001045E0,2.5627262E1,3.091087E1,1.4678154E1,1.4288733E1,2.8921757E0,6.0896864E0,7.4662037E0,2.9439278E0,5.6635456E0,1.2270111E1,3.5911617E0,2.2366142E-1,1.0459071E1,4.2145395E-1,0E0,0E0,4.254257E0,5.189782E0,1.6190033E1,1.9018127E1,2.2484945E1,1.8986551E1,0E0,5.385582E0,9.83052E0,1.3616696E1,0E0,0E0,0E0,0E0,5.953149E0,0E0,0E0,3.7887383E-1,0E0,0E0,5.467285E0,1.2641687E0,0E0,1.5136814E-1,0E0,0E0,0E0,0E0,0E0,0E0,0E0,0E0,0E0,0E0,0E0,0E0,0E0,0E0,0E0,0E0,0E0,0E0,0E0,0E0,0E0,0E0,0E0,0E0,0E0,0E0,0E0,0E0,0E0,0E0,0E0,0E0,0E0,0E0],"parents":[2147483647,0,0,1,1,2,2,3,3,4,4,5,5,6,6,7,7,8,8,9,9,10,10,11,11,12,12,13,13,14,14,15,15,16,16,18,18,19,19,20,20,21,21,22,22,23,23,24,24,25,25,26,26,27,27,28,28,29,29,30,30,31,31,32,32,35,35,36,36,37,37,38,38,39,39,40,40,42,42,43,43,44,44,49,49,52,52,55,55,56,56,58,58],"right_children":[2,4,6,8,10,12,14,16,18,20,22,24,26,28,30,32,34,-1,36,38,40,42,44,46,48,50,52,54,56,58,60,62,64,-1,-1,66,68,70,72,74,76,-1,78,80,82,-1,-1,-1,-1,84,-1,-1,86,-1,-1,88,90,-1,92,-1,-1,-1,-1,-1,-1,-1,-1,-1,-1,-1,-1,-1,-1,-1,-1,-1,-1,-1,-1,-1,-1,-1,-1,-1,-1,-1,-1,-1,-1,-1,-1,-1,-1],"split_conditions":[2.6139196E-2,-3.510296E-2,1.0759087E-2,-2.1603085E-2,4.651752E-2,4.7362948E-5,-1.3455489E-2,3.625964E-2,-4.5404177E-2,-6.4303316E-3,5.1042694E-3,4.9403496E-2,-5.505412E-2,-4.027193E-2,-2.5723395E-3,2.9684303E-2,-4.330515E-2,3.0358678E-2,4.145776E-2,-4.692971E-2,8.369221E-2,3.1601894E-3,-1.4566111E-2,-3.5881847E-2,-7.0786014E-2,4.120852E-2,-4.4390257E-2,1.403679E-2,5.9688993E-2,-4.480296E-2,7.837586E-3,4.9582798E-2,9.406047E-3,-4.3392516E-5,9.03615E-2,5.055247E-2,-1.0898388E-3,5.895168E-4,4.6240468E-2,-7.600901E-2,9.924293E-3,-3.9650347E-2,-2.5737647E-2,1.9273134E-2,-1.7418416E-2,5.0521228E-3,8.190016E-2,4.364869E-2,-5.9489656E-2,3.7756097E-2,-5.023362E-2,2.4440193E-3,-5.3966995E-2,-5.5316307E-2,4.356785E-2,-3.4941085E-2,4.113407E-2,1.7252596E-2,-7.574268E-2,6.403128E-2,1.5271288E-2,-5.7736464E-2,4.879723E-2,7.1021885E-2,1.5446685E-2,-6.662105E-2,1.08308755E-2,-4.454502E-2,6.2154986E-2,-3.733995E-2,6.714831E-2,-5.286398E-2,2.6994526E-2,2.3868114E-2,-9.463074E-3,7.928426E-3,9.178584E-2,-6.5472275E-3,8.416804E-2,6.692776E-2,-2.6500924E-2,-4.4093877E-2,1.1343542E-2,7.1969375E-2,-3.623129E-2,-1.469221E-2,-6.8108685E-2,-1.777684E-2,8.164089E-2,-4.1787937E-2,1.1906137E-2,-1.6178397E-2,-6.419385E-2],"split_indices":[265,131,678,255,113,659,749,373,312,311,752,39,181,722,74,520,541,0,604,664,73,568,127,437,378,456,494,359,414,532,23,21,652,0,0,216,327,363,765,613,761,0,327,28,411,0,0,0,0,672,0,0,307,0,0,390,1,0,675,0,0,0,0,0,0,0,0,0,0,0,0,0,0,0,0,0,0,0,0,0,0,0,0,0,0,0,0,0,0,0,0,0,0],"split_type":[0,0,0,0,0,0,0,0,0,0,0,0,0,0,0,0,0,0,0,0,0,0,0,0,0,0,0,0,0,0,0,0,0,0,0,0,0,0,0,0,0,0,0,0,0,0,0,0,0,0,0,0,0,0,0,0,0,0,0,0,0,0,0,0,0,0,0,0,0,0,0,0,0,0,0,0,0,0,0,0,0,0,0,0,0,0,0,0,0,0,0,0,0],"sum_hessian":[9.9087244E2,8.3153174E2,1.5934071E2,1.06013054E2,7.255187E2,3.863119E1,1.20709526E2,2.665279E1,7.936026E1,6.270439E2,9.847477E1,1.3875097E1,2.4756092E1,1.0907993E2,1.1629596E1,2.111712E1,5.5356693E0,1.5533234E0,7.780694E1,1.1017411E2,5.168698E2,4.0799892E1,5.7674873E1,8.913039E0,4.962058E0,6.8814254E0,1.7874666E1,4.143272E0,1.0493666E2,8.714177E0,2.9154186E0,1.8177584E1,2.9395368E0,1.1909751E0,4.3446946E0,7.522414E1,2.5827987E0,1.3505711E1,9.66684E1,4.9041382E2,2.645597E1,2.133356E0,3.866654E1,1.3667963E1,4.400691E1,1.6136959E0,7.2993436E0,1.2062976E0,3.7557604E0,4.716792E0,2.1646333E0,1.6443399E0,1.6230328E1,2.6779687E0,1.4653031E0,1.0214872E2,2.7879405E0,1.3439147E0,7.370262E0,1.7460834E0,1.1693351E0,1.6299313E1,1.8782711E0,1.7228413E0,1.2166954E0,7.368515E1,1.5389891E0,1.356822E0,1.2259768E0,5.4147015E0,8.091008E0,8.915024E1,7.5181627E0,5.6285004E1,4.341288E2,1.4135198E1,1.2320774E1,1.5538478E0,3.711269E1,1.0560491E1,3.1074724E0,1.778677E1,2.6220139E1,3.6760547E0,1.0407374E0,1.0123341E0,1.5217993E1,1.0640638E0,1.01084656E2,1.4537777E0,1.334163E0,1.0360621E0,6.3342E0],"tree_param":{"num_deleted":"0","num_feature":"768","num_nodes":"93","size_leaf_vector":"1"}},{"base_weights":[-4.367247E-3,-1.5715003E-1,9.3317735E-1,8.354653E-1,-2.3519242E-1,-2.6514375E-1,1.3073798E0,1.4151132E0,-1.8048751E-1,-8.860382E-1,-1.21309765E-1,-5.5755144E-1,7.579427E-2,-7.6692194E-1,1.475428E0,1.57847E0,-6.1103857E-1,9.5456827E-1,-6.4390206E-1,-1.0630759E0,7.7032197E-1,1.4428888E-1,-3.352888E-1,-1.1233737E0,4.0779125E-2,-5.4891407E-2,3.3565074E-2,-3.521974E-2,1.5243458E0,-2.3381533E-2,1.6617165E0,3.3804767E-3,-4.6319384E-2,8.666074E-2,-3.478594E-2,-8.790315E-1,6.62853E-2,1.0202972E0,-1.1673589E0,1.5464448E0,-5.5046547E-2,-8.6204875E-3,9.2404634E-1,-2.3042752E-1,-9.21354E-1,1.7224062E-2,-1.2712594E0,-6.747553E-1,1.0033559E0,1.5579474E0,-2.5159463E-2,8.6977504E-2,-6.7915334E-3,4.2390384E-2,-5.3965498E-2,8.109385E-2,-2.5110751E-2,-5.5567985E-3,-6.261245E-2,8.3817355E-2,1.8094128E-2,3.508557E-2,-6.2352153E-3,5.8302492E-2,-3.3852335E-2,2.564988E-2,-1.8408174E-2,3.2029074E-2,-5.159224E-2,-1.3604961E-2,-6.640225E-2,-5.820645E-2,3.9235946E-2,7.227605E-2,-3.668067E-2,7.888394E-2,7.50073E-3],"categories":[],"categories_nodes":[],"categories_segments":[],"categories_sizes":[],"default_left":[0,0,0,0,0,0,0,0,0,0,0,0,0,0,0,0,0,0,0,0,0,0,0,0,0,0,0,0,0,0,0,0,0,0,0,0,0,0,0,0,0,0,0,0,0,0,0,0,0,0,0,0,0,0,0,0,0,0,0,0,0,0,0,0,0,0,0,0,0,0,0,0,0,0,0,0,0],"id":10,"left_children":[1,3,5,7,9,11,13,15,17,19,21,23,-1,25,27,29,31,33,35,37,39,41,43,45,47,-1,-1,-1,49,-1,51,-1,-1,-1,-1,53,-1,55,57,59,-1,61,63,65,67,-1,69,71,73,75,-1,-1,-1,-1,-1,-1,-1,-1,-1,-1,-1,-1,-1,-1,-1,-1,-1,-1,-1,-1,-1,-1,-1,-1,-1,-1,-1],"loss_changes":[1.394163E2,6.502556E1,6.1513435E1,3.631823E1,5.7453766E1,1.8166994E1,3.742755E1,1.3914932E1,1.2772434E1,3.4690376E1,3.768664E1,9.983546E0,0E0,4.7653055E0,1.1387802E1,6.9999924E0,8.488058E-1,1.0338575E1,9.043204E0,2.3955132E1,1.873867E1,3.5328297E1,2.2335144E1,3.7280598E0,1.115489E1,0E0,0E0,0E0,7.256302E0,0E0,5.185951E0,0E0,0E0,0E0,0E0,6.3855753E0,0E0,5.884639E0,8.835693E0,7.130661E-1,0E0,2.05792E1,1.9615372E1,3.2208275E1,1.0219429E1,0E0,4.1413307E-1,7.5705905E0,6.361286E0,2.344925E0,0E0,0E0,0E0,0E0,0E0,0E0,0E0,0E0,0E0,0E0,0E0,0E0,0E0,0E0,0E0,0E0,0E0,0E0,0E0,0E0,0E0,0E0,0E0,0E0,0E0,0E0,0E0],"parents":[2147483647,0,0,1,1,2,2,3,3,4,4,5,5,6,6,7,7,8,8,9,9,10,10,11,11,13,13,14,14,15,15,16,16,17,17,18,18,19,19,20,20,21,21,22,22,23,23,24,24,28,28,30,30,35,35,37,37,38,38,39,39,41,41,42,42,43,43,44,44,46,46,47,47,48,48,49,49],"right_children":[2,4,6,8,10,12,14,16,18,20,22,24,-1,26,28,30,32,34,36,38,40,42,44,46,48,-1,-1,-1,50,-1,52,-1,-1,-1,-1,54,-1,56,58,60,-1,62,64,66,68,-1,70,72,74,76,-1,-1,-1,-1,-1,-1,-1,-1,-1,-1,-1,-1,-1,-1,-1,-1,-1,-1,-1,-1,-1,-1,-1,-1,-1,-1,-1],"split_conditions":[2.9117912E-2,-4.8599545E-2,1.01034315E-2,1.9284528E-2,1.5757519E-6,2.7305892E-2,-1.446453E-2,4.488299E-2,1.227176E-2,4.2394686E-2,-1.5314134E-2,2.0718198E-2,7.579427E-2,3.1891476E-2,-5.7064865E-2,-4.8574578E-2,-1.0590998E-2,-3.1189976E-2,3.3535738E-2,-4.7489755E-2,9.47119E-4,1.7056163E-2,3.202307E-2,-5.7138346E-2,-6.1037326E-3,-5.4891407E-2,3.3565074E-2,-3.521974E-2,3.280974E-2,-2.3381533E-2,3.2255467E-2,3.3804767E-3,-4.6319384E-2,8.666074E-2,-3.478594E-2,-6.7084625E-2,6.62853E-2,-3.20256E-2,-3.6309917E-2,-8.59483E-3,-5.5046547E-2,-6.831097E-3,3.2271758E-2,-4.739362E-2,-6.200803E-2,1.7224062E-2,-5.1824518E-2,2.8651591E-2,2.7988035E-2,2.1480506E-3,-2.5159463E-2,8.6977504E-2,-6.7915334E-3,4.2390384E-2,-5.3965498E-2,8.109385E-2,-2.5110751E-2,-5.5567985E-3,-6.261245E-2,8.3817355E-2,1.8094128E-2,3.508557E-2,-6.2352153E-3,5.8302492E-2,-3.3852335E-2,2.564988E-2,-1.8408174E-2,3.2029074E-2,-5.159224E-2,-1.3604961E-2,-6.640225E-2,-5.820645E-2,3.9235946E-2,7.227605E-2,-3.668067E-2,7.888394E-2,7.50073E-3],"split_indices":[265,534,231,65,34,298,678,428,81,397,177,138,0,480,62,36,2,326,245,599,523,142,184,444,50,0,0,0,121,0,133,0,0,0,0,186,0,181,682,767,0,65,643,317,735,0,719,692,354,613,0,0,0,0,0,0,0,0,0,0,0,0,0,0,0,0,0,0,0,0,0,0,0,0,0,0,0],"split_type":[0,0,0,0,0,0,0,0,0,0,0,0,0,0,0,0,0,0,0,0,0,0,0,0,0,0,0,0,0,0,0,0,0,0,0,0,0,0,0,0,0,0,0,0,0,0,0,0,0,0,0,0,0,0,0,0,0,0,0,0,0,0,0,0,0,0,0,0,0,0,0,0,0,0,0,0,0],"sum_hessian":[9.713315E2,8.3594794E2,1.353835E2,6.021714E1,7.7573083E2,3.2279263E1,1.0310423E2,3.8097633E1,2.2119507E1,1.1449833E2,6.612325E2,2.8321955E1,3.9573078E0,7.455395E0,9.564884E1,3.546425E1,2.633387E0,6.099173E0,1.6020334E1,1.0377112E2,1.072721E1,2.9515463E2,3.6607785E2,1.4113996E1,1.4207958E1,6.258964E0,1.1964309E0,1.8007724E0,9.384807E1,1.2012556E0,3.4262993E1,1.0746266E0,1.5587604E0,4.1139283E0,1.9852449E0,1.4810994E1,1.209339E0,4.523356E0,9.9247765E1,7.7088156E0,3.0183942E0,2.4758055E2,4.757409E1,3.1171475E2,5.436309E1,1.1639637E0,1.2950032E1,8.315344E0,5.892614E0,9.25508E1,1.2972722E0,3.287724E1,1.3857536E0,1.198056E0,1.3612939E1,3.2001908E0,1.323165E0,7.5638194E0,9.1683945E1,6.5652494E0,1.1435664E0,3.4056065E1,2.1352449E2,4.1568947E1,6.005141E0,4.8287502E1,2.6342725E2,3.268623E0,5.1094467E1,1.0173423E0,1.193269E1,6.383964E0,1.93138E0,4.835286E0,1.057328E0,9.1145775E1,1.4050231E0],"tree_param":{"num_deleted":"0","num_feature":"768","num_nodes":"77","size_leaf_vector":"1"}},{"base_weights":[-7.844398E-4,-1.6134799E-1,8.165451E-1,-8.420058E-1,-4.9550414E-2,-2.4720787E-1,1.1420218E0,-1.0907099E0,2.9680943E-1,-1.9576696E-1,3.5467708E-1,9.462734E-1,-7.2926986E-1,1.307886E0,-4.6411377E-1,6.232816E-2,-1.160058E0,-5.817141E-1,1.1450713E0,-8.555016E-1,-9.258425E-2,8.148299E-1,-2.58355E-1,-6.8752784E-1,8.051857E-2,-9.8532254E-1,1.0206764E0,3.4122014E-1,1.465677E0,9.2500883E-1,-9.3533605E-1,-1.2393577E0,3.1867374E-2,-1.0092639E0,5.8269728E-2,8.118402E-2,-3.248903E-1,1.2528155E0,-9.567583E-1,-1.2488491E-1,1.4748044E0,2.6136577E-1,1.4616675E0,6.509405E-1,-5.1469266E-1,3.080333E-3,-4.91273E-2,-1.2062209E0,3.1843883E-1,6.860198E-2,1.0153105E-3,-4.100931E-1,1.2355279E0,1.5207436E0,-5.515708E-1,-1.2836101E-3,6.904079E-2,-6.2129643E-2,6.8909647E-3,-6.589719E-2,-1.9640822E-2,6.664008E-2,-3.8893696E-2,-6.288787E-2,2.2502331E-2,2.1565353E-2,-4.266325E-2,1.993422E-2,7.546414E-2,5.7801194E-2,-5.1426586E-2,7.0735463E-3,-1.6496003E-2,-1.8472001E-2,1.00169554E-1,-1.0028389E-2,5.5674482E-2,8.019251E-2,-1.8778829E-2,9.088738E-2,1.550495E-3,-3.2347362E-2,6.0723152E-2,-6.741741E-2,3.4171827E-3,6.063036E-2,-4.317925E-2,3.7533037E-2,-4.9231015E-2,-1.6244572E-2,8.3937205E-2,7.710512E-2,-5.3635463E-3,-1.3475459E-3,-3.89211E-2],"categories":[],"categories_nodes":[],"categories_segments":[],"categories_sizes":[],"default_left":[0,0,0,0,0,0,0,0,0,0,0,0,0,0,0,0,0,0,0,0,0,0,0,0,0,0,0,0,0,0,0,0,0,0,0,0,0,0,0,0,0,0,0,0,0,0,0,0,0,0,0,0,0,0,0,0,0,0,0,0,0,0,0,0,0,0,0,0,0,0,0,0,0,0,0,0,0,0,0,0,0,0,0,0,0,0,0,0,0,0,0,0,0,0,0],"id":11,"left_children":[1,3,5,7,9,11,13,15,17,19,21,23,25,27,29,-1,31,33,35,37,39,41,43,45,-1,47,49,51,53,55,57,59,61,63,-1,-1,65,67,69,71,73,75,77,79,81,-1,-1,83,85,-1,-1,87,89,91,93,-1,-1,-1,-1,-1,-1,-1,-1,-1,-1,-1,-1,-1,-1,-1,-1,-1,-1,-1,-1,-1,-1,-1,-1,-1,-1,-1,-1,-1,-1,-1,-1,-1,-1,-1,-1,-1,-1,-1,-1],"loss_changes":[1.284335E2,6.219753E1,5.5925896E1,3.299621E1,4.1659462E1,2.2816254E1,3.3443085E1,1.6823647E1,1.6657372E1,3.513451E1,5.3040596E1,1.3588464E1,1.3536714E1,1.6559174E1,8.894971E0,0E0,8.8103485E0,9.536909E0,8.459595E0,1.6106678E1,2.2881468E1,3.7985397E1,1.9223703E1,9.578655E-1,0E0,7.567299E0,1.383872E0,1.1952952E1,1.1505402E1,1.6109543E0,3.3682728E0,5.247589E0,8.15042E0,4.0315685E0,0E0,0E0,1.8077888E0,1.7421675E-1,1.1380703E1,2.4102808E1,9.656357E0,2.3458715E1,1.3470322E1,1.3129967E1,1.5367517E1,0E0,0E0,4.0027943E0,5.6945777E0,0E0,0E0,7.4076076E0,6.110653E0,3.436493E0,3.6111796E-1,0E0,0E0,0E0,0E0,0E0,0E0,0E0,0E0,0E0,0E0,0E0,0E0,0E0,0E0,0E0,0E0,0E0,0E0,0E0,0E0,0E0,0E0,0E0,0E0,0E0,0E0,0E0,0E0,0E0,0E0,0E0,0E0,0E0,0E0,0E0,0E0,0E0,0E0,0E0,0E0],"parents":[2147483647,0,0,1,1,2,2,3,3,4,4,5,5,6,6,7,7,8,8,9,9,10,10,11,11,12,12,13,13,14,14,16,16,17,17,18,18,19,19,20,20,21,21,22,22,23,23,25,25,26,26,27,27,28,28,29,29,30,30,31,31,32,32,33,33,36,36,37,37,38,38,39,39,40,40,41,41,42,42,43,43,44,44,47,47,48,48,51,51,52,52,53,53,54,54],"right_children":[2,4,6,8,10,12,14,16,18,20,22,24,26,28,30,-1,32,34,36,38,40,42,44,46,-1,48,50,52,54,56,58,60,62,64,-1,-1,66,68,70,72,74,76,78,80,82,-1,-1,84,86,-1,-1,88,90,92,94,-1,-1,-1,-1,-1,-1,-1,-1,-1,-1,-1,-1,-1,-1,-1,-1,-1,-1,-1,-1,-1,-1,-1,-1,-1,-1,-1,-1,-1,-1,-1,-1,-1,-1,-1,-1,-1,-1,-1,-1],"split_conditions":[2.4560994E-2,2.2782903E-7,-1.0379177E-2,3.2381978E-2,2.0727918E-2,-3.512131E-2,1.8614024E-2,-6.711994E-2,2.1855842E-2,-2.1615319E-2,-1.456019E-2,-2.9148303E-2,2.1969942E-2,1.1265837E-2,-2.40017E-2,6.232816E-2,4.0971607E-2,5.544195E-2,-1.2532661E-3,-5.026473E-2,9.257175E-2,1.675698E-2,-1.2480417E-3,-6.776291E-2,8.051857E-2,2.7900487E-2,2.1442748E-3,-1.0184806E-2,1.9116567E-2,-1.5535611E-2,-2.7506843E-3,1.4727996E-2,-9.75451E-3,3.1449E-2,5.8269728E-2,8.118402E-2,-3.3181247E-3,8.13503E-3,-5.8465607E-2,-5.482883E-3,-2.0856328E-2,3.4795374E-2,4.635227E-2,-2.379117E-2,2.843237E-2,3.080333E-3,-4.91273E-2,2.141341E-2,-1.6809601E-2,6.860198E-2,1.0153105E-3,-1.0444506E-2,-2.1923104E-2,8.977969E-2,-8.056764E-3,-1.2836101E-3,6.904079E-2,-6.2129643E-2,6.8909647E-3,-6.589719E-2,-1.9640822E-2,6.664008E-2,-3.8893696E-2,-6.288787E-2,2.2502331E-2,2.1565353E-2,-4.266325E-2,1.993422E-2,7.546414E-2,5.7801194E-2,-5.1426586E-2,7.0735463E-3,-1.6496003E-2,-1.8472001E-2,1.00169554E-1,-1.0028389E-2,5.5674482E-2,8.019251E-2,-1.8778829E-2,9.088738E-2,1.550495E-3,-3.2347362E-2,6.0723152E-2,-6.741741E-2,3.4171827E-3,6.063036E-2,-4.317925E-2,3.7533037E-2,-4.9231015E-2,-1.6244572E-2,8.3937205E-2,7.710512E-2,-5.3635463E-3,-1.3475459E-3,-3.89211E-2],"split_indices":[265,688,760,545,285,451,87,75,59,187,419,22,512,231,659,0,363,84,289,729,405,231,577,332,0,628,13,430,458,705,256,758,738,327,0,0,640,443,173,630,350,73,389,547,142,0,0,28,391,0,0,697,721,611,642,0,0,0,0,0,0,0,0,0,0,0,0,0,0,0,0,0,0,0,0,0,0,0,0,0,0,0,0,0,0,0,0,0,0,0,0,0,0,0,0],"split_type":[0,0,0,0,0,0,0,0,0,0,0,0,0,0,0,0,0,0,0,0,0,0,0,0,0,0,0,0,0,0,0,0,0,0,0,0,0,0,0,0,0,0,0,0,0,0,0,0,0,0,0,0,0,0,0,0,0,0,0,0,0,0,0,0,0,0,0,0,0,0,0,0,0,0,0,0,0,0,0,0,0,0,0,0,0,0,0,0,0,0,0,0,0,0,0],"sum_hessian":[9.767112E2,8.1702277E2,1.5968845E2,1.1432941E2,7.0269336E2,3.7461857E1,1.22226585E2,9.3878456E1,2.045095E1,5.1643115E2,1.8626222E2,1.0494941E1,2.6966917E1,1.1095978E2,1.1266805E1,2.2118483E0,9.166661E1,1.0194844E1,1.0256106E1,6.884683E1,4.475843E2,1.0621928E2,8.004295E1,3.0185134E0,7.476427E0,2.3910921E1,3.055997E0,1.602326E1,9.493652E1,2.6045616E0,8.662243E0,8.591895E1,5.7476583E0,8.534372E0,1.6604719E0,7.663239E0,2.5928674E0,2.6293073E0,6.621753E1,4.3945474E2,8.129557E0,5.8006104E1,4.8213173E1,1.7255362E1,6.278759E1,1.0668244E0,1.951689E0,2.051715E1,3.3937688E0,1.97928E0,1.0767169E0,8.99596E0,7.0273004E0,9.265823E1,2.278285E0,1.142784E0,1.4617776E0,6.618672E0,2.043571E0,7.81001E1,7.818853E0,1.9619577E0,3.7857006E0,7.4164557E0,1.117917E0,1.134287E0,1.4585805E0,1.2060909E0,1.4232163E0,1.6746671E0,6.454286E1,1.9125786E2,2.4819688E2,1.8738467E0,6.2557096E0,3.810331E1,1.990279E1,4.4872974E1,3.3401992E0,5.3109694E0,1.1944391E1,5.891325E1,3.874339E0,1.8413778E1,2.1033738E0,1.9222364E0,1.4715323E0,2.871172E0,6.1247883E0,1.6085453E0,5.418755E0,9.1516495E1,1.1417401E0,1.0388076E0,1.2394773E0],"tree_param":{"num_deleted":"0","num_feature":"768","num_nodes":"95","size_leaf_vector":"1"}},{"base_weights":[8.8722195E-4,-2.0109466E-1,4.6521777E-1,-1.043489E0,-1.1426432E-1,-1.16201654E-1,9.2881334E-1,4.7375688E-1,-1.1932023E0,8.0453044E-1,-1.7382945E-1,-1.1767515E0,6.775261E-2,1.2010093E0,-2.0658885E-1,1.2143434E0,-4.5072764E-2,3.926558E-2,-1.2556547E0,-3.113161E-1,1.2822013E0,-1.0329168E0,-1.20413646E-1,2.8559223E-2,-1.316881E0,-5.4407096E-1,4.208486E-1,1.2809336E0,-5.652011E-2,-9.8751986E-1,5.235612E-1,8.032955E-2,-4.923951E-4,3.8027936E-3,-1.2852849E0,1.1439986E0,-8.5398316E-1,1.4961276E0,-3.6307473E-2,-1.3133488E0,4.2652002E-1,-1.0307088E0,-6.943536E-2,-1.1944293E-2,-6.828879E-2,9.1498756E-1,-8.754266E-1,-5.9927E-1,6.579631E-1,1.3648858E0,-4.7776124E-1,5.754597E-2,-1.2440798E0,1.2064983E0,-5.278083E-1,-1.31580625E-2,-6.506557E-2,1.6133195E-2,7.079297E-2,3.8869243E-2,-6.591541E-2,8.2095325E-2,-3.702397E-2,-1.3797076E-2,-6.714874E-2,-5.2764542E-2,7.785374E-2,-5.7620097E-2,4.9932864E-2,3.2044444E-2,-6.8666316E-3,7.4877135E-2,-2.5124047E-2,-5.1455267E-2,4.639559E-2,3.7211224E-2,-5.3884607E-2,5.303078E-3,5.5719238E-2,-7.026145E-3,7.172165E-2,-6.2232625E-2,5.4769326E-2,5.887211E-3,-6.818315E-2,-3.418615E-2,8.047358E-2,3.8979128E-2,-5.5480678E-2],"categories":[],"categories_nodes":[],"categories_segments":[],"categories_sizes":[],"default_left":[0,0,0,0,0,0,0,0,0,0,0,0,0,0,0,0,0,0,0,0,0,0,0,0,0,0,0,0,0,0,0,0,0,0,0,0,0,0,0,0,0,0,0,0,0,0,0,0,0,0,0,0,0,0,0,0,0,0,0,0,0,0,0,0,0,0,0,0,0,0,0,0,0,0,0,0,0,0,0,0,0,0,0,0,0,0,0,0,0],"id":12,"left_children":[1,3,5,7,9,11,13,15,17,19,21,23,25,27,29,31,-1,-1,33,35,37,39,41,-1,43,45,47,49,-1,51,53,-1,-1,-1,55,57,59,61,-1,63,65,67,69,-1,-1,71,73,75,77,79,81,-1,83,85,87,-1,-1,-1,-1,-1,-1,-1,-1,-1,-1,-1,-1,-1,-1,-1,-1,-1,-1,-1,-1,-1,-1,-1,-1,-1,-1,-1,-1,-1,-1,-1,-1,-1,-1],"loss_changes":[9.038769E1,4.899225E1,7.886444E1,1.479705E1,3.35155E1,2.554779E1,5.0530945E1,7.548717E0,8.069382E0,2.0291878E1,2.6188517E1,5.4992085E0,2.4452852E1,2.592778E1,1.8940313E1,2.2155275E0,0E0,0E0,2.3165512E0,1.0435583E1,1.2403511E1,1.4254139E1,2.5032846E1,0E0,6.181278E-1,2.0845264E1,1.7732285E1,1.9483566E1,0E0,1.0189826E1,1.3094616E1,0E0,0E0,0E0,5.3910065E-1,3.46663E-1,8.0778885E0,9.089241E0,0E0,4.8296738E-1,1.1931951E1,8.220209E0,2.485341E1,0E0,0E0,7.49769E0,1.0462688E1,9.825548E0,1.4641689E1,1.2981369E1,9.259248E0,0E0,2.572855E0,9.353227E0,6.587168E0,0E0,0E0,0E0,0E0,0E0,0E0,0E0,0E0,0E0,0E0,0E0,0E0,0E0,0E0,0E0,0E0,0E0,0E0,0E0,0E0,0E0,0E0,0E0,0E0,0E0,0E0,0E0,0E0,0E0,0E0,0E0,0E0,0E0,0E0],"parents":[2147483647,0,0,1,1,2,2,3,3,4,4,5,5,6,6,7,7,8,8,9,9,10,10,11,11,12,12,13,13,14,14,15,15,18,18,19,19,20,20,21,21,22,22,24,24,25,25,26,26,27,27,29,29,30,30,34,34,35,35,36,36,37,37,39,39,40,40,41,41,42,42,45,45,46,46,47,47,48,48,49,49,50,50,52,52,53,53,54,54],"right_children":[2,4,6,8,10,12,14,16,18,20,22,24,26,28,30,32,-1,-1,34,36,38,40,42,-1,44,46,48,50,-1,52,54,-1,-1,-1,56,58,60,62,-1,64,66,68,70,-1,-1,72,74,76,78,80,82,-1,84,86,88,-1,-1,-1,-1,-1,-1,-1,-1,-1,-1,-1,-1,-1,-1,-1,-1,-1,-1,-1,-1,-1,-1,-1,-1,-1,-1,-1,-1,-1,-1,-1,-1,-1,-1],"split_conditions":[3.5470106E-2,-4.510008E-2,1.8704996E-2,-8.598224E-3,-4.7059234E-2,-4.4087503E-2,2.2513976E-2,-1.6894998E-2,-3.9703142E-2,1.4614762E-3,-4.75618E-2,-7.008198E-2,-2.4299944E-2,2.7612878E-2,7.7168234E-3,-9.753944E-3,-4.5072764E-2,3.926558E-2,-7.634236E-33,4.5176293E-3,4.04766E-2,1.8503489E-2,-4.2734884E-2,2.8559223E-2,-2.7972886E-2,-3.192946E-2,-1.0080642E-2,4.540731E-2,-5.652011E-2,-1.855528E-2,-2.620066E-2,8.032955E-2,-4.923951E-4,3.8027936E-3,-2.8791107E-2,-1.965218E-2,-2.0484673E-2,4.1397557E-2,-3.6307473E-2,-4.3799713E-2,-2.837403E-4,5.9859075E-2,-5.8512535E-2,-1.1944293E-2,-6.828879E-2,2.4710584E-2,7.208373E-2,-3.1701524E-2,-3.700903E-3,-5.5892743E-2,2.4153747E-2,5.754597E-2,-2.3190612E-2,-3.256494E-2,-2.1497894E-2,-1.31580625E-2,-6.506557E-2,1.6133195E-2,7.079297E-2,3.8869243E-2,-6.591541E-2,8.2095325E-2,-3.702397E-2,-1.3797076E-2,-6.714874E-2,-5.2764542E-2,7.785374E-2,-5.7620097E-2,4.9932864E-2,3.2044444E-2,-6.8666316E-3,7.4877135E-2,-2.5124047E-2,-5.1455267E-2,4.639559E-2,3.7211224E-2,-5.3884607E-2,5.303078E-3,5.5719238E-2,-7.026145E-3,7.172165E-2,-6.2232625E-2,5.4769326E-2,5.887211E-3,-6.818315E-2,-3.418615E-2,8.047358E-2,3.8979128E-2,-5.5480678E-2],"split_indices":[48,131,363,137,39,105,567,262,599,3,487,647,334,226,302,732,0,0,555,407,452,58,713,0,19,626,174,633,0,57,557,0,0,0,366,350,492,288,0,507,502,764,493,0,0,72,333,749,230,212,511,0,223,533,523,0,0,0,0,0,0,0,0,0,0,0,0,0,0,0,0,0,0,0,0,0,0,0,0,0,0,0,0,0,0,0,0,0,0],"split_type":[0,0,0,0,0,0,0,0,0,0,0,0,0,0,0,0,0,0,0,0,0,0,0,0,0,0,0,0,0,0,0,0,0,0,0,0,0,0,0,0,0,0,0,0,0,0,0,0,0,0,0,0,0,0,0,0,0,0,0,0,0,0,0,0,0,0,0,0,0,0,0,0,0,0,0,0,0,0,0,0,0,0,0,0,0,0,0,0,0],"sum_hessian":[9.617359E2,6.7058124E2,2.911547E2,6.162141E1,6.089598E2,1.2948659E2,1.616681E2,5.333965E0,5.6287445E1,3.6303413E1,5.726564E2,1.835013E1,1.1113645E2,1.3036584E2,3.1302261E1,3.5476923E0,1.7862728E0,1.3632904E0,5.4924156E1,1.0980388E1,2.5323027E1,3.2437588E1,5.402188E2,1.1283182E0,1.7221811E1,4.0460224E1,7.067623E1,1.2648462E2,3.8812253E0,1.4961459E1,1.6340801E1,2.456421E0,1.0912713E0,1.1539977E0,5.3770157E1,2.6763823E0,8.304006E0,2.3120314E1,2.202713E0,2.7299011E1,5.1385784E0,2.7619297E1,5.125995E2,1.0114883E0,1.6210323E1,7.156495E0,3.330373E1,1.30335455E1,5.7642685E1,1.20941055E2,5.5435686E0,1.2251157E0,1.3736343E1,9.822423E0,6.518379E0,1.1086413E0,5.2661514E1,1.2185636E0,1.4578187E0,1.6856943E0,6.618311E0,2.1959396E1,1.1609168E0,1.0536942E0,2.6245317E1,2.248808E0,2.8897705E0,2.6469112E1,1.1501844E0,4.397349E1,4.68626E2,5.036957E0,2.119538E0,3.1089214E1,2.2145135E0,3.271135E0,9.76241E0,2.6659958E1,3.0982729E1,5.2891226E0,1.1565193E2,3.8714516E0,1.6721172E0,1.1033255E0,1.2633018E1,1.5992646E0,8.223158E0,1.8974473E0,4.6209316E0],"tree_param":{"num_deleted":"0","num_feature":"768","num_nodes":"89","size_leaf_vector":"1"}},{"base_weights":[1.3661543E-2,-1.3600421E-1,7.7018803E-1,-7.644491E-1,-2.1668661E-2,-3.920051E-1,1.0660473E0,8.1534153E-1,-9.388282E-1,-1.1434107E-1,5.808462E-1,-7.144154E-1,1.1562418E0,1.2284732E0,-5.5797327E-1,1.4919089E0,-4.195508E-2,-1.1747522E0,-2.7556905E-1,-6.8991534E-2,-1.0689384E0,-3.7585616E-1,9.034186E-1,6.0263872E-2,-8.689855E-1,7.273364E-2,-3.7236759E-3,1.3906112E0,-2.1953758E-2,-9.48679E-1,5.8402397E-2,1.2594427E-2,8.151549E-2,3.391396E-2,-1.2437302E0,-8.22962E-1,9.8596793E-1,-2.4520542E-1,1.4887576E-1,2.749726E-1,-6.512115E-2,4.3509406E-1,-9.4763786E-1,-6.6497445E-1,1.1476817E0,-1.0377219E0,6.3396776E-1,-5.5194914E-1,1.4407063E0,1.0891031E0,-8.587658E-1,-6.0950674E-2,1.5387088E-2,-4.8470777E-2,6.776776E-2,2.4701817E-2,-6.406014E-2,-5.0034203E-2,5.8424603E-2,7.1204714E-2,-4.253102E-2,4.140152E-2,-1.51631255E-2,2.3541182E-2,-6.6669383E-3,6.6189624E-2,-4.484324E-2,6.49466E-2,-4.0752076E-2,4.2908486E-2,-5.9282627E-2,5.9342004E-2,-6.852802E-2,6.9983624E-2,-2.0457145E-3,-5.908666E-2,3.735986E-2,-4.4641006E-3,5.0791163E-2,-4.036925E-2,-1.5540649E-3,-1.8767813E-2,7.325532E-2,6.775959E-2,-6.504487E-3,1.0618235E-2,-5.918456E-2],"categories":[],"categories_nodes":[],"categories_segments":[],"categories_sizes":[],"default_left":[0,0,0,0,0,0,0,0,0,0,0,0,0,0,0,0,0,0,0,0,0,0,0,0,0,0,0,0,0,0,0,0,0,0,0,0,0,0,0,0,0,0,0,0,0,0,0,0,0,0,0,0,0,0,0,0,0,0,0,0,0,0,0,0,0,0,0,0,0,0,0,0,0,0,0,0,0,0,0,0,0,0,0,0,0,0,0],"id":13,"left_children":[1,3,5,7,9,11,13,15,17,19,21,23,25,27,29,31,-1,33,35,37,39,41,43,-1,45,-1,-1,47,49,51,-1,-1,-1,53,55,57,59,61,63,65,-1,67,69,71,73,75,77,79,81,83,85,-1,-1,-1,-1,-1,-1,-1,-1,-1,-1,-1,-1,-1,-1,-1,-1,-1,-1,-1,-1,-1,-1,-1,-1,-1,-1,-1,-1,-1,-1,-1,-1,-1,-1,-1,-1],"loss_changes":[1.0721556E2,5.6778976E1,5.4198883E1,3.427778E1,3.7466553E1,1.702377E1,3.3647217E1,1.5386759E1,1.6878044E1,2.5086044E1,2.7950052E1,9.200257E0,2.3151002E0,2.313478E1,9.226004E0,1.1704998E0,0E0,6.793869E0,2.1654219E1,2.138901E1,8.617985E0,1.1199898E1,2.6511452E1,0E0,7.2619247E0,0E0,0E0,1.0617218E1,1.3996043E1,3.9081879E0,0E0,0E0,0E0,8.384426E0,5.622917E0,8.8129E0,8.928591E0,1.9429138E1,2.2715595E1,6.9814143E0,0E0,1.2180067E1,7.020837E0,1.4280153E1,1.7596931E1,7.0007896E0,9.952365E-1,3.9934367E-1,4.929474E0,2.288065E0,3.246695E0,0E0,0E0,0E0,0E0,0E0,0E0,0E0,0E0,0E0,0E0,0E0,0E0,0E0,0E0,0E0,0E0,0E0,0E0,0E0,0E0,0E0,0E0,0E0,0E0,0E0,0E0,0E0,0E0,0E0,0E0,0E0,0E0,0E0,0E0,0E0,0E0],"parents":[2147483647,0,0,1,1,2,2,3,3,4,4,5,5,6,6,7,7,8,8,9,9,10,10,11,11,12,12,13,13,14,14,15,15,17,17,18,18,19,19,20,20,21,21,22,22,24,24,27,27,28,28,29,29,33,33,34,34,35,35,36,36,37,37,38,38,39,39,41,41,42,42,43,43,44,44,45,45,46,46,47,47,48,48,49,49,50,50],"right_children":[2,4,6,8,10,12,14,16,18,20,22,24,26,28,30,32,-1,34,36,38,40,42,44,-1,46,-1,-1,48,50,52,-1,-1,-1,54,56,58,60,62,64,66,-1,68,70,72,74,76,78,80,82,84,86,-1,-1,-1,-1,-1,-1,-1,-1,-1,-1,-1,-1,-1,-1,-1,-1,-1,-1,-1,-1,-1,-1,-1,-1,-1,-1,-1,-1,-1,-1,-1,-1,-1,-1,-1,-1],"split_conditions":[2.4560994E-2,2.304434E-7,-1.3422658E-2,-5.643979E-2,4.1764084E-2,4.6431743E-2,1.8614024E-2,3.3197742E-2,1.7523339E-2,3.52475E-2,-1.7619148E-2,-6.264553E-2,2.3937538E-2,8.599378E-3,3.957135E-2,-2.6185522E-2,-4.195508E-2,-3.0589115E-2,1.1736603E-2,-1.1534114E-2,4.874703E-3,2.0281613E-2,-2.1411333E-2,6.0263872E-2,6.1306212E-2,7.273364E-2,-3.7236759E-3,-5.3310182E-2,-3.4648456E-2,1.897375E-2,5.8402397E-2,1.2594427E-2,8.151549E-2,1.0454878E-2,-5.467922E-2,2.3294846E-2,3.0239217E-2,-3.8457625E-2,-1.3980457E-2,-1.1869715E-2,-6.512115E-2,-5.5664293E-3,-4.8046105E-2,-1.4282901E-2,1.6497435E-2,2.0730207E-2,-1.7210506E-2,-4.4654295E-2,-3.7267048E-2,7.3318454E-3,-7.541772E-2,-6.0950674E-2,1.5387088E-2,-4.8470777E-2,6.776776E-2,2.4701817E-2,-6.406014E-2,-5.0034203E-2,5.8424603E-2,7.1204714E-2,-4.253102E-2,4.140152E-2,-1.51631255E-2,2.3541182E-2,-6.6669383E-3,6.6189624E-2,-4.484324E-2,6.49466E-2,-4.0752076E-2,4.2908486E-2,-5.9282627E-2,5.9342004E-2,-6.852802E-2,6.9983624E-2,-2.0457145E-3,-5.908666E-2,3.735986E-2,-4.4641006E-3,5.0791163E-2,-4.036925E-2,-1.5540649E-3,-1.8767813E-2,7.325532E-2,6.775959E-2,-6.504487E-3,1.0618235E-2,-5.918456E-2],"split_indices":[265,688,760,451,459,551,87,683,545,707,56,717,96,387,482,386,0,388,585,164,173,100,574,0,59,0,0,677,493,208,0,0,0,65,586,222,506,9,177,743,0,439,519,191,348,62,651,4,93,737,225,0,0,0,0,0,0,0,0,0,0,0,0,0,0,0,0,0,0,0,0,0,0,0,0,0,0,0,0,0,0,0,0,0,0,0,0],"split_type":[0,0,0,0,0,0,0,0,0,0,0,0,0,0,0,0,0,0,0,0,0,0,0,0,0,0,0,0,0,0,0,0,0,0,0,0,0,0,0,0,0,0,0,0,0,0,0,0,0,0,0,0,0,0,0,0,0,0,0,0,0,0,0,0,0,0,0,0,0,0,0,0,0,0,0,0,0,0,0,0,0,0,0,0,0,0,0],"sum_hessian":[9.449344E2,7.8954376E2,1.5539062E2,1.20645065E2,6.688987E2,3.145814E1,1.2393249E2,1.1622027E1,1.0902303E2,5.8044727E2,8.8451385E1,2.6487375E1,4.970764E0,1.1289142E2,1.1041073E1,8.322793E0,3.2992346E0,7.983805E1,2.9184984E1,5.5515656E2,2.5290768E1,2.2253775E1,6.619761E1,1.4624231E0,2.5024952E1,3.860741E0,1.110023E0,9.984127E1,1.3050146E1,9.3750725E0,1.6660004E0,1.1260502E0,7.1967425E0,4.3299484E0,7.55081E1,2.0601414E1,8.583571E0,3.068736E2,2.4828291E2,3.7108734E0,2.1579895E1,9.293912E0,1.2959863E1,8.682796E0,5.7514816E1,2.2783274E1,2.2416773E0,2.253126E0,9.758814E1,5.4717383E0,7.5784082E0,7.746129E0,1.6289437E0,2.6083424E0,1.7216061E0,1.3310369E0,7.417706E1,1.9374886E1,1.2265278E0,7.1160493E0,1.467522E0,1.5059064E1,2.9181454E2,1.1568153E2,1.3260138E2,1.8942972E0,1.816576E0,5.4777665E0,3.8161454E0,1.2009279E0,1.1758935E1,2.2034888E0,6.479306E0,4.731461E1,1.0200204E1,2.1400196E1,1.383079E0,1.030282E0,1.2113954E0,1.1297946E0,1.1233313E0,1.0976598E0,9.6490486E1,4.406643E0,1.0650952E0,1.8373029E0,5.7411056E0],"tree_param":{"num_deleted":"0","num_feature":"768","num_nodes":"87","size_leaf_vector":"1"}},{"base_weights":[6.617184E-3,-1.364516E-1,7.517292E-1,-5.516565E-2,-9.6080124E-1,9.839985E-1,-6.22921E-1,-1.5669705E-1,5.0276303E-1,-1.1058725E0,1.2181988E-1,1.7208971E-1,1.2751468E0,8.1913596E-1,-8.936248E-1,-7.40351E-1,-7.279489E-2,-3.1583693E-3,1.1640409E0,2.5896857E-2,-1.1587135E0,7.8899E-2,-7.6114243E-1,-4.0667856E-1,1.2568747E0,-5.889238E-1,1.3346406E0,6.79443E-2,-7.072142E-3,-1.1411222E0,5.025038E-1,-1.1365739E0,-1.8505717E-4,-2.5289738E-1,1.5015176E-1,8.899577E-1,-2.686898E-1,-5.319343E-1,1.3431674E0,2.7307868E-2,-1.1985261E0,3.166103E-2,-5.7660658E-2,-8.9324266E-1,4.4954777E-1,7.172386E-2,-1.6806718E-2,-4.3655716E-2,3.3301134E-3,-5.629936E-1,1.3937824E0,3.2232837E-3,-1.2300105E0,-2.0618755E-2,5.5985816E-2,1.00432355E-2,-6.1611425E-2,5.537337E-2,-2.5151918E-2,-1.5671229E-2,3.1262573E-2,4.54677E-2,1.8644001E-3,7.5125985E-2,-4.770773E-2,3.838586E-2,-2.7624277E-2,-5.8409955E-2,4.565912E-2,-2.3643044E-3,7.620067E-2,-6.3277714E-2,3.0792358E-3,3.3829078E-2,-5.6431364E-2,4.892285E-2,-3.4034003E-2,4.5813876E-3,-4.383135E-2,-8.49255E-3,7.193801E-2,-6.3668914E-2,-1.4440141E-2],"categories":[],"categories_nodes":[],"categories_segments":[],"categories_sizes":[],"default_left":[0,0,0,0,0,0,0,0,0,0,0,0,0,0,0,0,0,0,0,0,0,0,0,0,0,0,0,0,0,0,0,0,0,0,0,0,0,0,0,0,0,0,0,0,0,0,0,0,0,0,0,0,0,0,0,0,0,0,0,0,0,0,0,0,0,0,0,0,0,0,0,0,0,0,0,0,0,0,0,0,0,0,0],"id":14,"left_children":[1,3,5,7,9,11,13,15,17,19,21,23,25,27,29,31,33,35,37,-1,39,-1,41,43,45,47,49,-1,-1,51,53,55,57,59,61,63,65,67,69,-1,71,-1,-1,73,75,-1,-1,-1,-1,77,79,-1,81,-1,-1,-1,-1,-1,-1,-1,-1,-1,-1,-1,-1,-1,-1,-1,-1,-1,-1,-1,-1,-1,-1,-1,-1,-1,-1,-1,-1,-1,-1],"loss_changes":[1.0125869E2,5.333199E1,4.9469994E1,4.122375E1,1.1366226E1,3.0799942E1,9.602828E0,3.0070953E1,3.750534E1,6.0219727E0,1.3212238E1,2.3007107E1,1.149176E1,2.33384E0,7.3575544E0,2.2633327E1,2.1686522E1,1.5523467E1,1.5481926E1,0E0,4.83136E0,0E0,4.27903E0,1.0448584E1,4.0895805E0,7.5034046E-1,1.1319565E1,0E0,0E0,1.9098415E0,2.525263E0,6.6907196E0,1.6108469E1,1.6064701E1,2.0650713E1,1.838306E1,1.52686E1,5.9904633E0,1.1209145E1,0E0,5.1878815E0,0E0,0E0,6.5743017E0,6.283709E0,0E0,0E0,0E0,0E0,8.153945E-1,6.674774E0,0E0,2.6420975E-1,0E0,0E0,0E0,0E0,0E0,0E0,0E0,0E0,0E0,0E0,0E0,0E0,0E0,0E0,0E0,0E0,0E0,0E0,0E0,0E0,0E0,0E0,0E0,0E0,0E0,0E0,0E0,0E0,0E0,0E0],"parents":[2147483647,0,0,1,1,2,2,3,3,4,4,5,5,6,6,7,7,8,8,9,9,10,10,11,11,12,12,13,13,14,14,15,15,16,16,17,17,18,18,20,20,22,22,23,23,24,24,25,25,26,26,29,29,30,30,31,31,32,32,33,33,34,34,35,35,36,36,37,37,38,38,40,40,43,43,44,44,49,49,50,50,52,52],"right_children":[2,4,6,8,10,12,14,16,18,20,22,24,26,28,30,32,34,36,38,-1,40,-1,42,44,46,48,50,-1,-1,52,54,56,58,60,62,64,66,68,70,-1,72,-1,-1,74,76,-1,-1,-1,-1,78,80,-1,82,-1,-1,-1,-1,-1,-1,-1,-1,-1,-1,-1,-1,-1,-1,-1,-1,-1,-1,-1,-1,-1,-1,-1,-1,-1,-1,-1,-1,-1,-1],"split_conditions":[2.4560994E-2,2.1861918E-2,1.2739794E-2,4.2536423E-2,3.522534E-2,1.1295135E-2,-4.3175045E-2,2.28794E-7,-9.098669E-3,-2.5487248E-2,-2.3067011E-3,2.4855563E-2,-4.4016503E-2,2.8382903E-2,1.5798597E-2,1.7777393E-2,-1.2811935E-2,-2.3801014E-2,-6.6459924E-2,2.5896857E-2,-7.477597E-2,7.8899E-2,-2.2002455E-2,-2.1614167E-3,2.2597E-2,1.2603303E-3,-5.1712293E-2,6.79443E-2,-7.072142E-3,-4.2219512E-2,-1.3913677E-2,-3.818868E-2,-3.011874E-4,3.704752E-2,-3.2714844E-2,-1.1270291E-2,-3.182646E-2,1.7890776E-2,-1.3458007E-2,2.7307868E-2,3.824905E-2,3.166103E-2,-5.7660658E-2,-5.1267814E-2,2.2854688E-2,7.172386E-2,-1.6806718E-2,-4.3655716E-2,3.3301134E-3,-1.649788E-2,-6.464733E-2,3.2232837E-3,4.241657E-2,-2.0618755E-2,5.5985816E-2,1.00432355E-2,-6.1611425E-2,5.537337E-2,-2.5151918E-2,-1.5671229E-2,3.1262573E-2,4.54677E-2,1.8644001E-3,7.5125985E-2,-4.770773E-2,3.838586E-2,-2.7624277E-2,-5.8409955E-2,4.565912E-2,-2.3643044E-3,7.620067E-2,-6.3277714E-2,3.0792358E-3,3.3829078E-2,-5.6431364E-2,4.892285E-2,-3.4034003E-2,4.5813876E-3,-4.383135E-2,-8.49255E-3,7.193801E-2,-6.3668914E-2,-1.4440141E-2],"split_indices":[265,707,87,113,490,460,498,688,540,160,204,658,31,446,602,363,164,662,648,0,596,0,7,28,139,18,294,0,0,9,706,519,443,758,637,388,649,475,376,0,31,0,0,210,357,0,0,0,0,379,470,0,708,0,0,0,0,0,0,0,0,0,0,0,0,0,0,0,0,0,0,0,0,0,0,0,0,0,0,0,0,0,0],"split_type":[0,0,0,0,0,0,0,0,0,0,0,0,0,0,0,0,0,0,0,0,0,0,0,0,0,0,0,0,0,0,0,0,0,0,0,0,0,0,0,0,0,0,0,0,0,0,0,0,0,0,0,0,0,0,0,0,0,0,0,0,0,0,0,0,0,0,0,0,0,0,0,0,0,0,0,0,0,0,0,0,0,0,0],"sum_hessian":[9.4785364E2,7.9584674E2,1.520069E2,7.2539716E2,7.044958E1,1.3028467E2,2.1722235E1,6.143376E2,1.11059586E2,6.211406E1,8.335522E0,3.4817234E1,9.546743E1,3.1071813E0,1.8615053E1,7.621502E1,5.3812256E2,6.3476196E1,4.758339E1,1.6742138E0,6.0439842E1,2.853606E0,5.481916E0,2.3105555E1,1.171168E1,2.6722767E0,9.279516E1,1.7305441E0,1.3766372E0,1.5973228E1,2.641825E0,4.928362E1,2.6931396E1,2.9761304E2,2.4050955E2,1.3999512E1,4.9476685E1,4.3521023E0,4.323129E1,1.0832494E0,5.9356594E1,1.0625353E0,4.4193807E0,1.4713069E1,8.392487E0,1.0632114E1,1.079566E0,1.6432178E0,1.0290589E0,2.5420444E0,9.025311E1,1.1079805E0,1.4865248E1,1.1914463E0,1.4503785E0,3.2091415E0,4.607448E1,8.027246E0,1.890415E1,2.7903476E2,1.8578257E1,3.0202211E1,2.1030734E2,1.0651907E1,3.3476048E0,1.0261568E1,3.921512E1,3.1595428E0,1.1925595E0,5.054266E0,3.817702E1,5.636218E1,2.9944165E0,1.6685232E0,1.3044545E1,5.8145843E0,2.5779023E0,1.0423659E0,1.4996786E0,2.4396887E0,8.781342E1,1.3862945E1,1.002303E0],"tree_param":{"num_deleted":"0","num_feature":"768","num_nodes":"83","size_leaf_vector":"1"}},{"base_weights":[-1.9915907E-2,-1.5804166E-1,7.0558274E-1,-8.1659484E-1,-6.3338034E-2,-1.5824626E-1,1.0812942E0,-1.1253496E0,7.023426E-3,5.864473E-1,-1.6461638E-1,-4.4099244E-1,8.0276495E-1,1.2755955E0,-4.838901E-1,-1.2177337E0,-1.451581E-1,-9.343322E-1,6.4940906E-1,-4.450337E-1,9.417353E-1,-2.1575744E-1,6.402602E-1,-8.285302E-1,4.3137372E-1,-2.262989E-1,7.419223E-2,1.3574731E0,-4.5332852E-1,-9.454085E-1,8.524512E-1,2.1628046E-3,-6.276837E-2,5.3989735E-2,-5.1937856E-2,-5.7005502E-2,2.8205648E-2,-4.6858004E-1,1.2498149E0,5.8419645E-1,-9.363489E-1,1.0859386E0,-7.268564E-1,-1.0154434E0,-1.6674232E-1,1.3181561E0,-1.6839522E-1,5.261497E-2,-9.6539325E-1,-4.1892078E-2,9.417269E-1,5.2148122E-2,-4.400848E-2,1.3887591E0,-2.5512388E-2,-5.2229907E-2,4.0920224E-2,-5.8677327E-2,2.3246018E-2,5.2773755E-2,8.843736E-3,3.802364E-2,-5.3615715E-2,-2.256219E-2,7.655242E-2,6.5625794E-2,-5.1600616E-2,-5.8786243E-2,3.191924E-2,7.0612006E-2,1.3370317E-2,-6.056711E-2,3.6477607E-2,6.667171E-2,-5.742808E-2,4.765693E-2,-1.0056321E-2,-2.8484082E-2,8.5065305E-2,6.0401585E-2,-4.3476652E-2,2.229601E-2,-5.3375673E-2,6.5469615E-2,-1.7009778E-2,-7.2036795E-3,7.0870884E-2],"categories":[],"categories_nodes":[],"categories_segments":[],"categories_sizes":[],"default_left":[0,0,0,0,0,0,0,0,0,0,0,0,0,0,0,0,0,0,0,0,0,0,0,0,0,0,0,0,0,0,0,0,0,0,0,0,0,0,0,0,0,0,0,0,0,0,0,0,0,0,0,0,0,0,0,0,0,0,0,0,0,0,0,0,0,0,0,0,0,0,0,0,0,0,0,0,0,0,0,0,0,0,0,0,0,0,0],"id":15,"left_children":[1,3,5,7,9,11,13,15,17,19,21,23,25,27,29,31,33,35,37,39,41,43,45,47,49,51,-1,53,55,57,59,-1,-1,-1,-1,-1,-1,61,63,65,67,69,71,73,75,77,79,-1,81,-1,83,-1,-1,85,-1,-1,-1,-1,-1,-1,-1,-1,-1,-1,-1,-1,-1,-1,-1,-1,-1,-1,-1,-1,-1,-1,-1,-1,-1,-1,-1,-1,-1,-1,-1,-1,-1],"loss_changes":[9.440221E1,4.9291733E1,4.908039E1,2.5293884E1,4.5693085E1,1.2994496E1,3.25991E1,6.357216E0,1.7587376E1,3.474216E1,2.4842762E1,1.2737677E1,8.005436E0,1.3903778E1,8.411102E0,3.195343E0,9.191389E0,4.2859926E0,1.2199123E1,1.3022228E1,1.7631454E1,2.1971935E1,2.0024498E1,7.6301117E0,8.504799E0,5.2426367E0,0E0,5.965988E0,4.6061296E0,3.655734E0,3.064673E-1,0E0,0E0,0E0,0E0,0E0,0E0,5.83651E0,6.2162285E0,1.1455114E1,7.196184E0,1.6918388E1,5.235338E0,1.1670612E1,2.0736591E1,1.5272907E1,1.7784739E1,0E0,4.0105896E0,0E0,4.6832905E0,0E0,0E0,4.1097107E0,0E0,0E0,0E0,0E0,0E0,0E0,0E0,0E0,0E0,0E0,0E0,0E0,0E0,0E0,0E0,0E0,0E0,0E0,0E0,0E0,0E0,0E0,0E0,0E0,0E0,0E0,0E0,0E0,0E0,0E0,0E0,0E0,0E0],"parents":[2147483647,0,0,1,1,2,2,3,3,4,4,5,5,6,6,7,7,8,8,9,9,10,10,11,11,12,12,13,13,14,14,15,15,16,16,17,17,18,18,19,19,20,20,21,21,22,22,23,23,24,24,25,25,27,27,28,28,29,29,30,30,37,37,38,38,39,39,40,40,41,41,42,42,43,43,44,44,45,45,46,46,48,48,50,50,53,53],"right_children":[2,4,6,8,10,12,14,16,18,20,22,24,26,28,30,32,34,36,38,40,42,44,46,48,50,52,-1,54,56,58,60,-1,-1,-1,-1,-1,-1,62,64,66,68,70,72,74,76,78,80,-1,82,-1,84,-1,-1,86,-1,-1,-1,-1,-1,-1,-1,-1,-1,-1,-1,-1,-1,-1,-1,-1,-1,-1,-1,-1,-1,-1,-1,-1,-1,-1,-1,-1,-1,-1,-1,-1,-1],"split_conditions":[2.4560994E-2,2.2474349E-7,1.1557457E-2,8.791524E-3,9.443866E-4,2.1239921E-2,5.264467E-3,2.624901E-2,1.6662308E-3,-2.377918E-2,7.894512E-2,3.714602E-2,1.476672E-3,-1.36890635E-2,2.6524136E-2,-3.957525E-2,-1.3618627E-2,2.8196152E-2,-3.5541907E-2,-6.7561837E-3,1.9682657E-2,-4.1888345E-2,-3.4522407E-3,-9.890093E-2,-5.1590767E-2,-7.951011E-3,7.419223E-2,7.013307E-2,3.7188657E-2,1.8590655E-2,1.9549318E-3,2.1628046E-3,-6.276837E-2,5.3989735E-2,-5.1937856E-2,-5.7005502E-2,2.8205648E-2,8.146242E-3,-1.2170525E-2,6.4554997E-3,2.1834398E-2,1.9939292E-2,1.05726635E-2,-3.5307717E-2,-5.226109E-2,-1.696969E-2,-2.306696E-2,5.261497E-2,-5.242235E-2,-4.1892078E-2,2.7095348E-2,5.2148122E-2,-4.400848E-2,-3.225326E-2,-2.5512388E-2,-5.2229907E-2,4.0920224E-2,-5.8677327E-2,2.3246018E-2,5.2773755E-2,8.843736E-3,3.802364E-2,-5.3615715E-2,-2.256219E-2,7.655242E-2,6.5625794E-2,-5.1600616E-2,-5.8786243E-2,3.191924E-2,7.0612006E-2,1.3370317E-2,-6.056711E-2,3.6477607E-2,6.667171E-2,-5.742808E-2,4.765693E-2,-1.0056321E-2,-2.8484082E-2,8.5065305E-2,6.0401585E-2,-4.3476652E-2,2.229601E-2,-5.3375673E-2,6.5469615E-2,-1.7009778E-2,-7.2036795E-3,7.0870884E-2],"split_indices":[265,688,231,532,382,298,458,189,363,677,73,138,755,749,362,367,534,696,15,316,432,194,357,392,29,0,0,364,725,760,698,0,0,0,0,0,0,0,333,22,467,194,142,304,39,660,437,0,458,0,548,0,0,760,0,0,0,0,0,0,0,0,0,0,0,0,0,0,0,0,0,0,0,0,0,0,0,0,0,0,0,0,0,0,0,0,0],"split_type":[0,0,0,0,0,0,0,0,0,0,0,0,0,0,0,0,0,0,0,0,0,0,0,0,0,0,0,0,0,0,0,0,0,0,0,0,0,0,0,0,0,0,0,0,0,0,0,0,0,0,0,0,0,0,0,0,0,0,0,0,0,0,0,0,0,0,0,0,0,0,0,0,0,0,0,0,0,0,0,0,0,0,0,0,0,0,0],"sum_hessian":[9.399853E2,7.9031525E2,1.4967006E2,9.839118E1,6.919241E2,4.5533184E1,1.0413687E2,7.130604E1,2.7085144E1,9.264428E1,5.992798E2,3.5608166E1,9.925017E0,9.2807236E1,1.1329639E1,6.493345E1,6.3725867E0,1.0795425E1,1.6289719E1,2.3663393E1,6.898089E1,5.641769E2,3.5102882E1,2.4698069E1,1.0910095E1,4.2128096E0,5.7122083E0,8.8821495E1,3.9857411E0,8.644278E0,2.685362E0,1.8697183E0,6.3063732E1,2.5953305E0,3.7772563E0,9.708054E0,1.0873716E0,5.7625093E0,1.0527208E1,7.578402E0,1.608499E1,6.382056E1,5.160327E0,3.143247E1,5.327444E2,1.8759283E1,1.63436E1,1.2166462E0,2.3481422E1,2.9392035E0,7.970892E0,1.2248462E0,2.9879634E0,8.761565E1,1.205847E0,2.8480546E0,1.1376864E0,7.591277E0,1.0530002E0,1.6210657E0,1.0642964E0,1.8072398E0,3.9552696E0,1.4027162E0,9.124493E0,5.357996E0,2.220406E0,1.4187999E1,1.8969913E0,4.510303E1,1.871753E1,4.0036235E0,1.1567032E0,1.1981953E0,3.0234274E1,1.5065155E1,5.1767926E2,3.0784352E0,1.5680849E1,5.2668505E0,1.107675E1,1.350656E0,2.2130768E1,6.1837234E0,1.7871686E0,1.5277183E0,8.608793E1],"tree_param":{"num_deleted":"0","num_feature":"768","num_nodes":"87","size_leaf_vector":"1"}},{"base_weights":[3.753274E-2,4.4196466E-1,-2.1875465E-1,5.5263054E-2,9.18941E-1,-1.2017867E-1,-1.0217483E0,2.113268E-1,-4.7726205E-1,3.3510357E-2,1.1296259E0,1.2134176E-1,-4.1583806E-1,4.23864E-2,-1.098965E0,-1.1419644E-1,7.4841756E-1,6.008317E-1,-7.385331E-1,6.3999355E-1,-7.6634175E-1,1.2812475E0,4.2884838E-2,-1.4801711E-1,5.14039E-1,1.3116736E0,-4.9671847E-1,-1.1535475E0,2.9734423E-2,9.2608196E-1,-2.7770838E-1,9.623587E-1,-1.0010725E0,-4.0254876E-2,1.2599049E0,1.0928924E0,-9.411474E-1,1.3742582E0,-2.3236191E-1,-1.0660748E0,4.724456E-2,1.3317771E0,-4.433595E-1,-6.197697E-1,8.564492E-1,-2.4766815E-1,1.1482259E0,2.2662745E-1,1.1834472E0,9.108972E-2,-3.55288E-2,-2.789404E-1,-9.200676E-1,-1.2150428E0,-3.0186433E-2,-1.7294828E-2,7.125364E-2,-2.0529525E-2,5.0193686E-2,6.6837603E-3,6.726779E-2,8.854832E-3,-6.246696E-2,8.769613E-2,-2.2419628E-2,3.117708E-4,7.7314064E-2,4.8839305E-2,-5.5592846E-2,9.143051E-2,1.2698493E-2,-3.744606E-2,6.7225926E-2,-6.155321E-2,1.1953336E-2,-5.4885247E-3,6.9269694E-2,2.5729656E-2,-4.8545502E-2,-5.7367783E-2,2.2340754E-2,-3.780079E-2,7.664137E-2,-4.84166E-3,-5.0021198E-2,-3.7264083E-2,8.182617E-2,5.4725356E-2,-3.0848924E-3,7.388584E-2,-6.9199916E-4,2.2167113E-2,-2.1353794E-2,-5.0617237E-2,3.590637E-2,-1.6922415E-4,-6.279631E-2,-4.3532353E-2,5.7370503E-2],"categories":[],"categories_nodes":[],"categories_segments":[],"categories_sizes":[],"default_left":[0,0,0,0,0,0,0,0,0,0,0,0,0,0,0,0,0,0,0,0,0,0,0,0,0,0,0,0,0,0,0,0,0,0,0,0,0,0,0,0,0,0,0,0,0,0,0,0,0,0,0,0,0,0,0,0,0,0,0,0,0,0,0,0,0,0,0,0,0,0,0,0,0,0,0,0,0,0,0,0,0,0,0,0,0,0,0,0,0,0,0,0,0,0,0,0,0,0,0],"id":16,"left_children":[1,3,5,7,9,11,13,15,17,19,21,23,25,-1,27,29,31,33,35,37,39,41,43,45,47,49,51,53,-1,55,57,59,61,-1,63,65,67,69,71,73,-1,75,77,79,81,83,85,87,89,-1,-1,91,93,95,97,-1,-1,-1,-1,-1,-1,-1,-1,-1,-1,-1,-1,-1,-1,-1,-1,-1,-1,-1,-1,-1,-1,-1,-1,-1,-1,-1,-1,-1,-1,-1,-1,-1,-1,-1,-1,-1,-1,-1,-1,-1,-1,-1,-1],"loss_changes":[9.685875E1,6.679241E1,4.5148315E1,1.682305E1,3.0209717E1,3.6518745E1,9.94252E0,2.742561E1,1.3374707E1,1.6117838E1,2.1515396E1,2.988972E1,3.275745E1,0E0,6.2724E0,1.6954025E1,2.3099064E1,9.820022E0,1.4906813E1,1.2421417E1,8.364648E0,1.0612915E1,9.741569E0,2.1966257E1,2.1823551E1,1.2187761E1,2.004163E1,4.014984E0,0E0,9.110806E0,1.4990269E1,1.669413E1,2.2588E0,0E0,6.590069E0,2.0360508E0,1.2291584E1,4.808378E0,8.719539E0,3.034459E0,0E0,8.813187E0,2.533498E0,6.139376E0,9.994104E0,1.769149E1,1.2469839E1,2.0504753E1,1.2107857E1,0E0,0E0,1.5908476E1,1.1973618E1,2.7444992E0,5.041514E0,0E0,0E0,0E0,0E0,0E0,0E0,0E0,0E0,0E0,0E0,0E0,0E0,0E0,0E0,0E0,0E0,0E0,0E0,0E0,0E0,0E0,0E0,0E0,0E0,0E0,0E0,0E0,0E0,0E0,0E0,0E0,0E0,0E0,0E0,0E0,0E0,0E0,0E0,0E0,0E0,0E0,0E0,0E0,0E0],"parents":[2147483647,0,0,1,1,2,2,3,3,4,4,5,5,6,6,7,7,8,8,9,9,10,10,11,11,12,12,14,14,15,15,16,16,17,17,18,18,19,19,20,20,21,21,22,22,23,23,24,24,25,25,26,26,27,27,29,29,30,30,31,31,32,32,34,34,35,35,36,36,37,37,38,38,39,39,41,41,42,42,43,43,44,44,45,45,46,46,47,47,48,48,51,51,52,52,53,53,54,54],"right_children":[2,4,6,8,10,12,14,16,18,20,22,24,26,-1,28,30,32,34,36,38,40,42,44,46,48,50,52,54,-1,56,58,60,62,-1,64,66,68,70,72,74,-1,76,78,80,82,84,86,88,90,-1,-1,92,94,96,98,-1,-1,-1,-1,-1,-1,-1,-1,-1,-1,-1,-1,-1,-1,-1,-1,-1,-1,-1,-1,-1,-1,-1,-1,-1,-1,-1,-1,-1,-1,-1,-1,-1,-1,-1,-1,-1,-1,-1,-1,-1,-1,-1,-1],"split_conditions":[-1.6789341E-3,7.521805E-3,2.1861918E-2,2.4889978E-2,1.0608277E-2,-1.456019E-2,-9.106723E-2,-6.2577077E-3,-4.917511E-2,1.706965E-3,-1.3069901E-2,3.7550874E-2,-4.3748714E-2,4.23864E-2,4.8344154E-2,-2.8607974E-2,5.3589348E-2,-9.036943E-4,-3.596511E-2,-3.698145E-3,4.7263525E-2,5.143293E-2,-4.4954694E-3,2.2726255E-2,1.5594015E-2,4.495724E-2,-1.5794577E-2,2.109384E-2,2.9734423E-2,-2.709897E-3,5.7995614E-2,7.875695E-3,-1.7298667E-2,-4.0254876E-2,3.609133E-2,-2.3888256E-2,-5.2115057E-2,4.4243243E-3,7.7841054E-3,3.2862067E-2,4.724456E-2,-1.5232153E-2,-7.951011E-3,3.0618634E-2,-1.827605E-2,5.471665E-2,-4.0105797E-2,4.897109E-3,1.9298248E-2,9.108972E-2,-3.55288E-2,-2.5251178E-2,6.3436E-2,-7.155253E-33,-4.2457066E-2,-1.7294828E-2,7.125364E-2,-2.0529525E-2,5.0193686E-2,6.6837603E-3,6.726779E-2,8.854832E-3,-6.246696E-2,8.769613E-2,-2.2419628E-2,3.117708E-4,7.7314064E-2,4.8839305E-2,-5.5592846E-2,9.143051E-2,1.2698493E-2,-3.744606E-2,6.7225926E-2,-6.155321E-2,1.1953336E-2,-5.4885247E-3,6.9269694E-2,2.5729656E-2,-4.8545502E-2,-5.7367783E-2,2.2340754E-2,-3.780079E-2,7.664137E-2,-4.84166E-3,-5.0021198E-2,-3.7264083E-2,8.182617E-2,5.4725356E-2,-3.0848924E-3,7.388584E-2,-6.9199916E-4,2.2167113E-2,-2.1353794E-2,-5.0617237E-2,3.590637E-2,-1.6922415E-4,-6.279631E-2,-4.3532353E-2,5.7370503E-2],"split_indices":[323,265,707,184,568,419,97,142,409,626,749,73,39,0,159,327,705,423,95,27,246,490,628,25,285,26,614,172,0,275,335,635,380,0,12,639,107,746,686,632,0,753,0,535,220,725,489,185,617,0,0,617,545,555,329,0,0,0,0,0,0,0,0,0,0,0,0,0,0,0,0,0,0,0,0,0,0,0,0,0,0,0,0,0,0,0,0,0,0,0,0,0,0,0,0,0,0,0,0],"split_type":[0,0,0,0,0,0,0,0,0,0,0,0,0,0,0,0,0,0,0,0,0,0,0,0,0,0,0,0,0,0,0,0,0,0,0,0,0,0,0,0,0,0,0,0,0,0,0,0,0,0,0,0,0,0,0,0,0,0,0,0,0,0,0,0,0,0,0,0,0,0,0,0,0,0,0,0,0,0,0,0,0,0,0,0,0,0,0,0,0,0,0,0,0,0,0,0,0,0,0],"sum_hessian":[9.325175E2,3.614497E2,5.710678E2,2.0024269E2,1.6120702E2,5.0966333E2,6.1404465E1,1.5534009E2,4.490259E1,3.121758E1,1.2998943E2,2.8082043E2,2.288429E2,2.0347028E0,5.9369762E1,9.719831E1,5.8141785E1,8.498198E0,3.6404396E1,1.7875755E1,1.3341825E1,1.1390875E2,1.6080677E1,1.6692255E2,1.13897896E2,9.548877E0,2.1929402E2,5.7830814E1,1.538949E0,1.2560754E1,8.463756E1,5.2212475E1,5.9293084E0,2.6367574E0,5.8614407E0,3.1836998E0,3.3220695E1,9.399926E0,8.475829E0,1.1679028E1,1.6627973E0,1.1089324E2,3.0155087E0,8.986784E0,7.093894E0,1.5576451E2,1.1158032E1,8.0631935E1,3.3265965E1,7.7084575E0,1.8404193E0,1.4591522E2,7.337879E1,5.4743515E1,3.0872962E0,3.619936E0,8.940818E0,7.730911E1,7.3284473E0,1.6938372E1,3.52741E1,1.0748607E0,4.854448E0,4.5304413E0,1.3309994E0,1.2422217E0,1.9414781E0,2.3244834E0,3.0896212E1,6.2314587E0,3.168467E0,6.7846847E0,1.6911445E0,1.04255085E1,1.2535195E0,3.9323971E0,1.06960846E2,1.0728961E0,1.9426125E0,5.968242E0,3.018542E0,2.0571606E0,5.036733E0,1.307143E2,2.5050215E1,2.175432E0,8.9826E0,1.9418741E1,6.1213192E1,2.6521606E1,6.7443566E0,2.4482506E1,1.21432724E2,6.983333E1,3.5454679E0,1.8301711E0,5.2913345E1,1.9585861E0,1.12871E0],"tree_param":{"num_deleted":"0","num_feature":"768","num_nodes":"99","size_leaf_vector":"1"}},{"base_weights":[-1.1096855E-2,-1.281119E-1,7.828265E-1,-7.602171E-1,-4.6172943E-2,-2.0508756E-1,1.1017082E0,1.3104705E0,-8.6152273E-1,9.0243465E-1,-9.1849536E-2,4.9999538E-1,-6.586127E-1,-8.439596E-1,1.2259899E0,1.980449E-2,7.681417E-2,-9.398861E-1,8.287367E-1,1.4851671E0,1.3175002E-1,-3.3398095E-1,6.433194E-2,-3.637061E-2,8.645453E-1,8.662766E-1,-9.7395235E-1,-5.2037954E-2,2.7100139E-3,-5.183017E-1,1.2957531E0,-1.0420413E0,1.3054752E-1,-3.9067455E-2,8.855521E-2,1.7976506E-2,7.64535E-2,-8.296254E-1,9.437332E-1,-5.302067E-1,1.7207748E-1,-8.5048564E-2,4.674575E-1,-3.2665726E-2,1.2662371E0,5.9323438E-2,-0E0,-1.1841536E0,8.411503E-2,-4.7033157E-2,1.5313961E-2,-2.2874603E-2,6.715428E-2,-5.532789E-2,4.8590455E-2,6.2457114E-2,-4.006453E-2,1.2403458E-2,-6.1495807E-2,7.757357E-2,-4.7217216E-2,-2.839174E-2,6.190042E-2,1.1547529E-3,7.6468095E-2,5.1710093E-3,-2.5289599E-2,3.953972E-3,5.5532824E-2,7.6161556E-2,-6.354265E-3,-6.1535638E-2,-1.5031487E-2,-3.7062474E-2,4.675674E-2],"categories":[],"categories_nodes":[],"categories_segments":[],"categories_sizes":[],"default_left":[0,0,0,0,0,0,0,0,0,0,0,0,0,0,0,0,0,0,0,0,0,0,0,0,0,0,0,0,0,0,0,0,0,0,0,0,0,0,0,0,0,0,0,0,0,0,0,0,0,0,0,0,0,0,0,0,0,0,0,0,0,0,0,0,0,0,0,0,0,0,0,0,0,0,0],"id":17,"left_children":[1,3,5,7,9,11,13,15,17,19,21,23,25,27,29,-1,-1,31,33,35,37,39,41,-1,43,45,47,-1,-1,49,51,53,55,-1,-1,-1,-1,57,59,61,63,65,67,-1,69,-1,-1,71,73,-1,-1,-1,-1,-1,-1,-1,-1,-1,-1,-1,-1,-1,-1,-1,-1,-1,-1,-1,-1,-1,-1,-1,-1,-1,-1],"loss_changes":[8.583153E1,4.1662113E1,3.762256E1,2.0491173E1,3.1007105E1,9.858712E0,2.2773666E1,3.4223366E-1,1.25187E1,1.4553726E1,2.5815514E1,6.0994496E0,9.775569E0,1.1240315E0,1.1010704E1,0E0,0E0,9.45871E0,8.149479E0,3.514061E-1,1.2696961E1,2.6668869E1,2.5058857E1,0E0,6.86173E0,1.0227594E0,3.6393585E0,0E0,0E0,1.6784108E0,7.422058E0,1.119426E1,9.657158E0,0E0,0E0,0E0,0E0,3.5564456E0,1.1507605E1,1.35438E1,1.5218881E1,