{"learner":{"attributes":{"scikit_learn":"{\"_estimator_type\": \"classifier\"}"},"feature_names":[],"feature_types":[],"gradient_booster":{"model":{"cats":{"enc":[],"feature_segments":[],"sorted_idx":[]},"gbtree_model_param":{"num_parallel_tree":"1","num_trees":"300"},"iteration_indptr":[0,1,2,3,4,5,6,7,8,9,10,11,12,13,14,15,16,17,18,19,20,21,22,23,24,25,26,27,28,29,30,31,32,33,34,35,36,37,38,39,40,41,42,43,44,45,46,47,48,49,50,51,52,53,54,55,56,57,58,59,60,61,62,63,64,65,66,67,68,69,70,71,72,73,74,75,76,77,78,79,80,81,82,83,84,85,86,87,88,89,90,91,92,93,94,95,96,97,98,99,100,101,102,103,104,105,106,107,108,109,110,111,112,113,114,115,116,117,118,119,120,121,122,123,124,125,126,127,128,129,130,131,132,133,134,135,136,137,138,139,140,141,142,143,144,145,146,147,148,149,150,151,152,153,154,155,156,157,158,159,160,161,162,163,164,165,166,167,168,169,170,171,172,173,174,175,176,177,178,179,180,181,182,183,184,185,186,187,188,189,190,191,192,193,194,195,196,197,198,199,200,201,202,203,204,205,206,207,208,209,210,211,212,213,214,215,216,217,218,219,220,221,222,223,224,225,226,227,228,229,230,231,232,233,234,235,236,237,238,239,240,241,242,243,244,245,246,247,248,249,250,251,252,253,254,255,256,257,258,259,260,261,262,263,264,265,266,267,268,269,270,271,272,273,274,275,276,277,278,279,280,281,282,283,284,285,286,287,288,289,290,291,292,293,294,295,296,297,298,299,300],"tree_info":[0,0,0,0,0,0,0,0,0,0,0,0,0,0,0,0,0,0,0,0,0,0,0,0,0,0,0,0,0,0,0,0,0,0,0,0,0,0,0,0,0,0,0,0,0,0,0,0,0,0,0,0,0,0,0,0,0,0,0,0,0,0,0,0,0,0,0,0,0,0,0,0,0,0,0,0,0,0,0,0,0,0,0,0,0,0,0,0,0,0,0,0,0,0,0,0,0,0,0,0,0,0,0,0,0,0,0,0,0,0,0,0,0,0,0,0,0,0,0,0,0,0,0,0,0,0,0,0,0,0,0,0,0,0,0,0,0,0,0,0,0,0,0,0,0,0,0,0,0,0,0,0,0,0,0,0,0,0,0,0,0,0,0,0,0,0,0,0,0,0,0,0,0,0,0,0,0,0,0,0,0,0,0,0,0,0,0,0,0,0,0,0,0,0,0,0,0,0,0,0,0,0,0,0,0,0,0,0,0,0,0,0,0,0,0,0,0,0,0,0,0,0,0,0,0,0,0,0,0,0,0,0,0,0,0,0,0,0,0,0,0,0,0,0,0,0,0,0,0,0,0,0,0,0,0,0,0,0,0,0,0,0,0,0,0,0,0,0,0,0,0,0,0,0,0,0,0,0,0,0,0,0,0,0,0,0,0,0,0,0,0,0,0,0,0,0,0,0,0,0],"trees":[{"base_weights":[-6.268844E-3,-1.6924897E0,1.4365308E0,-9.97042E-2,9.650435E-2,1.7797439E0,-9.74875E-2,1.9570777E0,-9.456757E-2,-7.766666E-2,9.972801E-2],"categories":[],"categories_nodes":[],"categories_segments":[],"categories_sizes":[],"default_left":[0,0,0,0,0,0,0,0,0,0,0],"id":0,"left_children":[1,3,5,-1,-1,7,-1,9,-1,-1,-1],"loss_changes":[1.9390056E3,4.0536047E2,5.0264008E2,0E0,0E0,2.5792126E2,0E0,5.218164E1,0E0,0E0,0E0],"parents":[2147483647,0,0,1,1,2,2,5,5,7,7],"right_children":[2,4,6,-1,-1,8,-1,10,-1,-1,-1],"split_conditions":[6.8408236E-2,1.0147147E-1,-2.4398888E-2,-9.97042E-2,9.650435E-2,-7.641716E-3,-9.74875E-2,-4.9229313E-2,-9.456757E-2,-7.766666E-2,9.972801E-2],"split_indices":[349,212,326,0,0,154,0,54,0,0,0],"split_type":[0,0,0,0,0,0,0,0,0,0,0],"sum_hessian":[7.95E2,3.665E2,4.285E2,3.3875E2,2.775E1,3.895E2,3.9E1,3.72E2,1.75E1,3.5E0,3.685E2],"tree_param":{"num_deleted":"0","num_feature":"384","num_nodes":"11","size_leaf_vector":"1"}},{"base_weights":[-1.5177556E-2,-1.6332215E0,1.3802373E0,-9.497498E-2,9.1807194E-2,1.7106954E0,-9.2953734E-2,1.8715346E0,-8.9991696E-2,-7.043146E-2,9.499387E-2],"categories":[],"categories_nodes":[],"categories_segments":[],"categories_sizes":[],"default_left":[0,0,0,0,0,0,0,0,0,0,0],"id":1,"left_children":[1,3,5,-1,-1,7,-1,9,-1,-1,-1],"loss_changes":[1.7911376E3,3.428454E2,4.5914398E2,0E0,0E0,2.219071E2,0E0,3.713379E1,0E0,0E0,0E0],"parents":[2147483647,0,0,1,1,2,2,5,5,7,7],"right_children":[2,4,6,-1,-1,8,-1,10,-1,-1,-1],"split_conditions":[6.8408236E-2,1.2028355E-1,-2.4398888E-2,-9.497498E-2,9.1807194E-2,-7.641716E-3,-9.2953734E-2,-4.9229313E-2,-8.9991696E-2,-7.043146E-2,9.499387E-2],"split_indices":[349,239,326,0,0,154,0,54,0,0,0],"split_type":[0,0,0,0,0,0,0,0,0,0,0],"sum_hessian":[7.912965E2,3.6634283E2,4.2495364E2,3.406527E2,2.569014E1,3.8604614E2,3.8907482E1,3.69583E2,1.6463163E1,2.745857E0,3.6683713E2],"tree_param":{"num_deleted":"0","num_feature":"384","num_nodes":"11","size_leaf_vector":"1"}},{"base_weights":[1.2912718E-3,-1.5532359E0,1.3267691E0,-9.08846E-2,8.80771E-2,1.6414032E0,-8.902801E-2,1.7863326E0,-8.603249E-2,-7.0997305E-2,9.090612E-2],"categories":[],"categories_nodes":[],"categories_segments":[],"categories_sizes":[],"default_left":[0,0,0,0,0,0,0,0,0,0,0],"id":2,"left_children":[1,3,5,-1,-1,7,-1,9,-1,-1,-1],"loss_changes":[1.6366012E3,3.2364954E2,4.220755E2,0E0,0E0,1.9302332E2,0E0,4.0728027E1,0E0,0E0,0E0],"parents":[2147483647,0,0,1,1,2,2,5,5,7,7],"right_children":[2,4,6,-1,-1,8,-1,10,-1,-1,-1],"split_conditions":[6.8408236E-2,1.0147147E-1,-2.4398888E-2,-9.08846E-2,8.80771E-2,-7.641716E-3,-8.902801E-2,-4.9229313E-2,-8.603249E-2,-7.0997305E-2,9.090612E-2],"split_indices":[349,212,326,0,0,154,0,54,0,0,0],"split_type":[0,0,0,0,0,0,0,0,0,0,0],"sum_hessian":[7.9227814E2,3.6455124E2,4.2772693E2,3.38037E2,2.6514246E1,3.888307E2,3.889626E1,3.7321405E2,1.5616639E1,3.2322443E0,3.6998178E2],"tree_param":{"num_deleted":"0","num_feature":"384","num_nodes":"11","size_leaf_vector":"1"}},{"base_weights":[-4.155164E-2,-1.5113014E0,1.2581987E0,-8.732381E-2,8.449507E-2,1.575093E0,-8.564052E-2,1.7152019E0,-8.268104E-2,-6.8633966E-2,8.733203E-2],"categories":[],"categories_nodes":[],"categories_segments":[],"categories_sizes":[],"default_left":[0,0,0,0,0,0,0,0,0,0,0],"id":3,"left_children":[1,3,5,-1,-1,7,-1,9,-1,-1,-1],"loss_changes":[1.5029575E3,2.8091956E2,3.9580945E2,0E0,0E0,1.7375244E2,0E0,3.7602417E1,0E0,0E0,0E0],"parents":[2147483647,0,0,1,1,2,2,5,5,7,7],"right_children":[2,4,6,-1,-1,8,-1,10,-1,-1,-1],"split_conditions":[6.8408236E-2,1.2028355E-1,-2.4398888E-2,-8.732381E-2,8.449507E-2,-7.641716E-3,-8.564052E-2,-4.9229313E-2,-8.268104E-2,-6.8633966E-2,8.733203E-2],"split_indices":[349,239,326,0,0,154,0,54,0,0,0],"split_type":[0,0,0,0,0,0,0,0,0,0,0],"sum_hessian":[7.847652E2,3.6822433E2,4.165409E2,3.4345047E2,2.4773857E1,3.768215E2,3.9719387E1,3.616018E2,1.5219699E1,3.2113075E0,3.583905E2],"tree_param":{"num_deleted":"0","num_feature":"384","num_nodes":"11","size_leaf_vector":"1"}},{"base_weights":[2.5018575E-2,1.2361875E0,-1.4495261E0,1.6069177E0,-8.292836E-2,8.10897E-2,-8.422844E-2,8.4236346E-2,-7.599666E-2],"categories":[],"categories_nodes":[],"categories_segments":[],"categories_sizes":[],"default_left":[0,0,0,0,0,0,0,0,0],"id":4,"left_children":[1,3,5,7,-1,-1,-1,-1,-1],"loss_changes":[1.3863116E3,4.6002594E2,2.5544177E2,9.4602844E1,0E0,0E0,0E0,0E0,0E0],"parents":[2147483647,0,0,1,1,2,2,3,3],"right_children":[2,4,6,8,-1,-1,-1,-1,-1],"split_conditions":[-4.6768222E-2,-1.2405777E-2,-1.343165E-1,2.424176E-2,-8.292836E-2,8.10897E-2,-8.422844E-2,8.4236346E-2,-7.599666E-2],"split_indices":[326,154,55,47,0,0,0,0,0],"split_type":[0,0,0,0,0,0,0,0,0],"sum_hessian":[7.742418E2,4.2517657E2,3.4906525E2,3.7730377E2,4.787282E1,2.43919E1,3.2467334E2,3.6859595E2,8.707815E0],"tree_param":{"num_deleted":"0","num_feature":"384","num_nodes":"9","size_leaf_vector":"1"}},{"base_weights":[-6.9131195E-3,1.1987845E0,-1.3997796E0,1.5559471E0,-8.010662E-2,7.858195E-2,-8.145385E-2,8.144939E-2,-7.3401645E-2],"categories":[],"categories_nodes":[],"categories_segments":[],"categories_sizes":[],"default_left":[0,0,0,0,0,0,0,0,0],"id":5,"left_children":[1,3,5,7,-1,-1,-1,-1,-1],"loss_changes":[1.2851244E3,4.1282703E2,2.4447784E2,8.2856995E1,0E0,0E0,0E0,0E0,0E0],"parents":[2147483647,0,0,1,1,2,2,3,3],"right_children":[2,4,6,8,-1,-1,-1,-1,-1],"split_conditions":[-4.6768222E-2,-1.2405777E-2,-1.343165E-1,2.424176E-2,-8.010662E-2,7.858195E-2,-8.145385E-2,8.144939E-2,-7.3401645E-2],"split_indices":[326,154,55,47,0,0,0,0,0],"split_type":[0,0,0,0,0,0,0,0,0],"sum_hessian":[7.632389E2,4.0917752E2,3.540614E2,3.63299E2,4.58785E1,2.4942232E1,3.2911917E2,3.5518457E2,8.114448E0],"tree_param":{"num_deleted":"0","num_feature":"384","num_nodes":"9","size_leaf_vector":"1"}},{"base_weights":[-2.1301048E-2,1.1578729E0,-1.370865E0,1.511477E0,-7.769232E-2,7.6003544E-2,-7.898014E-2,7.896973E-2,-7.059963E-2],"categories":[],"categories_nodes":[],"categories_segments":[],"categories_sizes":[],"default_left":[0,0,0,0,0,0,0,0,0],"id":6,"left_children":[1,3,5,7,-1,-1,-1,-1,-1],"loss_changes":[1.182563E3,3.8263397E2,2.1150531E2,7.19953E1,0E0,0E0,0E0,0E0,0E0],"parents":[2147483647,0,0,1,1,2,2,3,3],"right_children":[2,4,6,8,-1,-1,-1,-1,-1],"split_conditions":[-4.6768222E-2,-1.2405777E-2,-1.343165E-1,2.424176E-2,-7.769232E-2,7.6003544E-2,-7.898014E-2,7.896973E-2,-7.059963E-2],"split_indices":[326,154,55,47,0,0,0,0,0],"split_type":[0,0,0,0,0,0,0,0,0],"sum_hessian":[7.4111084E2,3.9559583E2,3.45515E2,3.503562E2,4.523961E1,2.2841335E1,3.2267368E2,3.4285425E2,7.501965E0],"tree_param":{"num_deleted":"0","num_feature":"384","num_nodes":"9","size_leaf_vector":"1"}},{"base_weights":[-1.0432223E-2,-1.3059739E0,1.1241429E0,-7.674791E-2,7.436266E-2,1.3785617E0,-7.496831E-2,1.509476E0,-7.2780706E-2,-5.8636494E-2,7.675196E-2],"categories":[],"categories_nodes":[],"categories_segments":[],"categories_sizes":[],"default_left":[0,0,0,0,0,0,0,0,0,0,0],"id":7,"left_children":[1,3,5,-1,-1,7,-1,9,-1,-1,-1],"loss_changes":[1.0835978E3,2.224245E2,2.6439084E2,0E0,0E0,1.3532263E2,0E0,2.5352661E1,0E0,0E0,0E0],"parents":[2147483647,0,0,1,1,2,2,5,5,7,7],"right_children":[2,4,6,-1,-1,8,-1,10,-1,-1,-1],"split_conditions":[6.8408236E-2,1.2028355E-1,-2.4398888E-2,-7.674791E-2,7.436266E-2,-7.641716E-3,-7.496831E-2,-4.9229313E-2,-7.2780706E-2,-5.8636494E-2,7.675196E-2],"split_indices":[349,239,326,0,0,154,0,54,0,0,0],"split_type":[0,0,0,0,0,0,0,0,0,0,0],"sum_hessian":[7.351968E2,3.4318292E2,3.9201385E2,3.176006E2,2.558234E1,3.5779453E2,3.4219334E1,3.424474E2,1.5347145E1,2.8055952E0,3.3964178E2],"tree_param":{"num_deleted":"0","num_feature":"384","num_nodes":"11","size_leaf_vector":"1"}},{"base_weights":[-1.9836314E-2,1.0789609E0,-1.274539E0,1.3889799E0,-7.349377E-2,7.225289E-2,-7.477873E-2,7.466433E-2,-6.973448E-2],"categories":[],"categories_nodes":[],"categories_segments":[],"categories_sizes":[],"default_left":[0,0,0,0,0,0,0,0,0],"id":8,"left_children":[1,3,5,7,-1,-1,-1,-1,-1],"loss_changes":[9.909921E2,3.0485345E2,2.0389478E2,1.01436646E2,0E0,0E0,0E0,0E0,0E0],"parents":[2147483647,0,0,1,1,2,2,3,3],"right_children":[2,4,6,8,-1,-1,-1,-1,-1],"split_conditions":[-4.6768222E-2,-2.4145145E-2,-1.343165E-1,-3.0573096E-2,-7.349377E-2,7.225289E-2,-7.477873E-2,7.466433E-2,-6.973448E-2],"split_indices":[326,354,55,76,0,0,0,0,0],"split_type":[0,0,0,0,0,0,0,0,0],"sum_hessian":[7.168074E2,3.8221622E2,3.3459113E2,3.4117728E2,4.1038948E1,2.4730223E1,3.098609E2,3.2930505E2,1.1872222E1],"tree_param":{"num_deleted":"0","num_feature":"384","num_nodes":"9","size_leaf_vector":"1"}},{"base_weights":[1.1433897E-2,1.0715177E0,-1.2463202E0,1.3914359E0,-7.181009E-2,7.036209E-2,-7.2967745E-2,7.2971605E-2,-6.572995E-2],"categories":[],"categories_nodes":[],"categories_segments":[],"categories_sizes":[],"default_left":[0,0,0,0,0,0,0,0,0],"id":9,"left_children":[1,3,5,7,-1,-1,-1,-1,-1],"loss_changes":[9.229462E2,3.033473E2,1.810231E2,6.3309326E1,0E0,0E0,0E0,0E0,0E0],"parents":[2147483647,0,0,1,1,2,2,3,3],"right_children":[2,4,6,8,-1,-1,-1,-1,-1],"split_conditions":[-4.6768222E-2,-1.2405777E-2,-1.343165E-1,2.424176E-2,-7.181009E-2,7.036209E-2,-7.2967745E-2,7.2971605E-2,-6.572995E-2],"split_indices":[326,154,55,47,0,0,0,0,0],"split_type":[0,0,0,0,0,0,0,0,0],"sum_hessian":[6.902139E2,3.746231E2,3.155908E2,3.3263666E2,4.1986454E1,2.3033428E1,2.9255737E2,3.2493613E2,7.7005105E0],"tree_param":{"num_deleted":"0","num_feature":"384","num_nodes":"9","size_leaf_vector":"1"}},{"base_weights":[3.586565E-3,-1.2196276E0,1.0386596E0,-7.137373E-2,6.8451315E-2,1.3742174E0,-7.01211E-2,-6.118201E-2,7.135453E-2],"categories":[],"categories_nodes":[],"categories_segments":[],"categories_sizes":[],"default_left":[0,0,0,0,0,0,0,0,0],"id":10,"left_children":[1,3,5,-1,-1,7,-1,-1,-1],"loss_changes":[8.474118E2,1.6700937E2,2.9888696E2,0E0,0E0,4.55968E1,0E0,0E0,0E0],"parents":[2147483647,0,0,1,1,2,2,5,5],"right_children":[2,4,6,-1,-1,8,-1,-1,-1],"split_conditions":[-2.8512115E-33,1.6899718E-1,3.962397E-2,-7.137373E-2,6.8451315E-2,1.864915E-2,-7.01211E-2,-6.118201E-2,7.135453E-2],"split_indices":[127,83,327,0,0,156,0,0,0],"split_type":[0,0,0,0,0,0,0,0,0],"sum_hessian":[6.673013E2,3.0576758E2,3.615337E2,2.834605E2,2.230706E1,3.1823007E2,4.330364E1,5.902173E0,3.1232788E2],"tree_param":{"num_deleted":"0","num_feature":"384","num_nodes":"9","size_leaf_vector":"1"}},{"base_weights":[-8.359207E-3,1.0286287E0,-1.1963177E0,1.3306701E0,-6.858855E-2,6.7232974E-2,-6.985063E-2,6.984962E-2,-6.2471878E-2],"categories":[],"categories_nodes":[],"categories_segments":[],"categories_sizes":[],"default_left":[0,0,0,0,0,0,0,0,0],"id":11,"left_children":[1,3,5,7,-1,-1,-1,-1,-1],"loss_changes":[8.0458777E2,2.546553E2,1.5711447E2,5.483789E1,0E0,0E0,0E0,0E0,0E0],"parents":[2147483647,0,0,1,1,2,2,3,3],"right_children":[2,4,6,8,-1,-1,-1,-1,-1],"split_conditions":[-4.6768222E-2,-1.2405777E-2,-1.343165E-1,2.424176E-2,-6.858855E-2,6.7232974E-2,-6.985063E-2,6.984962E-2,-6.2471878E-2],"split_indices":[326,154,55,47,0,0,0,0,0],"split_type":[0,0,0,0,0,0,0,0,0],"sum_hessian":[6.5112805E2,3.4772183E2,3.0340622E2,3.0925784E2,3.846399E1,2.1788944E1,2.8161728E2,3.0195834E2,7.29948E0],"tree_param":{"num_deleted":"0","num_feature":"384","num_nodes":"9","size_leaf_vector":"1"}},{"base_weights":[6.439341E-4,-1.1789894E0,9.992399E-1,-6.849798E-2,6.57226E-2,1.2250967E0,-6.682619E-2,-6.353879E-2,1.3227745E0,-5.6952167E-2,1.3645478E0,6.8408564E-2,1.6808664E-2],"categories":[],"categories_nodes":[],"categories_segments":[],"categories_sizes":[],"default_left":[0,0,0,0,0,0,0,0,0,0,0,0,0],"id":12,"left_children":[1,3,5,-1,-1,7,-1,-1,9,-1,11,-1,-1],"loss_changes":[7.5257043E2,1.4126312E2,1.841612E2,0E0,0E0,7.872122E1,0E0,0E0,3.2881104E1,0E0,6.408081E-1,0E0,0E0],"parents":[2147483647,0,0,1,1,2,2,5,5,8,8,10,10],"right_children":[2,4,6,-1,-1,8,-1,-1,10,-1,12,-1,-1],"split_conditions":[6.8408236E-2,1.0147147E-1,-7.641716E-3,-6.849798E-2,6.57226E-2,1.1484748E-2,-6.682619E-2,-6.353879E-2,-2.868101E-2,-5.6952167E-2,1.9467685E-2,6.8408564E-2,1.6808664E-2],"split_indices":[349,212,154,0,0,179,0,0,323,0,327,0,0],"split_type":[0,0,0,0,0,0,0,0,0,0,0,0,0],"sum_hessian":[6.3686816E2,2.9188092E2,3.449872E2,2.7153867E2,2.0342278E1,3.1500735E2,2.9979868E1,1.14075775E1,3.035998E2,4.6234055E0,2.9897638E2,2.9758774E2,1.3886387E0],"tree_param":{"num_deleted":"0","num_feature":"384","num_nodes":"13","size_leaf_vector":"1"}},{"base_weights":[-9.456856E-4,-1.1455505E0,9.8132795E-1,-6.725834E-2,6.467986E-2,1.204178E0,-6.5612696E-2,-6.274351E-2,1.308735E0,1.336069E0,-5.0968826E-2,6.72609E-2,-4.5212512E-4],"categories":[],"categories_nodes":[],"categories_segments":[],"categories_sizes":[],"default_left":[0,0,0,0,0,0,0,0,0,0,0,0,0],"id":13,"left_children":[1,3,5,-1,-1,7,-1,-1,9,11,-1,-1,-1],"loss_changes":[6.945011E2,1.406445E2,1.7148874E2,0E0,0E0,7.967859E1,0E0,0E0,1.9923126E1,3.578064E0,0E0,0E0,0E0],"parents":[2147483647,0,0,1,1,2,2,5,5,8,8,9,9],"right_children":[2,4,6,-1,-1,8,-1,-1,10,12,-1,-1,-1],"split_conditions":[6.8408236E-2,1.0147147E-1,-5.5785205E-2,-6.725834E-2,6.467986E-2,1.3052459E-2,-6.5612696E-2,-6.274351E-2,-2.4398888E-2,1.396645E-1,-5.0968826E-2,6.72609E-2,-4.5212512E-4],"split_indices":[349,212,202,0,0,179,0,0,326,211,0,0,0],"split_type":[0,0,0,0,0,0,0,0,0,0,0,0,0],"sum_hessian":[6.1570905E2,2.8428586E2,3.3142316E2,2.6319867E2,2.1087187E1,3.0250992E2,2.891326E1,1.1885314E1,2.906246E2,2.8767743E2,2.9471657E0,2.857413E2,1.9361359E0],"tree_param":{"num_deleted":"0","num_feature":"384","num_nodes":"13","size_leaf_vector":"1"}},{"base_weights":[-1.9253783E-3,9.505202E-1,-1.1331503E0,1.2546785E0,-6.496908E-2,6.332684E-2,-6.612925E-2,6.613315E-2,-5.9224524E-2],"categories":[],"categories_nodes":[],"categories_segments":[],"categories_sizes":[],"default_left":[0,0,0,0,0,0,0,0,0],"id":14,"left_children":[1,3,5,7,-1,-1,-1,-1,-1],"loss_changes":[6.429412E2,2.2332642E2,1.25673065E2,4.89769E1,0E0,0E0,0E0,0E0,0E0],"parents":[2147483647,0,0,1,1,2,2,3,3],"right_children":[2,4,6,8,-1,-1,-1,-1,-1],"split_conditions":[-4.6768222E-2,-1.2405777E-2,-1.343165E-1,2.424176E-2,-6.496908E-2,6.332684E-2,-6.612925E-2,6.613315E-2,-5.9224524E-2],"split_indices":[326,154,55,47,0,0,0,0,0],"split_type":[0,0,0,0,0,0,0,0,0],"sum_hessian":[5.947345E2,3.2296332E2,2.7177115E2,2.848958E2,3.8067524E1,1.946443E1,2.5230672E2,2.7761984E2,7.275973E0],"tree_param":{"num_deleted":"0","num_feature":"384","num_nodes":"9","size_leaf_vector":"1"}},{"base_weights":[-4.310559E-3,9.502547E-1,-1.1205219E0,1.2414697E0,-6.384545E-2,6.2194403E-2,-6.507487E-2,-5.7275344E-2,6.507951E-2],"categories":[],"categories_nodes":[],"categories_segments":[],"categories_sizes":[],"default_left":[0,0,0,0,0,0,0,0,0],"id":15,"left_children":[1,3,5,7,-1,-1,-1,-1,-1],"loss_changes":[6.1678284E2,2.0395892E2,1.1580176E2,4.1165466E1,0E0,0E0,0E0,0E0,0E0],"parents":[2147483647,0,0,1,1,2,2,3,3],"right_children":[2,4,6,8,-1,-1,-1,-1,-1],"split_conditions":[-4.6768222E-2,-1.2405777E-2,-1.343165E-1,-7.207748E-2,-6.384545E-2,6.2194403E-2,-6.507487E-2,-5.7275344E-2,6.507951E-2],"split_indices":[326,154,55,65,0,0,0,0,0],"split_type":[0,0,0,0,0,0,0,0,0],"sum_hessian":[5.76868E2,3.1102466E2,2.6584335E2,2.754544E2,3.5570248E1,1.8479794E1,2.4736356E2,6.3197637E0,2.6913464E2],"tree_param":{"num_deleted":"0","num_feature":"384","num_nodes":"9","size_leaf_vector":"1"}},{"base_weights":[-1.9959528E-3,9.162748E-1,-1.1078279E0,1.2121246E0,-6.288932E-2,-6.409594E-2,6.1027404E-2,6.411E-2,-5.7469662E-2],"categories":[],"categories_nodes":[],"categories_segments":[],"categories_sizes":[],"default_left":[0,0,0,0,0,0,0,0,0],"id":16,"left_children":[1,3,5,7,-1,-1,-1,-1,-1],"loss_changes":[5.627161E2,1.9624934E2,1.0347183E2,4.5658813E1,0E0,0E0,0E0,0E0,0E0],"parents":[2147483647,0,0,1,1,2,2,3,3],"right_children":[2,4,6,8,-1,-1,-1,-1,-1],"split_conditions":[-4.6768222E-2,-1.2405777E-2,1.9131722E-1,2.424176E-2,-6.288932E-2,-6.409594E-2,6.1027404E-2,6.411E-2,-5.7469662E-2],"split_indices":[326,154,349,47,0,0,0,0,0],"split_type":[0,0,0,0,0,0,0,0,0],"sum_hessian":[5.521512E2,3.0174652E2,2.5040462E2,2.6599637E2,3.5750164E1,2.3340672E2,1.6997906E1,2.587787E2,7.2176914E0],"tree_param":{"num_deleted":"0","num_feature":"384","num_nodes":"9","size_leaf_vector":"1"}},{"base_weights":[-1.24814175E-2,9.0328515E-1,-1.0802679E0,1.1969192E0,-6.194948E-2,6.035797E-2,-6.3202366E-2,6.320729E-2,-5.6085195E-2],"categories":[],"categories_nodes":[],"categories_segments":[],"categories_sizes":[],"default_left":[0,0,0,0,0,0,0,0,0],"id":17,"left_children":[1,3,5,7,-1,-1,-1,-1,-1],"loss_changes":[5.2053015E2,1.8174321E2,1.04840515E2,4.078244E1,0E0,0E0,0E0,0E0,0E0],"parents":[2147483647,0,0,1,1,2,2,3,3],"right_children":[2,4,6,8,-1,-1,-1,-1,-1],"split_conditions":[-4.6768222E-2,-1.2405777E-2,-1.343165E-1,2.424176E-2,-6.194948E-2,6.035797E-2,-6.3202366E-2,6.320729E-2,-5.6085195E-2],"split_indices":[326,154,55,47,0,0,0,0,0],"split_type":[0,0,0,0,0,0,0,0,0],"sum_hessian":[5.30325E2,2.8556253E2,2.4476251E2,2.5153189E2,3.4030632E1,1.7784384E1,2.2697812E2,2.4489056E2,6.641321E0],"tree_param":{"num_deleted":"0","num_feature":"384","num_nodes":"9","size_leaf_vector":"1"}},{"base_weights":[-1.6073792E-3,9.003901E-1,-1.0665911E0,1.1840693E0,-6.105829E-2,5.9480447E-2,-6.2368263E-2,6.2379923E-2,-5.491526E-2],"categories":[],"categories_nodes":[],"categories_segments":[],"categories_sizes":[],"default_left":[0,0,0,0,0,0,0,0,0],"id":18,"left_children":[1,3,5,7,-1,-1,-1,-1,-1],"loss_changes":[4.9889783E2,1.7067668E2,9.8622345E1,3.7408875E1,0E0,0E0,0E0,0E0,0E0],"parents":[2147483647,0,0,1,1,2,2,3,3],"right_children":[2,4,6,8,-1,-1,-1,-1,-1],"split_conditions":[-4.6768222E-2,-1.2405777E-2,-1.343165E-1,2.424176E-2,-6.105829E-2,5.9480447E-2,-6.2368263E-2,6.2379923E-2,-5.491526E-2],"split_indices":[326,154,55,47,0,0,0,0,0],"split_type":[0,0,0,0,0,0,0,0,0],"sum_hessian":[5.173523E2,2.8018896E2,2.3716336E2,2.4753673E2,3.265223E1,1.7174643E1,2.1998872E2,2.4127858E2,6.2581463E0],"tree_param":{"num_deleted":"0","num_feature":"384","num_nodes":"9","size_leaf_vector":"1"}},{"base_weights":[6.026966E-3,-1.0527606E0,8.970242E-1,-6.1599504E-2,5.8500595E-2,1.1044585E0,-5.960172E-2,1.210736E0,-5.695654E-2,-4.256854E-2,6.161834E-2],"categories":[],"categories_nodes":[],"categories_segments":[],"categories_sizes":[],"default_left":[0,0,0,0,0,0,0,0,0,0,0],"id":19,"left_children":[1,3,5,-1,-1,7,-1,9,-1,-1,-1],"loss_changes":[4.6899524E2,9.19474E1,1.1830342E2,0E0,0E0,6.00618E1,0E0,1.1555817E1,0E0,0E0,0E0],"parents":[2147483647,0,0,1,1,2,2,5,5,7,7],"right_children":[2,4,6,-1,-1,8,-1,10,-1,-1,-1],"split_conditions":[6.8408236E-2,9.494629E-2,-2.4398888E-2,-6.1599504E-2,5.8500595E-2,-7.641716E-3,-5.960172E-2,-4.9229313E-2,-5.695654E-2,-4.256854E-2,6.161834E-2],"split_indices":[349,316,326,0,0,154,0,54,0,0,0],"split_type":[0,0,0,0,0,0,0,0,0,0,0],"sum_hessian":[4.9514578E2,2.2617972E2,2.689661E2,2.0971957E2,1.6460144E1,2.451044E2,2.3861681E1,2.3446284E2,1.0641556E1,2.0308962E0,2.3243195E2],"tree_param":{"num_deleted":"0","num_feature":"384","num_nodes":"11","size_leaf_vector":"1"}},{"base_weights":[-9.3627727E-4,8.9802927E-1,-1.0420136E0,1.1649615E0,-5.9404284E-2,-6.088407E-2,5.7837296E-2,-5.1717352E-2,6.0895503E-2],"categories":[],"categories_nodes":[],"categories_segments":[],"categories_sizes":[],"default_left":[0,0,0,0,0,0,0,0,0],"id":20,"left_children":[1,3,5,7,-1,-1,-1,-1,-1],"loss_changes":[4.4902664E2,1.4475038E2,8.728194E1,2.7901001E1,0E0,0E0,0E0,0E0,0E0],"parents":[2147483647,0,0,1,1,2,2,3,3],"right_children":[2,4,6,8,-1,-1,-1,-1,-1],"split_conditions":[-4.6768222E-2,-1.2405777E-2,1.9609037E-1,-7.207748E-2,-5.9404284E-2,-6.088407E-2,5.7837296E-2,-5.1717352E-2,6.0895503E-2],"split_indices":[326,154,153,65,0,0,0,0,0],"split_type":[0,0,0,0,0,0,0,0,0],"sum_hessian":[4.7778296E2,2.5645932E2,2.2132365E2,2.2776202E2,2.8697296E1,2.0536682E2,1.5956843E1,4.914307E0,2.2284772E2],"tree_param":{"num_deleted":"0","num_feature":"384","num_nodes":"9","size_leaf_vector":"1"}},{"base_weights":[-1.338302E-2,-1.0261036E0,8.76813E-1,-6.0256194E-2,5.6910153E-2,1.1641581E0,-5.874086E-2,-4.7445152E-2,6.024586E-2],"categories":[],"categories_nodes":[],"categories_segments":[],"categories_sizes":[],"default_left":[0,0,0,0,0,0,0,0,0],"id":21,"left_children":[1,3,5,-1,-1,7,-1,-1,-1],"loss_changes":[4.1430768E2,8.46698E1,1.4555386E2,0E0,0E0,1.9666534E1,0E0,0E0,0E0],"parents":[2147483647,0,0,1,1,2,2,5,5],"right_children":[2,4,6,-1,-1,8,-1,-1,-1],"split_conditions":[-2.8512115E-33,1.6899718E-1,3.962397E-2,-6.0256194E-2,5.6910153E-2,1.864915E-2,-5.874086E-2,-4.7445152E-2,6.024586E-2],"split_indices":[127,83,327,0,0,156,0,0,0],"split_type":[0,0,0,0,0,0,0,0,0],"sum_hessian":[4.5756616E2,2.1398608E2,2.4358008E2,1.9805203E2,1.5934046E1,2.1403976E2,2.9540318E1,3.6242192E0,2.1041554E2],"tree_param":{"num_deleted":"0","num_feature":"384","num_nodes":"9","size_leaf_vector":"1"}},{"base_weights":[-1.0755497E-2,-1.0059729E0,8.454945E-1,-5.9595674E-2,5.6490123E-2,1.0492747E0,-5.748346E-2,1.1465547E0,-5.413593E-2,1.1751041E0,-4.3030195E-2,5.960665E-2,-3.559907E-2],"categories":[],"categories_nodes":[],"categories_segments":[],"categories_sizes":[],"default_left":[0,0,0,0,0,0,0,0,0,0,0,0,0],"id":22,"left_children":[1,3,5,-1,-1,7,-1,9,-1,11,-1,-1,-1],"loss_changes":[3.7473294E2,8.211113E1,9.7310425E1,0E0,0E0,4.5832977E1,0E0,1.2825043E1,0E0,7.3976746E0,0E0,0E0,0E0],"parents":[2147483647,0,0,1,1,2,2,5,5,7,7,9,9],"right_children":[2,4,6,-1,-1,8,-1,10,-1,12,-1,-1,-1],"split_conditions":[6.8408236E-2,1.0147147E-1,-7.641716E-3,-5.9595674E-2,5.6490123E-2,2.5658362E-2,-5.748346E-2,6.887794E-2,-5.413593E-2,2.5138995E-2,-4.3030195E-2,5.960665E-2,-3.559907E-2],"split_indices":[349,212,154,0,0,342,0,347,0,100,0,0,0],"split_type":[0,0,0,0,0,0,0,0,0,0,0,0,0],"sum_hessian":[4.3774747E2,2.0237007E2,2.3537741E2,1.8657358E2,1.5796494E1,2.1399927E2,2.1378157E1,2.0510739E2,8.891869E0,2.0264455E2,2.4628506E0,2.0120248E2,1.442065E0],"tree_param":{"num_deleted":"0","num_feature":"384","num_nodes":"13","size_leaf_vector":"1"}},{"base_weights":[2.0226529E-2,8.594551E-1,-1.008967E0,1.1254275E0,-5.7486404E-2,-5.901236E-2,5.559793E-2,5.903579E-2,-5.002742E-2],"categories":[],"categories_nodes":[],"categories_segments":[],"categories_sizes":[],"default_left":[0,0,0,0,0,0,0,0,0],"id":23,"left_children":[1,3,5,7,-1,-1,-1,-1,-1],"loss_changes":[3.7133057E2,1.27839935E2,7.146361E1,2.582367E1,0E0,0E0,0E0,0E0,0E0],"parents":[2147483647,0,0,1,1,2,2,3,3],"right_children":[2,4,6,8,-1,-1,-1,-1,-1],"split_conditions":[-4.6768222E-2,-1.2405777E-2,1.9609037E-1,2.424176E-2,-5.7486404E-2,-5.901236E-2,5.559793E-2,5.903579E-2,-5.002742E-2],"split_indices":[326,154,153,47,0,0,0,0,0],"split_type":[0,0,0,0,0,0,0,0,0],"sum_hessian":[4.279135E2,2.3580623E2,1.9210728E2,2.0863261E2,2.7173615E1,1.7816722E2,1.3940054E1,2.0378236E2,4.8502517E0],"tree_param":{"num_deleted":"0","num_feature":"384","num_nodes":"9","size_leaf_vector":"1"}},{"base_weights":[-2.9730129E-3,-1.0031946E0,8.4375566E-1,-5.8474835E-2,5.4838877E-2,1.0303442E0,-5.606991E-2,-5.28812E-2,1.1268537E0,-4.453489E-2,5.813981E-2],"categories":[],"categories_nodes":[],"categories_segments":[],"categories_sizes":[],"default_left":[0,0,0,0,0,0,0,0,0,0,0],"id":24,"left_children":[1,3,5,-1,-1,7,-1,-1,9,-1,-1],"loss_changes":[3.473962E2,6.69572E1,8.260585E1,0E0,0E0,4.2179016E1,0E0,0E0,1.5171768E1,0E0,0E0],"parents":[2147483647,0,0,1,1,2,2,5,5,8,8],"right_children":[2,4,6,-1,-1,8,-1,-1,10,-1,-1],"split_conditions":[6.8408236E-2,1.0147147E-1,-7.641716E-3,-5.8474835E-2,5.4838877E-2,1.1484748E-2,-5.606991E-2,-5.28812E-2,-2.868101E-2,-4.453489E-2,5.813981E-2],"split_indices":[349,212,154,0,0,179,0,0,323,0,0],"split_type":[0,0,0,0,0,0,0,0,0,0,0],"sum_hessian":[4.081882E2,1.8705333E2,2.2113487E2,1.7374211E2,1.3311222E1,2.0239824E2,1.8736639E1,8.497337E0,1.939009E2,2.9727407E0,1.9092816E2],"tree_param":{"num_deleted":"0","num_feature":"384","num_nodes":"11","size_leaf_vector":"1"}},{"base_weights":[-1.03388745E-2,8.493338E-1,-9.895311E-1,1.1063361E0,-5.618006E-2,5.451552E-2,-5.79754E-2,5.7976067E-2,-4.795061E-2],"categories":[],"categories_nodes":[],"categories_segments":[],"categories_sizes":[],"default_left":[0,0,0,0,0,0,0,0,0],"id":25,"left_children":[1,3,5,7,-1,-1,-1,-1,-1],"loss_changes":[3.3363937E2,1.0825786E2,6.6770615E1,2.1681427E1,0E0,0E0,0E0,0E0,0E0],"parents":[2147483647,0,0,1,1,2,2,3,3],"right_children":[2,4,6,8,-1,-1,-1,-1,-1],"split_conditions":[-4.6768222E-2,-1.2405777E-2,-1.343165E-1,2.424176E-2,-5.618006E-2,5.451552E-2,-5.79754E-2,5.7976067E-2,-4.795061E-2],"split_indices":[326,154,55,47,0,0,0,0,0],"split_type":[0,0,0,0,0,0,0,0,0],"sum_hessian":[3.9434753E2,2.1005452E2,1.84293E2,1.8623865E2,2.3815872E1,1.3510075E1,1.7078293E2,1.8199547E2,4.243179E0],"tree_param":{"num_deleted":"0","num_feature":"384","num_nodes":"9","size_leaf_vector":"1"}},{"base_weights":[2.0014734E-3,-9.7569686E-1,8.3159363E-1,-5.7518084E-2,5.369208E-2,1.0882684E0,-5.5565536E-2,5.7517033E-2,-4.8282124E-2],"categories":[],"categories_nodes":[],"categories_segments":[],"categories_sizes":[],"default_left":[0,0,0,0,0,0,0,0,0],"id":26,"left_children":[1,3,5,-1,-1,7,-1,-1,-1],"loss_changes":[3.039919E2,6.2821945E1,1.0232408E2,0E0,0E0,2.4011093E1,0E0,0E0,0E0],"parents":[2147483647,0,0,1,1,2,2,5,5],"right_children":[2,4,6,-1,-1,8,-1,-1,-1],"split_conditions":[-2.8512115E-33,1.6899718E-1,-7.641716E-3,-5.7518084E-2,5.369208E-2,2.5138995E-2,-5.5565536E-2,5.7517033E-2,-4.8282124E-2],"split_indices":[127,83,154,0,0,100,0,0,0],"split_type":[0,0,0,0,0,0,0,0,0],"sum_hessian":[3.727953E2,1.7103612E2,2.0175919E2,1.5801357E2,1.3022556E1,1.7860846E2,2.315073E1,1.7380074E2,4.80772E0],"tree_param":{"num_deleted":"0","num_feature":"384","num_nodes":"9","size_leaf_vector":"1"}},{"base_weights":[-1.0969577E-2,-9.871903E-1,8.173259E-1,-5.7045262E-2,5.2874275E-2,1.0082159E0,-5.4584246E-2,-5.140684E-2,1.1089634E0,1.13462E0,-3.8257588E-2,5.7059437E-2,2.1185838E-3],"categories":[],"categories_nodes":[],"categories_segments":[],"categories_sizes":[],"default_left":[0,0,0,0,0,0,0,0,0,0,0,0,0],"id":27,"left_children":[1,3,5,-1,-1,7,-1,-1,9,11,-1,-1,-1],"loss_changes":[2.9755594E2,5.4295685E1,7.364612E1,0E0,0E0,3.837825E1,0E0,0E0,9.211197E0,1.1702881E0,0E0,0E0,0E0],"parents":[2147483647,0,0,1,1,2,2,5,5,8,8,9,9],"right_children":[2,4,6,-1,-1,8,-1,-1,10,12,-1,-1,-1],"split_conditions":[6.8408236E-2,1.2028355E-1,-5.5785205E-2,-5.7045262E-2,5.2874275E-2,1.3052459E-2,-5.4584246E-2,-5.140684E-2,2.5138995E-2,1.9467685E-2,-3.8257588E-2,5.7059437E-2,2.1185838E-3],"split_indices":[349,239,202,0,0,179,0,0,100,327,0,0,0],"split_type":[0,0,0,0,0,0,0,0,0,0,0,0,0],"sum_hessian":[3.6598947E2,1.6791124E2,1.9807825E2,1.5658627E2,1.1324966E1,1.8050581E2,1.7572428E1,8.070804E0,1.7243501E2,1.7050078E2,1.9342301E0,1.6942787E2,1.0729132E0],"tree_param":{"num_deleted":"0","num_feature":"384","num_nodes":"13","size_leaf_vector":"1"}},{"base_weights":[-1.5929053E-2,-9.619586E-1,8.1915677E-1,-5.6620736E-2,5.282848E-2,1.0153837E0,-5.4057296E-2,1.1056128E0,-5.018564E-2,-3.752054E-2,5.6632567E-2],"categories":[],"categories_nodes":[],"categories_segments":[],"categories_sizes":[],"default_left":[0,0,0,0,0,0,0,0,0,0,0],"id":28,"left_children":[1,3,5,-1,-1,7,-1,9,-1,-1,-1],"loss_changes":[2.7472946E2,5.729532E1,6.997384E1,0E0,0E0,3.1706665E1,0E0,8.94545E0,0E0,0E0,0E0],"parents":[2147483647,0,0,1,1,2,2,5,5,7,7],"right_children":[2,4,6,-1,-1,8,-1,10,-1,-1,-1],"split_conditions":[6.8408236E-2,1.0147147E-1,-2.4398888E-2,-5.6620736E-2,5.282848E-2,6.887794E-2,-5.4057296E-2,-8.8353224E-2,-5.018564E-2,-3.752054E-2,5.6632567E-2],"split_indices":[349,212,326,0,0,347,0,19,0,0,0],"split_type":[0,0,0,0,0,0,0,0,0,0,0],"sum_hessian":[3.457526E2,1.620424E2,1.8371019E2,1.4983354E2,1.2208863E1,1.6694249E2,1.6767698E1,1.6023914E2,6.703363E0,1.9113934E0,1.5832774E2],"tree_param":{"num_deleted":"0","num_feature":"384","num_nodes":"11","size_leaf_vector":"1"}},{"base_weights":[-6.736676E-3,8.0017996E-1,-9.694783E-1,1.0692234E0,-5.437733E-2,5.1816363E-2,-5.6224138E-2,5.6238867E-2,-4.566219E-2],"categories":[],"categories_nodes":[],"categories_segments":[],"categories_sizes":[],"default_left":[0,0,0,0,0,0,0,0,0],"id":29,"left_children":[1,3,5,7,-1,-1,-1,-1,-1],"loss_changes":[2.5822427E2,9.300332E1,4.8289474E1,1.8516602E1,0E0,0E0,0E0,0E0,0E0],"parents":[2147483647,0,0,1,1,2,2,3,3],"right_children":[2,4,6,8,-1,-1,-1,-1,-1],"split_conditions":[-4.6768222E-2,-1.2405777E-2,-1.343165E-1,2.424176E-2,-5.437733E-2,5.1816363E-2,-5.6224138E-2,5.6238867E-2,-4.566219E-2],"split_indices":[326,154,55,47,0,0,0,0,0],"split_type":[0,0,0,0,0,0,0,0,0],"sum_hessian":[3.303974E2,1.7983127E2,1.5056613E2,1.577826E2,2.2048677E1,1.0388283E1,1.4017786E2,1.539074E2,3.8751988E0],"tree_param":{"num_deleted":"0","num_feature":"384","num_nodes":"9","size_leaf_vector":"1"}},{"base_weights":[-3.2578653E-3,-9.630442E-1,7.9711384E-1,-5.5877294E-2,5.1169705E-2,1.0746728E0,-5.4006454E-2,-4.2048573E-2,5.5885863E-2],"categories":[],"categories_nodes":[],"categories_segments":[],"categories_sizes":[],"default_left":[0,0,0,0,0,0,0,0,0],"id":30,"left_children":[1,3,5,-1,-1,7,-1,-1,-1],"loss_changes":[2.4799898E2,4.6199432E1,9.28822E1,0E0,0E0,1.3630051E1,0E0,0E0,0E0],"parents":[2147483647,0,0,1,1,2,2,5,5],"right_children":[2,4,6,-1,-1,8,-1,-1,-1],"split_conditions":[-2.8512115E-33,1.6899718E-1,3.962397E-2,-5.5877294E-2,5.1169705E-2,1.864915E-2,-5.4006454E-2,-4.2048573E-2,5.5885863E-2],"split_indices":[127,83,327,0,0,156,0,0,0],"split_type":[0,0,0,0,0,0,0,0,0],"sum_hessian":[3.208358E2,1.4580237E2,1.7503342E2,1.3569101E2,1.0111356E1,1.5286453E2,2.2168875E1,2.9468834E0,1.4991765E2],"tree_param":{"num_deleted":"0","num_feature":"384","num_nodes":"9","size_leaf_vector":"1"}},{"base_weights":[-7.6662954E-3,-9.535188E-1,7.86839E-1,-5.551626E-2,5.078863E-2,1.0699703E0,-5.3628147E-2,-4.0683612E-2,5.5528272E-2],"categories":[],"categories_nodes":[],"categories_segments":[],"categories_sizes":[],"default_left":[0,0,0,0,0,0,0,0,0],"id":31,"left_children":[1,3,5,-1,-1,7,-1,-1,-1],"loss_changes":[2.3184666E2,4.4621414E1,8.941943E1,0E0,0E0,1.2072311E1,0E0,0E0,0E0],"parents":[2147483647,0,0,1,1,2,2,5,5],"right_children":[2,4,6,-1,-1,8,-1,-1,-1],"split_conditions":[-2.8512115E-33,1.6899718E-1,3.962397E-2,-5.551626E-2,5.078863E-2,1.864915E-2,-5.3628147E-2,-4.0683612E-2,5.5528272E-2],"split_indices":[127,83,327,0,0,156,0,0,0],"split_type":[0,0,0,0,0,0,0,0,0],"sum_hessian":[3.065175E2,1.3984523E2,1.6667224E2,1.2993993E2,9.905311E0,1.4501999E2,2.1652258E1,2.6525016E0,1.4236748E2],"tree_param":{"num_deleted":"0","num_feature":"384","num_nodes":"9","size_leaf_vector":"1"}},{"base_weights":[1.2168149E-3,-9.443351E-1,7.9457533E-1,-5.5152513E-2,5.0442334E-2,9.8645765E-1,-5.217859E-2,1.0728093E0,-4.7751617E-2,5.518475E-2,-3.6760505E-2],"categories":[],"categories_nodes":[],"categories_segments":[],"categories_sizes":[],"default_left":[0,0,0,0,0,0,0,0,0,0,0],"id":32,"left_children":[1,3,5,-1,-1,7,-1,9,-1,-1,-1],"loss_changes":[2.1966025E2,4.2526695E1,5.719005E1,0E0,0E0,2.5284317E1,0E0,8.577774E0,0E0,0E0,0E0],"parents":[2147483647,0,0,1,1,2,2,5,5,7,7],"right_children":[2,4,6,-1,-1,8,-1,10,-1,-1,-1],"split_conditions":[6.8408236E-2,1.2028355E-1,-2.4398888E-2,-5.5152513E-2,5.0442334E-2,5.0620744E-3,-5.217859E-2,5.454214E-2,-4.7751617E-2,5.518475E-2,-3.6760505E-2],"split_indices":[349,239,326,0,0,213,0,184,0,0,0],"split_type":[0,0,0,0,0,0,0,0,0,0,0],"sum_hessian":[2.9081894E2,1.3259033E2,1.582286E2,1.23033066E2,9.55727E0,1.43697E2,1.4531601E1,1.3801126E2,5.68575E0,1.3608173E2,1.9295423E0],"tree_param":{"num_deleted":"0","num_feature":"384","num_nodes":"11","size_leaf_vector":"1"}},{"base_weights":[4.80659E-3,-9.466698E-1,7.9503757E-1,-5.4864258E-2,4.963862E-2,1.0575175E0,-5.267433E-2,-3.9424013E-2,5.488187E-2],"categories":[],"categories_nodes":[],"categories_segments":[],"categories_sizes":[],"default_left":[0,0,0,0,0,0,0,0,0],"id":33,"left_children":[1,3,5,-1,-1,7,-1,-1,-1],"loss_changes":[2.1233328E2,3.851719E1,7.596899E1,0E0,0E0,1.0911087E1,0E0,0E0,0E0],"parents":[2147483647,0,0,1,1,2,2,5,5],"right_children":[2,4,6,-1,-1,8,-1,-1,-1],"split_conditions":[-2.8512115E-33,1.6899718E-1,3.962397E-2,-5.4864258E-2,4.963862E-2,1.864915E-2,-5.267433E-2,-3.9424013E-2,5.488187E-2],"split_indices":[127,83,327,0,0,156,0,0,0],"split_type":[0,0,0,0,0,0,0,0,0],"sum_hessian":[2.8040186E2,1.2712571E2,1.5327614E2,1.183724E2,8.753311E0,1.345974E2,1.8678745E1,2.4609656E0,1.3213643E2],"tree_param":{"num_deleted":"0","num_feature":"384","num_nodes":"9","size_leaf_vector":"1"}},{"base_weights":[-7.2491495E-3,-9.3330026E-1,7.8779393E-1,-5.4540303E-2,4.9551386E-2,9.76934E-1,-5.13026E-2,1.0650823E0,-4.6574555E-2,-3.344559E-2,5.4566264E-2],"categories":[],"categories_nodes":[],"categories_segments":[],"categories_sizes":[],"default_left":[0,0,0,0,0,0,0,0,0,0,0],"id":34,"left_children":[1,3,5,-1,-1,7,-1,9,-1,-1,-1],"loss_changes":[1.9694223E2,3.853441E1,5.0378548E1,0E0,0E0,2.3005974E1,0E0,6.44722E0,0E0,0E0,0E0],"parents":[2147483647,0,0,1,1,2,2,5,5,7,7],"right_children":[2,4,6,-1,-1,8,-1,10,-1,-1,-1],"split_conditions":[6.8408236E-2,1.2028355E-1,-2.4398888E-2,-5.4540303E-2,4.9551386E-2,-7.641716E-3,-5.13026E-2,-4.9229313E-2,-4.6574555E-2,-3.344559E-2,5.4566264E-2],"split_indices":[349,239,326,0,0,154,0,54,0,0,0],"split_type":[0,0,0,0,0,0,0,0,0,0,0],"sum_hessian":[2.654929E2,1.2256739E2,1.4292549E2,1.1369946E2,8.867926E0,1.29852E2,1.3073495E1,1.2454646E2,5.30554E0,1.4860502E0,1.2306042E2],"tree_param":{"num_deleted":"0","num_feature":"384","num_nodes":"11","size_leaf_vector":"1"}},{"base_weights":[-9.390425E-3,7.7796924E-1,-9.321232E-1,1.0001662E0,-5.1552743E-2,4.9054608E-2,-5.427594E-2,5.4290116E-2,-4.5775298E-2],"categories":[],"categories_nodes":[],"categories_segments":[],"categories_sizes":[],"default_left":[0,0,0,0,0,0,0,0,0],"id":35,"left_children":[1,3,5,7,-1,-1,-1,-1,-1],"loss_changes":[1.8928699E2,5.753878E1,3.6270912E1,2.1619423E1,0E0,0E0,0E0,0E0,0E0],"parents":[2147483647,0,0,1,1,2,2,3,3],"right_children":[2,4,6,8,-1,-1,-1,-1,-1],"split_conditions":[-4.6768222E-2,-5.5785205E-2,-1.343165E-1,-3.0573096E-2,-5.1552743E-2,4.9054608E-2,-5.427594E-2,5.4290116E-2,-4.5775298E-2],"split_indices":[326,202,55,76,0,0,0,0,0],"split_type":[0,0,0,0,0,0,0,0,0],"sum_hessian":[2.585381E2,1.3958095E2,1.1895714E2,1.2471522E2,1.4865739E1,8.424329E0,1.10532814E2,1.197983E2,4.916912E0],"tree_param":{"num_deleted":"0","num_feature":"384","num_nodes":"9","size_leaf_vector":"1"}},{"base_weights":[5.629099E-3,-9.146571E-1,7.666757E-1,-5.397615E-2,4.8847884E-2,9.53324E-1,-5.0630372E-2,1.0357304E0,-4.5204952E-2,1.0640782E0,-3.3299234E-2,7.2166785E-3,5.3775735E-2],"categories":[],"categories_nodes":[],"categories_segments":[],"categories_sizes":[],"default_left":[0,0,0,0,0,0,0,0,0,0,0,0,0],"id":36,"left_children":[1,3,5,-1,-1,7,-1,9,-1,11,-1,-1,-1],"loss_changes":[1.7249138E2,3.582093E1,4.573417E1,0E0,0E0,1.9692337E1,0E0,6.3950577E0,0E0,1.0554199E0,0E0,0E0,0E0],"parents":[2147483647,0,0,1,1,2,2,5,5,7,7,9,9],"right_children":[2,4,6,-1,-1,8,-1,10,-1,12,-1,-1,-1],"split_conditions":[6.8408236E-2,1.0147147E-1,-7.641716E-3,-5.397615E-2,4.8847884E-2,2.5658362E-2,-5.0630372E-2,6.887794E-2,-4.5204952E-2,-6.0069848E-2,-3.3299234E-2,7.2166785E-3,5.3775735E-2],"split_indices":[349,212,154,0,0,342,0,347,0,327,0,0,0],"split_type":[0,0,0,0,0,0,0,0,0,0,0,0,0],"sum_hessian":[2.4428317E2,1.10476204E2,1.3380698E2,1.020192E2,8.457E0,1.2152837E2,1.2278599E1,1.1679444E2,4.733929E0,1.1525505E2,1.5393866E0,1.5935531E0,1.136615E2],"tree_param":{"num_deleted":"0","num_feature":"384","num_nodes":"13","size_leaf_vector":"1"}},{"base_weights":[-6.4032096E-3,7.687663E-1,-9.1610736E-1,1.0148568E0,-5.10417E-2,4.8322357E-2,-5.374338E-2,5.376208E-2,-4.1526597E-2],"categories":[],"categories_nodes":[],"categories_segments":[],"categories_sizes":[],"default_left":[0,0,0,0,0,0,0,0,0],"id":37,"left_children":[1,3,5,7,-1,-1,-1,-1,-1],"loss_changes":[1.6633136E2,5.7121666E1,3.3474075E1,1.342746E1,0E0,0E0,0E0,0E0,0E0],"parents":[2147483647,0,0,1,1,2,2,3,3],"right_children":[2,4,6,8,-1,-1,-1,-1,-1],"split_conditions":[-4.6768222E-2,-1.2405777E-2,-1.343165E-1,2.424176E-2,-5.10417E-2,4.8322357E-2,-5.374338E-2,5.376208E-2,-4.1526597E-2],"split_indices":[326,154,55,47,0,0,0,0,0],"split_type":[0,0,0,0,0,0,0,0,0],"sum_hessian":[2.3387169E2,1.2635071E2,1.0752098E2,1.1146192E2,1.4888786E1,7.961717E0,9.9559265E1,1.0833959E2,3.122328E0],"tree_param":{"num_deleted":"0","num_feature":"384","num_nodes":"9","size_leaf_vector":"1"}},{"base_weights":[-1.2484803E-2,-9.1696954E-1,7.44736E-1,-5.350721E-2,4.7536314E-2,1.0137935E0,-5.0935745E-2,5.352747E-2,-4.0071543E-2],"categories":[],"categories_nodes":[],"categories_segments":[],"categories_sizes":[],"default_left":[0,0,0,0,0,0,0,0,0],"id":38,"left_children":[1,3,5,-1,-1,7,-1,-1,-1],"loss_changes":[1.5426198E2,3.0380981E1,5.9202393E1,0E0,0E0,1.1871567E1,0E0,0E0,0E0],"parents":[2147483647,0,0,1,1,2,2,5,5],"right_children":[2,4,6,-1,-1,8,-1,-1,-1],"split_conditions":[-2.8512115E-33,1.7376025E-1,-7.641716E-3,-5.350721E-2,4.7536314E-2,2.5138995E-2,-5.0935745E-2,5.352747E-2,-4.0071543E-2],"split_indices":[127,156,154,0,0,100,0,0,0],"split_type":[0,0,0,0,0,0,0,0,0],"sum_hessian":[2.23235E2,1.01635605E2,1.215994E2,9.43316E1,7.3040037E0,1.0587619E2,1.5723213E1,1.03069305E2,2.8068852E0],"tree_param":{"num_deleted":"0","num_feature":"384","num_nodes":"9","size_leaf_vector":"1"}},{"base_weights":[-3.1077235E-3,7.584953E-1,-9.199071E-1,1.0093026E0,-5.0350543E-2,4.66651E-2,-5.3236153E-2,5.3276967E-2,-3.939737E-2],"categories":[],"categories_nodes":[],"categories_segments":[],"categories_sizes":[],"default_left":[0,0,0,0,0,0,0,0,0],"id":39,"left_children":[1,3,5,7,-1,-1,-1,-1,-1],"loss_changes":[1.4610391E2,5.1625397E1,2.647786E1,1.1008163E1,0E0,0E0,0E0,0E0,0E0],"parents":[2147483647,0,0,1,1,2,2,3,3],"right_children":[2,4,6,8,-1,-1,-1,-1,-1],"split_conditions":[-4.6768222E-2,-1.2405777E-2,-1.343165E-1,2.424176E-2,-5.0350543E-2,4.66651E-2,-5.3236153E-2,5.3276967E-2,-3.939737E-2],"split_indices":[326,154,55,47,0,0,0,0,0],"split_type":[0,0,0,0,0,0,0,0,0],"sum_hessian":[2.0724525E2,1.1329263E2,9.395262E1,9.958027E1,1.3712364E1,6.410008E0,8.754262E1,9.695907E1,2.6211998E0],"tree_param":{"num_deleted":"0","num_feature":"384","num_nodes":"9","size_leaf_vector":"1"}},{"base_weights":[-1.1180874E-2,-9.0755695E-1,7.4776053E-1,-5.3024597E-2,4.6740007E-2,9.342746E-1,-4.906277E-2,-4.4182085E-2,1.0298408E0,1.0542642E0,-2.81288E-2,1.1222005E-2,5.30581E-2],"categories":[],"categories_nodes":[],"categories_segments":[],"categories_sizes":[],"default_left":[0,0,0,0,0,0,0,0,0,0,0,0,0],"id":40,"left_children":[1,3,5,-1,-1,7,-1,-1,9,11,-1,-1,-1],"loss_changes":[1.3873198E2,2.7336662E1,3.652866E1,0E0,0E0,1.8318588E1,0E0,0E0,4.3183975E0,2.9027557E-1,0E0,0E0,0E0],"parents":[2147483647,0,0,1,1,2,2,5,5,8,8,9,9],"right_children":[2,4,6,-1,-1,8,-1,-1,10,12,-1,-1,-1],"split_conditions":[6.8408236E-2,1.2028355E-1,-5.5785205E-2,-5.3024597E-2,4.6740007E-2,1.3052459E-2,-4.906277E-2,-4.4182085E-2,-2.4398888E-2,-1.8228458E-2,-2.81288E-2,1.1222005E-2,5.30581E-2],"split_indices":[349,239,202,0,0,179,0,0,326,372,0,0,0],"split_type":[0,0,0,0,0,0,0,0,0,0,0,0,0],"sum_hessian":[2.0192868E2,9.249792E1,1.0943076E2,8.5805016E1,6.692908E0,9.919566E1,1.0235099E1,4.5371065E0,9.465856E1,9.356771E1,1.0908478E0,1.0597906E0,9.250792E1],"tree_param":{"num_deleted":"0","num_feature":"384","num_nodes":"13","size_leaf_vector":"1"}},{"base_weights":[-2.975071E-4,-9.0320194E-1,7.5419724E-1,-5.282991E-2,4.628609E-2,1.012819E0,-4.987018E-2,-3.54814E-2,5.287176E-2],"categories":[],"categories_nodes":[],"categories_segments":[],"categories_sizes":[],"default_left":[0,0,0,0,0,0,0,0,0],"id":41,"left_children":[1,3,5,-1,-1,7,-1,-1,-1],"loss_changes":[1.3408553E2,2.611837E1,4.9580616E1,0E0,0E0,7.9719543E0,0E0,0E0,0E0],"parents":[2147483647,0,0,1,1,2,2,5,5],"right_children":[2,4,6,-1,-1,8,-1,-1,-1],"split_conditions":[-2.8512115E-33,1.6899718E-1,3.962397E-2,-5.282991E-2,4.628609E-2,1.864915E-2,-4.987018E-2,-3.54814E-2,5.287176E-2],"split_indices":[127,83,327,0,0,156,0,0,0],"split_type":[0,0,0,0,0,0,0,0,0],"sum_hessian":[1.9482452E2,8.860591E1,1.0621861E2,8.214404E1,6.461867E0,9.292572E1,1.3292893E1,1.9642588E0,9.096146E1],"tree_param":{"num_deleted":"0","num_feature":"384","num_nodes":"9","size_leaf_vector":"1"}},{"base_weights":[-9.091625E-3,-8.905524E-1,7.2974825E-1,-5.2599967E-2,4.6247765E-2,9.151731E-1,-4.8472483E-2,-4.222634E-2,9.997028E-1,-3.586622E-2,5.241374E-2],"categories":[],"categories_nodes":[],"categories_segments":[],"categories_sizes":[],"default_left":[0,0,0,0,0,0,0,0,0,0,0],"id":42,"left_children":[1,3,5,-1,-1,7,-1,-1,9,-1,-1],"loss_changes":[1.2197475E2,2.6006645E1,3.298871E1,0E0,0E0,1.4587471E1,0E0,0E0,8.145416E0,0E0,0E0],"parents":[2147483647,0,0,1,1,2,2,5,5,8,8],"right_children":[2,4,6,-1,-1,8,-1,-1,10,-1,-1],"split_conditions":[6.8408236E-2,1.2028355E-1,6.887794E-2,-5.2599967E-2,4.6247765E-2,-1.5158651E-2,-4.8472483E-2,-4.222634E-2,-4.825162E-2,-3.586622E-2,5.241374E-2],"split_indices":[349,239,347,0,0,294,0,0,72,0,0],"split_type":[0,0,0,0,0,0,0,0,0,0,0],"sum_hessian":[1.8529053E2,8.4403046E1,1.00887474E2,7.790158E1,6.501465E0,9.1382645E1,9.504831E0,3.7709801E0,8.7611664E1,2.025781E0,8.5585884E1],"tree_param":{"num_deleted":"0","num_feature":"384","num_nodes":"11","size_leaf_vector":"1"}},{"base_weights":[-3.191822E-3,-8.945544E-1,7.4928707E-1,-5.2408177E-2,4.554957E-2,9.262454E-1,-4.7774386E-2,1.0241902E0,-4.2983465E-2,-2.0454533E-2,5.246219E-2],"categories":[],"categories_nodes":[],"categories_segments":[],"categories_sizes":[],"default_left":[0,0,0,0,0,0,0,0,0,0,0],"id":43,"left_children":[1,3,5,-1,-1,7,-1,9,-1,-1,-1],"loss_changes":[1.2006476E2,2.3683395E1,3.0165127E1,0E0,0E0,1.6353058E1,0E0,3.4630737E0,0E0,0E0,0E0],"parents":[2147483647,0,0,1,1,2,2,5,5,7,7],"right_children":[2,4,6,-1,-1,8,-1,10,-1,-1,-1],"split_conditions":[6.8408236E-2,1.0147147E-1,-2.4398888E-2,-5.2408177E-2,4.554957E-2,-7.641716E-3,-4.7774386E-2,-6.318573E-2,-4.2983465E-2,-2.0454533E-2,5.246219E-2],"split_indices":[349,212,326,0,0,154,0,288,0,0,0],"split_type":[0,0,0,0,0,0,0,0,0,0,0],"sum_hessian":[1.7700421E2,8.094446E1,9.605975E1,7.498963E1,5.954824E0,8.744533E1,8.614421E0,8.330856E1,4.136768E0,1.1610173E0,8.2147545E1],"tree_param":{"num_deleted":"0","num_feature":"384","num_nodes":"11","size_leaf_vector":"1"}},{"base_weights":[6.4485613E-3,7.5782955E-1,-8.9281553E-1,9.890272E-1,-4.8420426E-2,4.4878345E-2,-5.221642E-2,5.2274596E-2,-3.6524255E-2],"categories":[],"categories_nodes":[],"categories_segments":[],"categories_sizes":[],"default_left":[0,0,0,0,0,0,0,0,0],"id":44,"left_children":[1,3,5,7,-1,-1,-1,-1,-1],"loss_changes":[1.1377196E2,3.7569477E1,2.1730011E1,8.67009E0,0E0,0E0,0E0,0E0,0E0],"parents":[2147483647,0,0,1,1,2,2,3,3],"right_children":[2,4,6,8,-1,-1,-1,-1,-1],"split_conditions":[-4.6768222E-2,-1.2405777E-2,-1.343165E-1,2.424176E-2,-4.8420426E-2,4.4878345E-2,-5.221642E-2,5.2274596E-2,-3.6524255E-2],"split_indices":[326,154,55,47,0,0,0,0,0],"split_type":[0,0,0,0,0,0,0,0,0],"sum_hessian":[1.663796E2,9.073461E1,7.564499E1,8.0399445E1,1.0335166E1,5.512727E0,7.013226E1,7.822841E1,2.171038E0],"tree_param":{"num_deleted":"0","num_feature":"384","num_nodes":"9","size_leaf_vector":"1"}},{"base_weights":[-3.4231679E-3,-8.821073E-1,7.4847883E-1,-5.204116E-2,4.496478E-2,9.240678E-1,-4.7007654E-2,1.0056076E0,-4.0229883E-2,-3.0110124E-2,5.2093226E-2],"categories":[],"categories_nodes":[],"categories_segments":[],"categories_sizes":[],"default_left":[0,0,0,0,0,0,0,0,0,0,0],"id":45,"left_children":[1,3,5,-1,-1,7,-1,9,-1,-1,-1],"loss_changes":[1.0758772E2,2.2169304E1,2.6886147E1,0E0,0E0,1.2086433E1,0E0,5.1110764E0,0E0,0E0,0E0],"parents":[2147483647,0,0,1,1,2,2,5,5,7,7],"right_children":[2,4,6,-1,-1,8,-1,10,-1,-1,-1],"split_conditions":[6.8408236E-2,1.0147147E-1,6.887794E-2,-5.204116E-2,4.496478E-2,-2.4398888E-2,-4.7007654E-2,-8.8353224E-2,-4.0229883E-2,-3.0110124E-2,5.2093226E-2],"split_indices":[349,212,347,0,0,326,0,19,0,0,0],"split_type":[0,0,0,0,0,0,0,0,0,0,0],"sum_hessian":[1.6084149E2,7.409412E1,8.674738E1,6.841955E1,5.6745663E0,7.899223E1,7.755155E0,7.583902E1,3.1532092E0,1.3221713E0,7.451685E1],"tree_param":{"num_deleted":"0","num_feature":"384","num_nodes":"11","size_leaf_vector":"1"}},{"base_weights":[1.4656046E-3,-8.8758695E-1,7.5182974E-1,-5.1896732E-2,4.411092E-2,1.0005308E0,-4.814747E-2,-3.0401139E-2,5.194309E-2],"categories":[],"categories_nodes":[],"categories_segments":[],"categories_sizes":[],"default_left":[0,0,0,0,0,0,0,0,0],"id":46,"left_children":[1,3,5,-1,-1,7,-1,-1,-1],"loss_changes":[1.04895E2,2.006569E1,3.7331093E1,0E0,0E0,5.2583923E0,0E0,0E0,0E0],"parents":[2147483647,0,0,1,1,2,2,5,5],"right_children":[2,4,6,-1,-1,8,-1,-1,-1],"split_conditions":[-2.8512115E-33,1.7376025E-1,3.962397E-2,-5.1896732E-2,4.411092E-2,1.864915E-2,-4.814747E-2,-3.0401139E-2,5.194309E-2],"split_indices":[127,156,327,0,0,156,0,0,0],"split_type":[0,0,0,0,0,0,0,0,0],"sum_hessian":[1.552389E2,7.096334E1,8.4275566E1,6.579328E1,5.170059E0,7.3969795E1,1.0305771E1,1.3696363E0,7.260016E1],"tree_param":{"num_deleted":"0","num_feature":"384","num_nodes":"9","size_leaf_vector":"1"}},{"base_weights":[-1.6415125E-2,7.368377E-1,-8.856914E-1,9.747897E-1,-4.7638148E-2,-5.1726084E-2,4.3775912E-2,5.17581E-2,-3.5526972E-2],"categories":[],"categories_nodes":[],"categories_segments":[],"categories_sizes":[],"default_left":[0,0,0,0,0,0,0,0,0],"id":47,"left_children":[1,3,5,7,-1,-1,-1,-1,-1],"loss_changes":[9.840817E1,3.3302925E1,1.9195137E1,7.9712143E0,0E0,0E0,0E0,0E0,0E0],"parents":[2147483647,0,0,1,1,2,2,3,3],"right_children":[2,4,6,8,-1,-1,-1,-1,-1],"split_conditions":[-4.6768222E-2,-1.2405777E-2,1.9609037E-1,2.424176E-2,-4.7638148E-2,-5.1726084E-2,4.3775912E-2,5.17581E-2,-3.5526972E-2],"split_indices":[326,154,153,47,0,0,0,0,0],"split_type":[0,0,0,0,0,0,0,0,0],"sum_hessian":[1.4829192E2,7.952344E1,6.8768486E1,7.008247E1,9.440962E0,6.379574E1,4.972746E0,6.803695E1,2.0455246E0],"tree_param":{"num_deleted":"0","num_feature":"384","num_nodes":"9","size_leaf_vector":"1"}},{"base_weights":[3.6247121E-3,-8.746136E-1,7.405043E-1,-5.1564183E-2,4.361547E-2,9.877904E-1,-4.7565307E-2,-3.12833E-2,5.162341E-2],"categories":[],"categories_nodes":[],"categories_segments":[],"categories_sizes":[],"default_left":[0,0,0,0,0,0,0,0,0],"id":48,"left_children":[1,3,5,-1,-1,7,-1,-1,-1],"loss_changes":[9.3661064E1,1.8972103E1,3.3865788E1,0E0,0E0,5.635559E0,0E0,0E0,0E0],"parents":[2147483647,0,0,1,1,2,2,5,5],"right_children":[2,4,6,-1,-1,8,-1,-1,-1],"split_conditions":[-2.8512115E-33,1.6899718E-1,3.962397E-2,-5.1564183E-2,4.361547E-2,1.864915E-2,-4.7565307E-2,-3.12833E-2,5.162341E-2],"split_indices":[127,83,327,0,0,156,0,0,0],"split_type":[0,0,0,0,0,0,0,0,0],"sum_hessian":[1.4272852E2,6.502683E1,7.770169E1,6.005617E1,4.9706607E0,6.816089E1,9.540797E0,1.4801538E0,6.668074E1],"tree_param":{"num_deleted":"0","num_feature":"384","num_nodes":"9","size_leaf_vector":"1"}},{"base_weights":[-1.6618159E-2,-8.7023264E-1,7.1393067E-1,-5.1392656E-2,4.3355573E-2,8.983433E-1,-4.592309E-2,1.0009316E0,-4.0458422E-2,-1.7288717E-2,5.1441677E-2],"categories":[],"categories_nodes":[],"categories_segments":[],"categories_sizes":[],"default_left":[0,0,0,0,0,0,0,0,0,0,0],"id":49,"left_children":[1,3,5,-1,-1,7,-1,9,-1,-1,-1],"loss_changes":[8.604342E1,1.8316143E1,2.3207565E1,0E0,0E0,1.26037445E1,0E0,2.7656937E0,0E0,0E0,0E0],"parents":[2147483647,0,0,1,1,2,2,5,5,7,7],"right_children":[2,4,6,-1,-1,8,-1,10,-1,-1,-1],"split_conditions":[6.8408236E-2,1.2028355E-1,-2.4398888E-2,-5.1392656E-2,4.3355573E-2,-7.641716E-3,-4.592309E-2,-6.318573E-2,-4.0458422E-2,-1.7288717E-2,5.1441677E-2],"split_indices":[349,239,326,0,0,154,0,288,0,0,0],"split_type":[0,0,0,0,0,0,0,0,0,0,0],"sum_hessian":[1.3597818E2,6.26255E1,7.3352684E1,5.7796085E1,4.829417E0,6.631664E1,7.03604E0,6.2953995E1,3.3626487E0,1.0393246E0,6.191467E1],"tree_param":{"num_deleted":"0","num_feature":"384","num_nodes":"11","size_leaf_vector":"1"}},{"base_weights":[-2.1713455E-3,7.313746E-1,-8.7456715E-1,9.4916964E-1,-4.631425E-2,4.237066E-2,-5.1233828E-2,5.1299628E-2,-3.6625426E-2],"categories":[],"categories_nodes":[],"categories_segments":[],"categories_sizes":[],"default_left":[0,0,0,0,0,0,0,0,0],"id":50,"left_children":[1,3,5,7,-1,-1,-1,-1,-1],"loss_changes":[8.3333046E1,2.6416302E1,1.6245964E1,8.895905E0,0E0,0E0,0E0,0E0,0E0],"parents":[2147483647,0,0,1,1,2,2,3,3],"right_children":[2,4,6,8,-1,-1,-1,-1,-1],"split_conditions":[-4.6768222E-2,-5.5785205E-2,-1.343165E-1,-3.0573096E-2,-4.631425E-2,4.237066E-2,-5.1233828E-2,5.1299628E-2,-3.6625426E-2],"split_indices":[326,202,55,76,0,0,0,0,0],"split_type":[0,0,0,0,0,0,0,0,0],"sum_hessian":[1.2821783E2,6.973337E1,5.8484474E1,6.201839E1,7.7149763E0,4.311634E0,5.417284E1,5.9687572E1,2.3308175E0],"tree_param":{"num_deleted":"0","num_feature":"384","num_nodes":"9","size_leaf_vector":"1"}},{"base_weights":[-2.3974138E-3,7.314042E-1,-8.6299103E-1,9.6721417E-1,-4.6309322E-2,-5.1080327E-2,4.244063E-2,5.1146835E-2,-3.2150757E-2],"categories":[],"categories_nodes":[],"categories_segments":[],"categories_sizes":[],"default_left":[0,0,0,0,0,0,0,0,0],"id":51,"left_children":[1,3,5,7,-1,-1,-1,-1,-1],"loss_changes":[7.8487335E1,2.7115952E1,1.6401184E1,5.97509E0,0E0,0E0,0E0,0E0,0E0],"parents":[2147483647,0,0,1,1,2,2,3,3],"right_children":[2,4,6,8,-1,-1,-1,-1,-1],"split_conditions":[-4.6768222E-2,-1.2405777E-2,1.9609037E-1,2.424176E-2,-4.6309322E-2,-5.1080327E-2,4.244063E-2,5.1146835E-2,-3.2150757E-2],"split_indices":[326,154,153,47,0,0,0,0,0],"split_type":[0,0,0,0,0,0,0,0,0],"sum_hessian":[1.2228458E2,6.60793E1,5.620528E1,5.821948E1,7.8598166E0,5.1813305E1,4.391976E0,5.663069E1,1.5887886E0],"tree_param":{"num_deleted":"0","num_feature":"384","num_nodes":"9","size_leaf_vector":"1"}},{"base_weights":[1.2325373E-3,7.193667E-1,-8.8533026E-1,9.566932E-1,-4.6152107E-2,-5.096084E-2,4.0268023E-2,5.104276E-2,-3.340208E-2],"categories":[],"categories_nodes":[],"categories_segments":[],"categories_sizes":[],"default_left":[0,0,0,0,0,0,0,0,0],"id":52,"left_children":[1,3,5,7,-1,-1,-1,-1,-1],"loss_changes":[7.636721E1,2.6716694E1,1.2972786E1,6.7739105E0,0E0,0E0,0E0,0E0,0E0],"parents":[2147483647,0,0,1,1,2,2,3,3],"right_children":[2,4,6,8,-1,-1,-1,-1,-1],"split_conditions":[-1.8088564E-2,2.5138995E-2,1.3971879E-1,-7.641716E-3,-4.6152107E-2,-5.096084E-2,4.0268023E-2,5.104276E-2,-3.340208E-2],"split_indices":[35,100,12,154,0,0,0,0,0],"split_type":[0,0,0,0,0,0,0,0,0],"sum_hessian":[1.1794995E2,6.52754E1,5.2674553E1,5.7404152E1,7.8712473E0,4.918282E1,3.4917338E0,5.5586823E1,1.8173304E0],"tree_param":{"num_deleted":"0","num_feature":"384","num_nodes":"9","size_leaf_vector":"1"}},{"base_weights":[4.9831565E-3,6.0663337E-1,-5.0679862E-2,-4.7005396E-2,8.573154E-1,-3.9481834E-2,9.5900375E-1,-2.9008955E-2,5.0147768E-2],"categories":[],"categories_nodes":[],"categories_segments":[],"categories_sizes":[],"default_left":[0,0,0,0,0,0,0,0,0],"id":53,"left_children":[1,3,-1,-1,5,-1,7,-1,-1],"loss_changes":[7.0745186E1,2.894668E1,0E0,0E0,1.130735E1,0E0,4.63015E0,0E0,0E0],"parents":[2147483647,0,0,1,1,4,4,6,6],"right_children":[2,4,-1,-1,6,-1,8,-1,-1],"split_conditions":[-5.5785205E-2,3.08917E-2,-5.0679862E-2,-4.7005396E-2,-2.0603482E-2,-3.9481834E-2,-5.501258E-33,-2.9008955E-2,5.0147768E-2],"split_indices":[202,156,0,0,212,0,127,0,0],"split_type":[0,0,0,0,0,0,0,0,0],"sum_hessian":[1.13443596E2,7.1578316E1,4.1865284E1,9.5937195E0,6.1984596E1,3.2054374E0,5.8779156E1,1.2868209E0,5.7492336E1],"tree_param":{"num_deleted":"0","num_feature":"384","num_nodes":"9","size_leaf_vector":"1"}},{"base_weights":[-6.077529E-3,-8.5556895E-1,7.156143E-1,-5.0663054E-2,4.1177463E-2,8.8056296E-1,-4.340581E-2,-3.5877865E-2,9.628618E-1,5.0213862E-2,-2.6500205E-2],"categories":[],"categories_nodes":[],"categories_segments":[],"categories_sizes":[],"default_left":[0,0,0,0,0,0,0,0,0,0,0],"id":54,"left_children":[1,3,5,-1,-1,7,-1,-1,9,-1,-1],"loss_changes":[6.7462814E1,1.4220421E1,1.6306087E1,0E0,0E0,7.846012E0,0E0,0E0,3.7614899E0,0E0,0E0],"parents":[2147483647,0,0,1,1,2,2,5,5,8,8],"right_children":[2,4,6,-1,-1,8,-1,-1,10,-1,-1],"split_conditions":[6.8408236E-2,1.0147147E-1,-7.641716E-3,-5.0663054E-2,4.1177463E-2,-2.4263358E-2,-4.340581E-2,-3.5877865E-2,3.372141E-2,5.0213862E-2,-2.6500205E-2],"split_indices":[349,212,154,0,0,221,0,0,64,0,0],"split_type":[0,0,0,0,0,0,0,0,0,0,0],"sum_hessian":[1.08039825E2,4.9547104E1,5.8492718E1,4.5661385E1,3.8857203E0,5.3383076E1,5.1096435E0,2.230459E0,5.1152615E1,5.0096798E1,1.0558186E0],"tree_param":{"num_deleted":"0","num_feature":"384","num_nodes":"11","size_leaf_vector":"1"}},{"base_weights":[-1.4000163E-2,-8.7059724E-1,7.1207917E-1,-5.0538976E-2,3.946187E-2,9.618709E-1,-4.5297146E-2,-2.8097356E-2,5.0596952E-2],"categories":[],"categories_nodes":[],"categories_segments":[],"categories_sizes":[],"default_left":[0,0,0,0,0,0,0,0,0],"id":55,"left_children":[1,3,5,-1,-1,7,-1,-1,-1],"loss_changes":[6.429987E1,1.1835133E1,2.3488129E1,0E0,0E0,4.3088646E0,0E0,0E0,0E0],"parents":[2147483647,0,0,1,1,2,2,5,5],"right_children":[2,4,6,-1,-1,8,-1,-1,-1],"split_conditions":[-2.8512115E-33,1.6899718E-1,3.962397E-2,-5.0538976E-2,3.946187E-2,1.864915E-2,-4.5297146E-2,-2.8097356E-2,5.0596952E-2],"split_indices":[127,83,327,0,0,156,0,0,0],"split_type":[0,0,0,0,0,0,0,0,0],"sum_hessian":[1.0138378E2,4.6426517E1,5.4957268E1,4.3177036E1,3.249479E0,4.7964214E1,6.9930525E0,1.1942395E0,4.6769974E1],"tree_param":{"num_deleted":"0","num_feature":"384","num_nodes":"9","size_leaf_vector":"1"}},{"base_weights":[-9.259627E-3,7.071077E-1,-8.623567E-1,9.2246675E-1,-4.4241954E-2,-5.0385E-2,3.9334275E-2,5.046702E-2,-3.4631126E-2],"categories":[],"categories_nodes":[],"categories_segments":[],"categories_sizes":[],"default_left":[0,0,0,0,0,0,0,0,0],"id":56,"left_children":[1,3,5,7,-1,-1,-1,-1,-1],"loss_changes":[6.0429375E1,1.92433E1,1.161248E1,7.4143105E0,0E0,0E0,0E0,0E0,0E0],"parents":[2147483647,0,0,1,1,2,2,3,3],"right_children":[2,4,6,8,-1,-1,-1,-1,-1],"split_conditions":[-4.6768222E-2,-5.5785205E-2,1.9609037E-1,-3.0573096E-2,-4.4241954E-2,-5.0385E-2,3.9334275E-2,5.046702E-2,-3.4631126E-2],"split_indices":[326,202,153,76,0,0,0,0,0],"split_type":[0,0,0,0,0,0,0,0,0],"sum_hessian":[9.6880905E1,5.2747173E1,4.4133736E1,4.683777E1,5.9094048E0,4.092194E1,3.2117956E0,4.4808807E1,2.0289607E0],"tree_param":{"num_deleted":"0","num_feature":"384","num_nodes":"9","size_leaf_vector":"1"}},{"base_weights":[-7.349719E-3,7.040094E-1,-8.602098E-1,9.414717E-1,-4.4477608E-2,3.883479E-2,-5.024944E-2,5.0343733E-2,-3.0624494E-2],"categories":[],"categories_nodes":[],"categories_segments":[],"categories_sizes":[],"default_left":[0,0,0,0,0,0,0,0,0],"id":57,"left_children":[1,3,5,7,-1,-1,-1,-1,-1],"loss_changes":[5.756043E1,2.0412169E1,1.1008514E1,5.2460175E0,0E0,0E0,0E0,0E0,0E0],"parents":[2147483647,0,0,1,1,2,2,3,3],"right_children":[2,4,6,8,-1,-1,-1,-1,-1],"split_conditions":[-4.6768222E-2,-1.2405777E-2,-1.343165E-1,2.424176E-2,-4.4477608E-2,3.883479E-2,-5.024944E-2,5.0343733E-2,-3.0624494E-2],"split_indices":[326,154,55,47,0,0,0,0,0],"split_type":[0,0,0,0,0,0,0,0,0],"sum_hessian":[9.287543E1,5.0727287E1,4.214814E1,4.451015E1,6.217138E0,3.0646544E0,3.9083485E1,4.3056484E1,1.4536645E0],"tree_param":{"num_deleted":"0","num_feature":"384","num_nodes":"9","size_leaf_vector":"1"}},{"base_weights":[-9.160769E-3,6.9174045E-1,-8.595311E-1,9.4715583E-1,-4.4458132E-2,-5.011173E-2,3.7951063E-2,5.0071545E-2,-2.7372658E-2],"categories":[],"categories_nodes":[],"categories_segments":[],"categories_sizes":[],"default_left":[0,0,0,0,0,0,0,0,0],"id":58,"left_children":[1,3,5,7,-1,-1,-1,-1,-1],"loss_changes":[5.3481674E1,2.0703983E1,1.0127422E1,4.027584E0,0E0,0E0,0E0,0E0,0E0],"parents":[2147483647,0,0,1,1,2,2,3,3],"right_children":[2,4,6,8,-1,-1,-1,-1,-1],"split_conditions":[-1.8088564E-2,1.2788476E-2,1.3971879E-1,2.5138995E-2,-4.4458132E-2,-5.011173E-2,3.7951063E-2,5.0071545E-2,-2.7372658E-2],"split_indices":[35,55,12,100,0,0,0,0,0],"split_type":[0,0,0,0,0,0,0,0,0],"sum_hessian":[8.7730125E1,4.818739E1,3.9542736E1,4.1835518E1,6.351869E0,3.6694447E1,2.848289E0,4.0694412E1,1.1411085E0],"tree_param":{"num_deleted":"0","num_feature":"384","num_nodes":"9","size_leaf_vector":"1"}},{"base_weights":[-3.3345753E-3,-8.49106E-1,7.164024E-1,-5.0008155E-2,3.8363077E-2,9.5664805E-1,-4.373677E-2,-1.1355067E-2,4.977436E-2],"categories":[],"categories_nodes":[],"categories_segments":[],"categories_sizes":[],"default_left":[0,0,0,0,0,0,0,0,0],"id":59,"left_children":[1,3,5,-1,-1,7,-1,-1,-1],"loss_changes":[5.2790733E1,1.0505468E1,1.8745546E1,0E0,0E0,2.1272545E0,0E0,0E0,0E0],"parents":[2147483647,0,0,1,1,2,2,5,5],"right_children":[2,4,6,-1,-1,8,-1,-1,-1],"split_conditions":[-2.8512115E-33,1.7376025E-1,3.962397E-2,-5.0008155E-2,3.8363077E-2,-9.30113E-3,-4.373677E-2,-1.1355067E-2,4.977436E-2],"split_indices":[127,156,327,0,0,43,0,0,0],"split_type":[0,0,0,0,0,0,0,0,0],"sum_hessian":[8.472085E1,3.8873863E1,4.5846985E1,3.590572E1,2.9681423E0,4.0184574E1,5.6624126E0,1.1144153E0,3.9070156E1],"tree_param":{"num_deleted":"0","num_feature":"384","num_nodes":"9","size_leaf_vector":"1"}},{"base_weights":[8.938203E-3,-8.4618133E-1,7.0538205E-1,-4.9855556E-2,3.7793677E-2,9.388375E-1,-4.3477524E-2,5.0012E-2,-2.8315395E-2],"categories":[],"categories_nodes":[],"categories_segments":[],"categories_sizes":[],"default_left":[0,0,0,0,0,0,0,0,0],"id":60,"left_children":[1,3,5,-1,-1,7,-1,-1,-1],"loss_changes":[5.0090008E1,9.884609E0,1.786094E1,0E0,0E0,4.3468323E0,0E0,0E0,0E0],"parents":[2147483647,0,0,1,1,2,2,5,5],"right_children":[2,4,6,-1,-1,8,-1,-1,-1],"split_conditions":[-2.8512115E-33,1.7376025E-1,-7.641716E-3,-4.9855556E-2,3.7793677E-2,2.5138995E-2,-4.3477524E-2,5.0012E-2,-2.8315395E-2],"split_indices":[127,156,154,0,0,100,0,0,0],"split_type":[0,0,0,0,0,0,0,0,0],"sum_hessian":[8.2108284E1,3.6752655E1,4.5355633E1,3.3939095E1,2.8135583E0,3.985768E1,5.497949E0,3.8624107E1,1.233574E0],"tree_param":{"num_deleted":"0","num_feature":"384","num_nodes":"9","size_leaf_vector":"1"}},{"base_weights":[1.2336422E-2,5.9827256E-1,-4.9531735E-2,-4.4422183E-2,8.374336E-1,-3.5116293E-2,9.353015E-1,3.0766857E-1,4.9667906E-2,3.7552107E-2,-2.8339878E-2],"categories":[],"categories_nodes":[],"categories_segments":[],"categories_sizes":[],"default_left":[0,0,0,0,0,0,0,0,0,0,0],"id":61,"left_children":[1,3,-1,-1,5,-1,7,9,-1,-1,-1],"loss_changes":[4.701175E1,1.8697182E1,0E0,0E0,7.292265E0,0E0,1.2052612E0,2.367758E0,0E0,0E0,0E0],"parents":[2147483647,0,0,1,1,4,4,6,6,7,7],"right_children":[2,4,-1,-1,6,-1,8,10,-1,-1,-1],"split_conditions":[-5.5785205E-2,3.08917E-2,-4.9531735E-2,-4.4422183E-2,-2.0603482E-2,-3.5116293E-2,-4.1377008E-33,-1.2583641E-2,4.9667906E-2,3.7552107E-2,-2.8339878E-2],"split_indices":[202,156,0,0,212,0,127,1,0,0,0],"split_type":[0,0,0,0,0,0,0,0,0,0,0],"sum_hessian":[7.799407E1,4.949345E1,2.8500626E1,6.476486E0,4.3016964E1,2.1955678E0,4.0821396E1,4.004258E0,3.681714E1,2.7583113E0,1.2459469E0],"tree_param":{"num_deleted":"0","num_feature":"384","num_nodes":"11","size_leaf_vector":"1"}},{"base_weights":[-1.6359566E-2,6.9128007E-1,-8.447917E-1,9.3161994E-1,-4.2733166E-2,-4.9614612E-2,3.6711726E-2,4.9703803E-2,-2.6858186E-2],"categories":[],"categories_nodes":[],"categories_segments":[],"categories_sizes":[],"default_left":[0,0,0,0,0,0,0,0,0],"id":62,"left_children":[1,3,5,7,-1,-1,-1,-1,-1],"loss_changes":[4.4379387E1,1.5968472E1,8.852936E0,3.824749E0,0E0,0E0,0E0,0E0,0E0],"parents":[2147483647,0,0,1,1,2,2,3,3],"right_children":[2,4,6,8,-1,-1,-1,-1,-1],"split_conditions":[-4.6768222E-2,-1.2405777E-2,1.9609037E-1,1.5994731E-2,-4.2733166E-2,-4.9614612E-2,3.6711726E-2,4.9703803E-2,-2.6858186E-2],"split_indices":[326,154,153,182,0,0,0,0,0],"split_type":[0,0,0,0,0,0,0,0,0],"sum_hessian":[7.3704056E1,3.983275E1,3.3871307E1,3.4822865E1,5.0098853E0,3.1323242E1,2.5480638E0,3.3719055E1,1.1038069E0],"tree_param":{"num_deleted":"0","num_feature":"384","num_nodes":"9","size_leaf_vector":"1"}},{"base_weights":[-2.539046E-2,-8.5416657E-1,6.747704E-1,-4.9491417E-2,3.5241053E-2,9.4215834E-1,-4.3130945E-2,4.898522E-2,-7.0242225E-3],"categories":[],"categories_nodes":[],"categories_segments":[],"categories_sizes":[],"default_left":[0,0,0,0,0,0,0,0,0],"id":63,"left_children":[1,3,5,-1,-1,7,-1,-1,-1],"loss_changes":[4.205785E1,7.718458E0,1.6968943E1,0E0,0E0,1.5265026E0,0E0,0E0,0E0],"parents":[2147483647,0,0,1,1,2,2,5,5],"right_children":[2,4,6,-1,-1,8,-1,-1,-1],"split_conditions":[-2.8512115E-33,1.6899718E-1,3.962397E-2,-4.9491417E-2,3.5241053E-2,2.639459E-2,-4.3130945E-2,4.898522E-2,-7.0242225E-3],"split_indices":[127,83,327,0,0,229,0,0,0],"split_type":[0,0,0,0,0,0,0,0,0],"sum_hessian":[7.048261E1,3.21826E1,3.8300014E1,2.994804E1,2.234556E0,3.2961002E1,5.3390136E0,3.195705E1,1.0039524E0],"tree_param":{"num_deleted":"0","num_feature":"384","num_nodes":"9","size_leaf_vector":"1"}},{"base_weights":[-6.4746477E-3,7.019664E-1,-8.329627E-1,9.2894757E-1,-4.1510046E-2,3.6179718E-2,-4.9350496E-2,-2.1079918E-2,4.945753E-2],"categories":[],"categories_nodes":[],"categories_segments":[],"categories_sizes":[],"default_left":[0,0,0,0,0,0,0,0,0],"id":64,"left_children":[1,3,5,7,-1,-1,-1,-1,-1],"loss_changes":[4.042224E1,1.3699036E1,8.357658E0,3.0937824E0,0E0,0E0,0E0,0E0,0E0],"parents":[2147483647,0,0,1,1,2,2,3,3],"right_children":[2,4,6,8,-1,-1,-1,-1,-1],"split_conditions":[-4.6768222E-2,-1.2405777E-2,-1.343165E-1,-1.7985247E-2,-4.1510046E-2,3.6179718E-2,-4.9350496E-2,-2.1079918E-2,4.945753E-2],"split_indices":[326,154,55,221,0,0,0,0,0],"split_type":[0,0,0,0,0,0,0,0,0],"sum_hessian":[6.703586E1,3.6170307E1,3.0865551E1,3.1851875E1,4.3184295E0,2.4407785E0,2.8424772E1,1.0960016E0,3.0755875E1],"tree_param":{"num_deleted":"0","num_feature":"384","num_nodes":"9","size_leaf_vector":"1"}},{"base_weights":[-1.8194534E-2,-8.4221643E-1,6.826901E-1,-4.9245123E-2,3.491105E-2,8.5723644E-1,-3.9339222E-2,-3.0749787E-2,4.744635E-2],"categories":[],"categories_nodes":[],"categories_segments":[],"categories_sizes":[],"default_left":[0,0,0,0,0,0,0,0,0],"id":65,"left_children":[1,3,5,-1,-1,7,-1,-1,-1],"loss_changes":[3.8646767E1,7.44969E0,9.951403E0,0E0,0E0,5.0160465E0,0E0,0E0,0E0],"parents":[2147483647,0,0,1,1,2,2,5,5],"right_children":[2,4,6,-1,-1,8,-1,-1,-1],"split_conditions":[6.8408236E-2,1.0147147E-1,6.887794E-2,-4.9245123E-2,3.491105E-2,-1.5158651E-2,-3.9339222E-2,-3.0749787E-2,4.744635E-2],"split_indices":[349,212,347,0,0,294,0,0,0],"split_type":[0,0,0,0,0,0,0,0,0],"sum_hessian":[6.4917366E1,2.9751495E1,3.516587E1,2.756533E1,2.186166E0,3.181078E1,3.3550892E0,1.524016E0,3.0286764E1],"tree_param":{"num_deleted":"0","num_feature":"384","num_nodes":"9","size_leaf_vector":"1"}},{"base_weights":[-1.9033296E-2,6.699455E-1,-8.4677213E-1,8.9212376E-1,-4.0929433E-2,-4.9134415E-2,3.3762593E-2,4.845057E-2,-2.7705265E-2],"categories":[],"categories_nodes":[],"categories_segments":[],"categories_sizes":[],"default_left":[0,0,0,0,0,0,0,0,0],"id":66,"left_children":[1,3,5,7,-1,-1,-1,-1,-1],"loss_changes":[3.678254E1,1.23744135E1,6.7264957E0,4.001335E0,0E0,0E0,0E0,0E0,0E0],"parents":[2147483647,0,0,1,1,2,2,3,3],"right_children":[2,4,6,8,-1,-1,-1,-1,-1],"split_conditions":[-1.8088564E-2,-7.641716E-3,1.8682201E-1,4.6006687E-2,-4.0929433E-2,-4.9134415E-2,3.3762593E-2,4.845057E-2,-2.7705265E-2],"split_indices":[35,154,92,296,0,0,0,0,0],"split_type":[0,0,0,0,0,0,0,0,0],"sum_hessian":[6.249961E1,3.4206203E1,2.829341E1,3.011816E1,4.0880427E0,2.6305283E1,1.9881275E0,2.8917662E1,1.2004968E0],"tree_param":{"num_deleted":"0","num_feature":"384","num_nodes":"9","size_leaf_vector":"1"}},{"base_weights":[-2.0639796E-2,6.779565E-1,-8.256016E-1,8.929233E-1,-4.016438E-2,3.5007518E-2,-4.9012095E-2,4.8868213E-2,-2.8081432E-2],"categories":[],"categories_nodes":[],"categories_segments":[],"categories_sizes":[],"default_left":[0,0,0,0,0,0,0,0,0],"id":67,"left_children":[1,3,5,7,-1,-1,-1,-1,-1],"loss_changes":[3.4659958E1,1.1227792E1,7.4444427E0,4.1520863E0,0E0,0E0,0E0,0E0,0E0],"parents":[2147483647,0,0,1,1,2,2,3,3],"right_children":[2,4,6,8,-1,-1,-1,-1,-1],"split_conditions":[-4.6768222E-2,-2.4145145E-2,-1.343165E-1,-3.0573096E-2,-4.016438E-2,3.5007518E-2,-4.9012095E-2,4.8868213E-2,-2.8081432E-2],"split_indices":[326,354,55,76,0,0,0,0,0],"split_type":[0,0,0,0,0,0,0,0,0],"sum_hessian":[5.963691E1,3.2005707E1,2.7631203E1,2.830225E1,3.7034554E0,2.2122142E0,2.541899E1,2.7065933E1,1.2363162E0],"tree_param":{"num_deleted":"0","num_feature":"384","num_nodes":"9","size_leaf_vector":"1"}},{"base_weights":[-6.8378807E-3,-8.261596E-1,6.864176E-1,-4.884829E-2,3.4028377E-2,8.492026E-1,-3.7418272E-2,-2.8490772E-2,9.3542296E-1,3.660052E-1,4.886846E-2,-0E0,2.8343279E-2],"categories":[],"categories_nodes":[],"categories_segments":[],"categories_sizes":[],"default_left":[0,0,0,0,0,0,0,0,0,0,0,0,0],"id":68,"left_children":[1,3,5,-1,-1,7,-1,-1,9,11,-1,-1,-1],"loss_changes":[3.343144E1,6.797905E0,8.082298E0,0E0,0E0,4.097704E0,0E0,0E0,2.9340744E-1,2.6066247E-1,0E0,0E0,0E0],"parents":[2147483647,0,0,1,1,2,2,5,5,8,8,9,9],"right_children":[2,4,6,-1,-1,8,-1,-1,10,12,-1,-1,-1],"split_conditions":[6.8408236E-2,1.0147147E-1,-7.641716E-3,-4.884829E-2,3.4028377E-2,1.1484748E-2,-3.7418272E-2,-2.8490772E-2,-1.1840742E-2,7.306312E-3,4.886846E-2,-0E0,2.8343279E-2],"split_indices":[349,212,154,0,0,179,0,0,255,37,0,0,0],"split_type":[0,0,0,0,0,0,0,0,0,0,0,0,0],"sum_hessian":[5.685738E1,2.5978037E1,3.0879343E1,2.3940136E1,2.0379E0,2.810568E1,2.773662E0,1.2819805E0,2.68237E1,2.5240357E0,2.4299665E1,1.2437425E0,1.2802931E0],"tree_param":{"num_deleted":"0","num_feature":"384","num_nodes":"13","size_leaf_vector":"1"}},{"base_weights":[-2.242521E-2,6.7688596E-1,-8.26969E-1,9.137849E-1,-3.9976694E-2,3.3397578E-2,-4.874064E-2,-1.2921606E-2,4.8812836E-2],"categories":[],"categories_nodes":[],"categories_segments":[],"categories_sizes":[],"default_left":[0,0,0,0,0,0,0,0,0],"id":69,"left_children":[1,3,5,7,-1,-1,-1,-1,-1],"loss_changes":[3.1486046E1,1.1206729E1,6.40415E0,2.183998E0,0E0,0E0,0E0,0E0,0E0],"parents":[2147483647,0,0,1,1,2,2,3,3],"right_children":[2,4,6,8,-1,-1,-1,-1,-1],"split_conditions":[-4.6768222E-2,-1.2405777E-2,-1.343165E-1,-3.6919054E-2,-3.9976694E-2,3.3397578E-2,-4.874064E-2,-1.2921606E-2,4.8812836E-2],"split_indices":[326,154,55,65,0,0,0,0,0],"split_type":[0,0,0,0,0,0,0,0,0],"sum_hessian":[5.396503E1,2.8948862E1,2.5016169E1,2.5280355E1,3.6685064E0,1.9286864E0,2.3087482E1,1.1123033E0,2.416805E1],"tree_param":{"num_deleted":"0","num_feature":"384","num_nodes":"9","size_leaf_vector":"1"}},{"base_weights":[-1.0439439E-2,-8.2056487E-1,6.7594695E-1,-4.858583E-2,3.3058837E-2,8.513141E-1,-3.722524E-2,4.768722E-2,-2.9339893E-2],"categories":[],"categories_nodes":[],"categories_segments":[],"categories_sizes":[],"default_left":[0,0,0,0,0,0,0,0,0],"id":70,"left_children":[1,3,5,-1,-1,7,-1,-1,-1],"loss_changes":[3.0027187E1,6.1926327E0,7.916765E0,0E0,0E0,4.4659233E0,0E0,0E0,0E0],"parents":[2147483647,0,0,1,1,2,2,5,5],"right_children":[2,4,6,-1,-1,8,-1,-1,-1],"split_conditions":[6.8408236E-2,1.0147147E-1,-2.4398888E-2,-4.858583E-2,3.3058837E-2,-7.641716E-3,-3.722524E-2,4.768722E-2,-2.9339893E-2],"split_indices":[349,212,326,0,0,154,0,0,0],"split_type":[0,0,0,0,0,0,0,0,0],"sum_hessian":[5.1999916E1,2.3767174E1,2.823274E1,2.188559E1,1.8815835E0,2.5493109E1,2.739633E0,2.4118982E1,1.3741256E0],"tree_param":{"num_deleted":"0","num_feature":"384","num_nodes":"9","size_leaf_vector":"1"}},{"base_weights":[-1.6730411E-2,5.611313E-1,-4.818196E-2,8.5386926E-1,-4.2303238E-2,4.8004277E-2,-2.9953172E-2],"categories":[],"categories_nodes":[],"categories_segments":[],"categories_sizes":[],"default_left":[0,0,0,0,0,0,0],"id":71,"left_children":[1,3,-1,5,-1,-1,-1],"loss_changes":[2.8181442E1,1.3901E1,0E0,4.743355E0,0E0,0E0,0E0],"parents":[2147483647,0,0,1,1,3,3],"right_children":[2,4,-1,6,-1,-1,-1],"split_conditions":[-5.5785205E-2,-2.4398888E-2,-4.818196E-2,5.0620744E-3,-4.2303238E-2,4.8004277E-2,-2.9953172E-2],"split_indices":[202,326,0,213,0,0,0],"split_type":[0,0,0,0,0,0,0],"sum_hessian":[4.9507275E1,3.0991322E1,1.8515955E1,2.5985826E1,5.0054936E0,2.4538069E1,1.4477578E0],"tree_param":{"num_deleted":"0","num_feature":"384","num_nodes":"7","size_leaf_vector":"1"}},{"base_weights":[-2.3262387E-2,6.7002606E-1,-8.1723636E-1,8.9813095E-1,-3.848637E-2,3.2085296E-2,-4.8348527E-2,2.1730526E-3,4.8351314E-2],"categories":[],"categories_nodes":[],"categories_segments":[],"categories_sizes":[],"default_left":[0,0,0,0,0,0,0,0,0],"id":72,"left_children":[1,3,5,7,-1,-1,-1,-1,-1],"loss_changes":[2.7172905E1,9.350782E0,5.6489897E0,1.315443E0,0E0,0E0,0E0,0E0,0E0],"parents":[2147483647,0,0,1,1,2,2,3,3],"right_children":[2,4,6,8,-1,-1,-1,-1,-1],"split_conditions":[-4.6768222E-2,-1.2405777E-2,-1.343165E-1,2.2570698E-2,-3.848637E-2,3.2085296E-2,-4.8348527E-2,2.1730526E-3,4.8351314E-2],"split_indices":[326,154,55,373,0,0,0,0,0],"split_type":[0,0,0,0,0,0,0,0,0],"sum_hessian":[4.7367188E1,2.5363556E1,2.2003633E1,2.2225441E1,3.1381137E0,1.7360388E0,2.0267593E1,1.7904356E0,2.0435005E1],"tree_param":{"num_deleted":"0","num_feature":"384","num_nodes":"9","size_leaf_vector":"1"}},{"base_weights":[-2.6790092E-2,-8.189138E-1,6.6068774E-1,-4.8187837E-2,3.09666E-2,9.1328293E-1,-3.8843986E-2,4.8136525E-2,1.2736755E-2],"categories":[],"categories_nodes":[],"categories_segments":[],"categories_sizes":[],"default_left":[0,0,0,0,0,0,0,0,0],"id":73,"left_children":[1,3,5,-1,-1,7,-1,-1,-1],"loss_changes":[2.545441E1,5.122658E0,9.80253E0,0E0,0E0,4.512043E-1,0E0,0E0,0E0],"parents":[2147483647,0,0,1,1,2,2,5,5],"right_children":[2,4,6,-1,-1,8,-1,-1,-1],"split_conditions":[-2.8512115E-33,1.6899718E-1,3.962397E-2,-4.8187837E-2,3.09666E-2,-2.3539405E-2,-3.8843986E-2,4.8136525E-2,1.2736755E-2],"split_indices":[127,83,327,0,0,302,0,0,0],"split_type":[0,0,0,0,0,0,0,0,0],"sum_hessian":[4.4746E1,2.070858E1,2.403742E1,1.9119911E1,1.5886685E0,2.0761135E1,3.276284E0,1.886738E1,1.8937554E0],"tree_param":{"num_deleted":"0","num_feature":"384","num_nodes":"9","size_leaf_vector":"1"}},{"base_weights":[-1.1774999E-2,5.601502E-1,-4.7714535E-2,8.0501276E-1,-4.007275E-2,-2.9466162E-2,9.1613203E-1,1.6189154E-2,4.7864303E-2],"categories":[],"categories_nodes":[],"categories_segments":[],"categories_sizes":[],"default_left":[0,0,0,0,0,0,0,0,0],"id":74,"left_children":[1,3,-1,5,-1,-1,7,-1,-1],"loss_changes":[2.443936E1,1.0053273E1,0E0,4.327058E0,0E0,0E0,2.38348E-1,0E0,0E0],"parents":[2147483647,0,0,1,1,3,3,6,6],"right_children":[2,4,-1,6,-1,-1,8,-1,-1],"split_conditions":[-5.5785205E-2,-7.641716E-3,-4.7714535E-2,-2.4164502E-2,-4.007275E-2,-2.9466162E-2,-2.8512115E-33,1.6189154E-2,4.7864303E-2],"split_indices":[202,154,0,221,0,0,127,0,0],"split_type":[0,0,0,0,0,0,0,0,0],"sum_hessian":[4.3339005E1,2.7218002E1,1.6121002E1,2.3422049E1,3.7959538E0,1.4045162E0,2.2017532E1,2.0221648E0,1.9995367E1],"tree_param":{"num_deleted":"0","num_feature":"384","num_nodes":"9","size_leaf_vector":"1"}},{"base_weights":[-2.6135366E-2,-8.2064027E-1,6.494671E-1,-4.792094E-2,2.9388402E-2,8.2150805E-1,-3.4847703E-2,8.9143014E-1,-1.3628266E-2,1.1929646E-2,4.7292918E-2],"categories":[],"categories_nodes":[],"categories_segments":[],"categories_sizes":[],"default_left":[0,0,0,0,0,0,0,0,0,0,0],"id":75,"left_children":[1,3,5,-1,-1,7,-1,9,-1,-1,-1],"loss_changes":[2.3449247E1,4.4610205E0,6.045743E0,0E0,0E0,1.8871641E0,0E0,4.8622513E-1,0E0,0E0,0E0],"parents":[2147483647,0,0,1,1,2,2,5,5,7,7],"right_children":[2,4,6,-1,-1,8,-1,10,-1,-1,-1],"split_conditions":[6.8408236E-2,1.0147147E-1,6.887794E-2,-4.792094E-2,2.9388402E-2,1.2346582E-2,-3.4847703E-2,-5.4671206E-2,-1.3628266E-2,1.1929646E-2,4.7292918E-2],"split_indices":[349,212,347,0,0,55,0,62,0,0,0],"split_type":[0,0,0,0,0,0,0,0,0,0,0],"sum_hessian":[4.1689754E1,1.9067085E1,2.262267E1,1.7665545E1,1.401541E0,2.0411806E1,2.210863E0,1.9368336E1,1.0434691E0,1.9189469E0,1.7449389E1],"tree_param":{"num_deleted":"0","num_feature":"384","num_nodes":"11","size_leaf_vector":"1"}},{"base_weights":[-1.7117264E-2,5.467131E-1,-4.737131E-2,7.8737175E-1,-3.918857E-2,-2.7900985E-2,8.936376E-1,1.3034957E-2,4.7762185E-2],"categories":[],"categories_nodes":[],"categories_segments":[],"categories_sizes":[],"default_left":[0,0,0,0,0,0,0,0,0],"id":76,"left_children":[1,3,-1,5,-1,-1,7,-1,-1],"loss_changes":[2.1717886E1,8.874124E0,0E0,3.6963463E0,0E0,0E0,5.6149864E-1,0E0,0E0],"parents":[2147483647,0,0,1,1,3,3,6,6],"right_children":[2,4,-1,6,-1,-1,8,-1,-1],"split_conditions":[-5.5785205E-2,-7.641716E-3,-4.737131E-2,-2.2438198E-2,-3.918857E-2,-2.7900985E-2,-3.9038083E-33,1.3034957E-2,4.7762185E-2],"split_indices":[202,154,0,206,0,0,127,0,0],"split_type":[0,0,0,0,0,0,0,0,0],"sum_hessian":[3.9408836E1,2.4787506E1,1.4621329E1,2.1342743E1,3.4447622E0,1.2442681E0,2.0098475E1,2.2611845E0,1.7837292E1],"tree_param":{"num_deleted":"0","num_feature":"384","num_nodes":"9","size_leaf_vector":"1"}},{"base_weights":[-2.1578353E-2,-8.1765723E-1,6.434017E-1,-4.760019E-2,2.7909476E-2,-3.38245E-2,8.122499E-1,4.5886535E-2,-2.6169939E-2],"categories":[],"categories_nodes":[],"categories_segments":[],"categories_sizes":[],"default_left":[0,0,0,0,0,0,0,0,0],"id":77,"left_children":[1,3,5,-1,-1,-1,7,-1,-1],"loss_changes":[2.1253082E1,3.9116125E0,5.4280252E0,0E0,0E0,0E0,3.2827482E0,0E0,0E0],"parents":[2147483647,0,0,1,1,2,2,6,6],"right_children":[2,4,6,-1,-1,-1,8,-1,-1],"split_conditions":[6.8408236E-2,1.0147147E-1,1.3052459E-2,-4.760019E-2,2.7909476E-2,-3.38245E-2,-5.5785205E-2,4.5886535E-2,-2.6169939E-2],"split_indices":[349,212,179,0,0,0,202,0,0],"split_type":[0,0,0,0,0,0,0,0,0],"sum_hessian":[3.815031E1,1.7265915E1,2.0884398E1,1.6017218E1,1.2486962E0,2.0209389E0,1.8863459E1,1.7779716E1,1.0837427E0],"tree_param":{"num_deleted":"0","num_feature":"384","num_nodes":"9","size_leaf_vector":"1"}},{"base_weights":[-2.5904968E-2,6.3845533E-1,-8.123529E-1,8.606144E-1,-3.595435E-2,-4.7456246E-2,2.7637487E-2,4.745416E-2,3.4776311E-3],"categories":[],"categories_nodes":[],"categories_segments":[],"categories_sizes":[],"default_left":[0,0,0,0,0,0,0,0,0],"id":78,"left_children":[1,3,5,7,-1,-1,-1,-1,-1],"loss_changes":[2.0021955E1,6.889078E0,3.8032284E0,1.2062063E0,0E0,0E0,0E0,0E0,0E0],"parents":[2147483647,0,0,1,1,2,2,3,3],"right_children":[2,4,6,8,-1,-1,-1,-1,-1],"split_conditions":[-4.6768222E-2,-3.0573096E-2,1.9609037E-1,9.466224E-3,-3.595435E-2,-4.7456246E-2,2.7637487E-2,4.745416E-2,3.4776311E-3],"split_indices":[326,76,153,66,0,0,0,0,0],"split_type":[0,0,0,0,0,0,0,0,0],"sum_hessian":[3.6324657E1,1.978583E1,1.6538828E1,1.7324179E1,2.4616518E0,1.5316309E1,1.2225189E0,1.5390569E1,1.9336101E0],"tree_param":{"num_deleted":"0","num_feature":"384","num_nodes":"9","size_leaf_vector":"1"}},{"base_weights":[-4.2235084E-2,-8.171044E-1,6.101175E-1,2.6490876E-2,-4.73466E-2,8.5865295E-1,-3.672519E-2,4.5793753E-2,1.028591E-2],"categories":[],"categories_nodes":[],"categories_segments":[],"categories_sizes":[],"default_left":[0,0,0,0,0,0,0,0,0],"id":79,"left_children":[1,3,5,-1,-1,7,-1,-1,-1],"loss_changes":[1.8750315E1,3.4675121E0,7.3713503E0,0E0,0E0,4.5376205E-1,0E0,0E0,0E0],"parents":[2147483647,0,0,1,1,2,2,5,5],"right_children":[2,4,6,-1,-1,8,-1,-1,-1],"split_conditions":[5.7443507E-2,-9.1030635E-2,-7.641716E-3,2.6490876E-2,-4.73466E-2,-1.4842585E-2,-3.672519E-2,4.5793753E-2,1.028591E-2],"split_indices":[88,188,154,0,0,193,0,0,0],"split_type":[0,0,0,0,0,0,0,0,0],"sum_hessian":[3.510316E1,1.5936476E1,1.9166687E1,1.1234158E0,1.481306E1,1.6487959E1,2.6787276E0,1.4775077E1,1.712882E0],"tree_param":{"num_deleted":"0","num_feature":"384","num_nodes":"9","size_leaf_vector":"1"}},{"base_weights":[-8.340361E-3,6.295038E-1,-7.996267E-1,8.9217305E-1,-3.6870245E-2,-4.7078524E-2,2.6799783E-2,6.172707E-3,4.6734475E-2],"categories":[],"categories_nodes":[],"categories_segments":[],"categories_sizes":[],"default_left":[0,0,0,0,0,0,0,0,0],"id":80,"left_children":[1,3,5,7,-1,-1,-1,-1,-1],"loss_changes":[1.7899193E1,7.708995E0,3.5096302E0,4.27289E-1,0E0,0E0,0E0,0E0,0E0],"parents":[2147483647,0,0,1,1,2,2,3,3],"right_children":[2,4,6,8,-1,-1,-1,-1,-1],"split_conditions":[-1.8088564E-2,2.5138995E-2,1.3971879E-1,2.2570698E-2,-3.6870245E-2,-4.7078524E-2,2.6799783E-2,6.172707E-3,4.6734475E-2],"split_indices":[35,100,12,373,0,0,0,0,0],"split_type":[0,0,0,0,0,0,0,0,0],"sum_hessian":[3.3463097E1,1.863418E1,1.48289175E1,1.5928024E1,2.7061558E0,1.3677822E1,1.151096E0,1.0516958E0,1.4876328E1],"tree_param":{"num_deleted":"0","num_feature":"384","num_nodes":"9","size_leaf_vector":"1"}},{"base_weights":[-2.0797549E-2,6.288575E-1,-7.9210013E-1,8.472403E-1,-3.454543E-2,2.7125785E-2,-4.6980172E-2,4.696589E-2,4.7654943E-3],"categories":[],"categories_nodes":[],"categories_segments":[],"categories_sizes":[],"default_left":[0,0,0,0,0,0,0,0,0],"id":81,"left_children":[1,3,5,7,-1,-1,-1,-1,-1],"loss_changes":[1.7083838E1,5.9233346E0,3.5810452E0,1.0316019E0,0E0,0E0,0E0,0E0,0E0],"parents":[2147483647,0,0,1,1,2,2,3,3],"right_children":[2,4,6,8,-1,-1,-1,-1,-1],"split_conditions":[-4.6768222E-2,-3.0573096E-2,-1.343165E-1,-2.9256558E-2,-3.454543E-2,2.7125785E-2,-4.6980172E-2,4.696589E-2,4.7654943E-3],"split_indices":[326,76,55,354,0,0,0,0,0],"split_type":[0,0,0,0,0,0,0,0,0],"sum_hessian":[3.209664E1,1.7515419E1,1.45812235E1,1.5342325E1,2.1730926E0,1.1778853E0,1.34033375E1,1.3434678E1,1.9076478E0],"tree_param":{"num_deleted":"0","num_feature":"384","num_nodes":"9","size_leaf_vector":"1"}},{"base_weights":[-2.8182441E-2,6.127649E-1,-8.115751E-1,8.719595E-1,-3.6065508E-2,2.279392E-2,-4.6845112E-2,2.8362346E-3,4.637118E-2],"categories":[],"categories_nodes":[],"categories_segments":[],"categories_sizes":[],"default_left":[0,0,0,0,0,0,0,0,0],"id":82,"left_children":[1,3,5,7,-1,-1,-1,-1,-1],"loss_changes":[1.6666193E1,6.9485183E0,2.8028755E0,6.5007687E-1,0E0,0E0,0E0,0E0,0E0],"parents":[2147483647,0,0,1,1,2,2,3,3],"right_children":[2,4,6,8,-1,-1,-1,-1,-1],"split_conditions":[-1.8088564E-2,2.5138995E-2,-1.3460131E-1,2.2570698E-2,-3.6065508E-2,2.279392E-2,-4.6845112E-2,2.8362346E-3,4.637118E-2],"split_indices":[35,100,242,373,0,0,0,0,0],"split_type":[0,0,0,0,0,0,0,0,0],"sum_hessian":[3.1197704E1,1.7271635E1,1.3926069E1,1.4758188E1,2.5134473E0,1.0086032E0,1.2917466E1,1.0804404E0,1.3677748E1],"tree_param":{"num_deleted":"0","num_feature":"384","num_nodes":"9","size_leaf_vector":"1"}},{"base_weights":[-9.374171E-3,-7.84129E-1,6.396315E-1,-4.6689764E-2,2.64618E-2,8.788747E-1,-3.4613352E-2,4.668626E-2,3.2071613E-3],"categories":[],"categories_nodes":[],"categories_segments":[],"categories_sizes":[],"default_left":[0,0,0,0,0,0,0,0,0],"id":83,"left_children":[1,3,5,-1,-1,7,-1,-1,-1],"loss_changes":[1.6055449E1,3.3593817E0,6.146739E0,0E0,0E0,6.0832405E-1,0E0,0E0,0E0],"parents":[2147483647,0,0,1,1,2,2,5,5],"right_children":[2,4,6,-1,-1,8,-1,-1,-1],"split_conditions":[-2.8512115E-33,1.6899718E-1,-7.641716E-3,-4.6689764E-2,2.64618E-2,2.8830172E-2,-3.4613352E-2,4.668626E-2,3.2071613E-3],"split_indices":[127,83,154,0,0,170,0,0,0],"split_type":[0,0,0,0,0,0,0,0,0],"sum_hessian":[2.9930431E1,1.3555578E1,1.6374855E1,1.2435136E1,1.1204425E0,1.4176104E1,2.1987507E0,1.3133581E1,1.0425227E0],"tree_param":{"num_deleted":"0","num_feature":"384","num_nodes":"9","size_leaf_vector":"1"}},{"base_weights":[-2.2863068E-2,-7.872987E-1,6.2457633E-1,-4.649373E-2,2.5247363E-2,8.862078E-1,-3.491026E-2,4.6504002E-2,1.0988395E-2],"categories":[],"categories_nodes":[],"categories_segments":[],"categories_sizes":[],"default_left":[0,0,0,0,0,0,0,0,0],"id":84,"left_children":[1,3,5,-1,-1,7,-1,-1,-1],"loss_changes":[1.4976178E1,3.0289316E0,6.2943897E0,0E0,0E0,1.9735622E-1,0E0,0E0,0E0],"parents":[2147483647,0,0,1,1,2,2,5,5],"right_children":[2,4,6,-1,-1,8,-1,-1,-1],"split_conditions":[-2.8512115E-33,1.6899718E-1,3.962397E-2,-4.649373E-2,2.5247363E-2,2.7492927E-2,-3.491026E-2,4.6504002E-2,1.0988395E-2],"split_indices":[127,83,327,0,0,371,0,0,0],"split_type":[0,0,0,0,0,0,0,0,0],"sum_hessian":[2.8262617E1,1.286833E1,1.5394287E1,1.1849149E1,1.0191805E0,1.31341095E1,2.2601786E0,1.1937646E1,1.1964631E0],"tree_param":{"num_deleted":"0","num_feature":"384","num_nodes":"9","size_leaf_vector":"1"}},{"base_weights":[-9.635124E-3,5.282317E-1,-4.5720074E-2,8.133328E-1,-3.72263E-2,4.583992E-2,-4.3868064E-3],"categories":[],"categories_nodes":[],"categories_segments":[],"categories_sizes":[],"default_left":[0,0,0,0,0,0,0],"id":85,"left_children":[1,3,-1,5,-1,-1,-1],"loss_changes":[1.4094757E1,7.1973424E0,0E0,1.5174007E0,0E0,0E0,0E0],"parents":[2147483647,0,0,1,1,3,3],"right_children":[2,4,-1,6,-1,-1,-1],"split_conditions":[-5.5785205E-2,-2.4398888E-2,-4.5720074E-2,3.9732503E-3,-3.72263E-2,4.583992E-2,-4.3868064E-3],"split_indices":[202,326,0,213,0,0,0],"split_type":[0,0,0,0,0,0,0],"sum_hessian":[2.6962713E1,1.7164093E1,9.79862E0,1.4324248E1,2.8398445E0,1.2843168E1,1.4810804E0],"tree_param":{"num_deleted":"0","num_feature":"384","num_nodes":"7","size_leaf_vector":"1"}},{"base_weights":[-2.3397196E-2,6.239269E-1,-7.792534E-1,8.525511E-1,-3.2751296E-2,2.3298593E-2,-4.6184026E-2,4.6213042E-2,3.607937E-3],"categories":[],"categories_nodes":[],"categories_segments":[],"categories_sizes":[],"default_left":[0,0,0,0,0,0,0,0,0],"id":86,"left_children":[1,3,5,7,-1,-1,-1,-1,-1],"loss_changes":[1.3825863E1,5.0144587E0,2.7779527E0,6.712055E-1,0E0,0E0,0E0,0E0,0E0],"parents":[2147483647,0,0,1,1,2,2,3,3],"right_children":[2,4,6,8,-1,-1,-1,-1,-1],"split_conditions":[-4.6768222E-2,-1.2405777E-2,-1.138108E-1,6.8288304E-2,-3.2751296E-2,2.3298593E-2,-4.6184026E-2,4.6213042E-2,3.607937E-3],"split_indices":[326,154,219,347,0,0,0,0,0],"split_type":[0,0,0,0,0,0,0,0,0],"sum_hessian":[2.6260475E1,1.4232721E1,1.2027755E1,1.23638E1,1.8689215E0,1.0114676E0,1.1016287E1,1.1142733E1,1.2210668E0],"tree_param":{"num_deleted":"0","num_feature":"384","num_nodes":"9","size_leaf_vector":"1"}},{"base_weights":[-1.9447247E-2,5.9530324E-1,-7.837706E-1,8.54112E-1,-3.3983395E-2,1.6481781E-2,-4.581149E-2,5.83205E-3,4.6042122E-2],"categories":[],"categories_nodes":[],"categories_segments":[],"categories_sizes":[],"default_left":[0,0,0,0,0,0,0,0,0],"id":87,"left_children":[1,3,5,7,-1,-1,-1,-1,-1],"loss_changes":[1.2721817E1,5.536624E0,2.0870748E0,5.185518E-1,0E0,0E0,0E0,0E0,0E0],"parents":[2147483647,0,0,1,1,2,2,3,3],"right_children":[2,4,6,8,-1,-1,-1,-1,-1],"split_conditions":[-1.8088564E-2,2.5138995E-2,-6.960837E-2,1.5212475E-2,-3.3983395E-2,1.6481781E-2,-4.581149E-2,5.83205E-3,4.6042122E-2],"split_indices":[35,100,147,304,0,0,0,0,0],"split_type":[0,0,0,0,0,0,0,0,0],"sum_hessian":[2.5078276E1,1.4014428E1,1.1063847E1,1.1930558E1,2.0838702E0,1.0100057E0,1.0053841E1,1.2304155E0,1.0700143E1],"tree_param":{"num_deleted":"0","num_feature":"384","num_nodes":"9","size_leaf_vector":"1"}},{"base_weights":[-2.5018677E-2,5.0773525E-1,-4.524339E-2,7.9559773E-1,-3.6305416E-2,-1.2565419E-2,4.5190316E-2],"categories":[],"categories_nodes":[],"categories_segments":[],"categories_sizes":[],"default_left":[0,0,0,0,0,0,0],"id":88,"left_children":[1,3,-1,5,-1,-1,-1],"loss_changes":[1.2290394E1,6.3851633E0,0E0,1.7901783E0,0E0,0E0,0E0],"parents":[2147483647,0,0,1,1,3,3],"right_children":[2,4,-1,6,-1,-1,-1],"split_conditions":[-7.641716E-3,-2.4398888E-2,-4.524339E-2,-3.6919035E-2,-3.6305416E-2,-1.2565419E-2,4.5190316E-2],"split_indices":[154,326,0,65,0,0,0],"split_type":[0,0,0,0,0,0,0],"sum_hessian":[2.4231283E1,1.534896E1,8.882324E0,1.2739951E1,2.6090083E0,1.0609094E0,1.1679042E1],"tree_param":{"num_deleted":"0","num_feature":"384","num_nodes":"7","size_leaf_vector":"1"}},{"base_weights":[-3.115977E-2,-7.837081E-1,5.984285E-1,1.3216289E-2,-4.5505863E-2,-2.8796757E-2,7.7343965E-1,4.372364E-2,-1.8352683E-3],"categories":[],"categories_nodes":[],"categories_segments":[],"categories_sizes":[],"default_left":[0,0,0,0,0,0,0,0,0],"id":89,"left_children":[1,3,5,-1,-1,-1,7,-1,-1],"loss_changes":[1.1941913E1,1.7664185E0,3.2718244E0,0E0,0E0,0E0,1.0549531E0,0E0,0E0],"parents":[2147483647,0,0,1,1,2,2,6,6],"right_children":[2,4,6,-1,-1,-1,8,-1,-1],"split_conditions":[6.8408236E-2,-9.455677E-2,1.3052459E-2,1.3216289E-2,-4.5505863E-2,-2.8796757E-2,-5.7962913E-2,4.372364E-2,-1.8352683E-3],"split_indices":[349,364,179,0,0,0,202,0,0],"split_type":[0,0,0,0,0,0,0,0,0],"sum_hessian":[2.3211002E1,1.046876E1,1.2742244E1,1.0008402E0,9.467919E0,1.3481138E0,1.139413E1,1.0071104E1,1.3230256E0],"tree_param":{"num_deleted":"0","num_feature":"384","num_nodes":"9","size_leaf_vector":"1"}},{"base_weights":[-1.7303564E-2,6.048506E-1,-7.774275E-1,8.465992E-1,-3.1884763E-2,1.2006722E-2,-4.5254577E-2,4.5520764E-2,6.012829E-3],"categories":[],"categories_nodes":[],"categories_segments":[],"categories_sizes":[],"default_left":[0,0,0,0,0,0,0,0,0],"id":90,"left_children":[1,3,5,7,-1,-1,-1,-1,-1],"loss_changes":[1.150636E1,4.562911E0,1.6460419E0,4.198532E-1,0E0,0E0,0E0,0E0,0E0],"parents":[2147483647,0,0,1,1,2,2,3,3],"right_children":[2,4,6,8,-1,-1,-1,-1,-1],"split_conditions":[-1.8088564E-2,2.5138995E-2,-9.40264E-2,-5.167944E-3,-3.1884763E-2,1.2006722E-2,-4.5254577E-2,4.5520764E-2,6.012829E-3],"split_indices":[35,100,289,193,0,0,0,0,0],"split_type":[0,0,0,0,0,0,0,0,0],"sum_hessian":[2.2332787E1,1.2386045E1,9.946741E0,1.0642212E1,1.7438338E0,1.0018727E0,8.944868E0,9.537097E0,1.1051149E0],"tree_param":{"num_deleted":"0","num_feature":"384","num_nodes":"9","size_leaf_vector":"1"}},{"base_weights":[-2.210664E-2,6.060451E-1,-7.5804037E-1,8.4061027E-1,-3.0956695E-2,-4.5182507E-2,1.6473597E-2,4.5298364E-2,4.4326135E-3],"categories":[],"categories_nodes":[],"categories_segments":[],"categories_sizes":[],"default_left":[0,0,0,0,0,0,0,0,0],"id":91,"left_children":[1,3,5,7,-1,-1,-1,-1,-1],"loss_changes":[1.0896711E1,4.180373E0,2.0211334E0,4.559126E-1,0E0,0E0,0E0,0E0,0E0],"parents":[2147483647,0,0,1,1,2,2,3,3],"right_children":[2,4,6,8,-1,-1,-1,-1,-1],"split_conditions":[-4.6768222E-2,-1.2405777E-2,1.02368385E-1,6.8288304E-2,-3.0956695E-2,-4.5182507E-2,1.6473597E-2,4.5298364E-2,4.4326135E-3],"split_indices":[326,154,265,347,0,0,0,0,0],"split_type":[0,0,0,0,0,0,0,0,0],"sum_hessian":[2.157469E1,1.1727586E1,9.847103E0,1.0113389E1,1.6141965E0,8.841549E0,1.0055544E0,9.103999E0,1.00939E0],"tree_param":{"num_deleted":"0","num_feature":"384","num_nodes":"9","size_leaf_vector":"1"}},{"base_weights":[-1.8184945E-2,-7.799822E-1,5.848812E-1,-4.461911E-2,5.188758E-3,8.26218E-1,-3.1139195E-2,6.612945E-3,4.4675566E-2],"categories":[],"categories_nodes":[],"categories_segments":[],"categories_sizes":[],"default_left":[0,0,0,0,0,0,0,0,0],"id":92,"left_children":[1,3,5,-1,-1,7,-1,-1,-1],"loss_changes":[1.0275068E1,1.0816655E0,4.157106E0,0E0,0E0,3.7811565E-1,0E0,0E0,0E0],"parents":[2147483647,0,0,1,1,2,2,5,5],"right_children":[2,4,6,-1,-1,8,-1,-1,-1],"split_conditions":[5.7443507E-2,1.0589665E-1,-7.641716E-3,-4.461911E-2,5.188758E-3,-3.485172E-33,-3.1139195E-2,6.612945E-3,4.4675566E-2],"split_indices":[88,83,154,0,0,127,0,0,0],"split_type":[0,0,0,0,0,0,0,0,0],"sum_hessian":[2.036835E1,8.877478E0,1.149087E1,7.877181E0,1.0002966E0,9.847171E0,1.6436993E0,1.145744E0,8.701427E0],"tree_param":{"num_deleted":"0","num_feature":"384","num_nodes":"9","size_leaf_vector":"1"}},{"base_weights":[-3.261907E-2,4.998078E-1,-4.4185158E-2,7.883615E-1,-3.415294E-2,4.4782873E-2,1.2513576E-3],"categories":[],"categories_nodes":[],"categories_segments":[],"categories_sizes":[],"default_left":[0,0,0,0,0,0,0],"id":93,"left_children":[1,3,-1,5,-1,-1,-1],"loss_changes":[9.763236E0,5.072567E0,0E0,8.813796E-1,0E0,0E0,0E0],"parents":[2147483647,0,0,1,1,3,3],"right_children":[2,4,-1,6,-1,-1,-1],"split_conditions":[-5.5785205E-2,-2.4398888E-2,-4.4185158E-2,-1.8088564E-2,-3.415294E-2,4.4782873E-2,1.2513576E-3],"split_indices":[202,326,0,35,0,0,0],"split_type":[0,0,0,0,0,0,0],"sum_hessian":[1.9562553E1,1.2280824E1,7.28173E0,1.0147394E1,2.1334298E0,8.733364E0,1.41403E0],"tree_param":{"num_deleted":"0","num_feature":"384","num_nodes":"7","size_leaf_vector":"1"}},{"base_weights":[-2.3889527E-2,5.836169E-1,-7.5439745E-1,8.135463E-1,-2.968815E-2,9.356319E-3,-4.4379365E-2,4.459979E-2,5.0935703E-3],"categories":[],"categories_nodes":[],"categories_segments":[],"categories_sizes":[],"default_left":[0,0,0,0,0,0,0,0,0],"id":94,"left_children":[1,3,5,7,-1,-1,-1,-1,-1],"loss_changes":[9.356954E0,3.6049244E0,1.3724947E0,4.6140957E-1,0E0,0E0,0E0,0E0,0E0],"parents":[2147483647,0,0,1,1,2,2,3,3],"right_children":[2,4,6,8,-1,-1,-1,-1,-1],"split_conditions":[-4.6768222E-2,6.887794E-2,-6.4753175E-2,-1.5949212E-2,-2.968815E-2,9.356319E-3,-4.4379365E-2,4.459979E-2,5.0935703E-3],"split_indices":[326,347,201,154,0,0,0,0,0],"split_type":[0,0,0,0,0,0,0,0,0],"sum_hessian":[1.9088335E1,1.0523857E1,8.564479E0,9.070082E0,1.4537746E0,1.0019085E0,7.56257E0,7.9286623E0,1.1414199E0],"tree_param":{"num_deleted":"0","num_feature":"384","num_nodes":"9","size_leaf_vector":"1"}},{"base_weights":[-3.406819E-2,-7.7411777E-1,5.6639135E-1,-4.398498E-2,1.6011319E-3,8.0937356E-1,-2.9977003E-2,4.433328E-2,5.980103E-3],"categories":[],"categories_nodes":[],"categories_segments":[],"categories_sizes":[],"default_left":[0,0,0,0,0,0,0,0,0],"id":95,"left_children":[1,3,5,-1,-1,7,-1,-1,-1],"loss_changes":[8.98127E0,8.060093E-1,3.6548402E0,0E0,0E0,4.0023947E-1,0E0,0E0,0E0],"parents":[2147483647,0,0,1,1,2,2,5,5],"right_children":[2,4,6,-1,-1,8,-1,-1,-1],"split_conditions":[5.7443507E-2,6.767668E-2,-7.641716E-3,-4.398498E-2,1.6011319E-3,-4.6768222E-2,-2.9977003E-2,4.433328E-2,5.980103E-3],"split_indices":[88,179,154,0,0,326,0,0,0],"split_type":[0,0,0,0,0,0,0,0,0],"sum_hessian":[1.821989E1,8.039221E0,1.0180669E1,7.0385265E0,1.0006939E0,8.685075E0,1.4955949E0,7.5402136E0,1.1448607E0],"tree_param":{"num_deleted":"0","num_feature":"384","num_nodes":"9","size_leaf_vector":"1"}},{"base_weights":[-1.878518E-2,4.9974963E-1,-4.3496873E-2,-3.8013113E-1,8.209219E-1,-3.3169903E-2,1.1213613E-2,7.81336E-3,4.4151112E-2],"categories":[],"categories_nodes":[],"categories_segments":[],"categories_sizes":[],"default_left":[0,0,0,0,0,0,0,0,0],"id":96,"left_children":[1,3,-1,5,7,-1,-1,-1,-1],"loss_changes":[8.71937E0,3.7887788E0,0E0,8.313109E-1,2.365694E-1,0E0,0E0,0E0,0E0],"parents":[2147483647,0,0,1,1,3,3,4,4],"right_children":[2,4,-1,6,8,-1,-1,-1,-1],"split_conditions":[-7.641716E-3,-2.8512115E-33,-4.3496873E-2,1.6112406E-2,1.3672423E-2,-3.3169903E-2,1.1213613E-2,7.81336E-3,4.4151112E-2],"split_indices":[154,127,0,206,179,0,0,0,0],"split_type":[0,0,0,0,0,0,0,0,0],"sum_hessian":[1.7762611E1,1.1287315E1,6.475296E0,2.9609132E0,8.326402E0,1.9608533E0,1.0000598E0,1.0257102E0,7.3006916E0],"tree_param":{"num_deleted":"0","num_feature":"384","num_nodes":"9","size_leaf_vector":"1"}},{"base_weights":[-1.4868552E-2,4.9154782E-1,-4.3166317E-2,7.6487094E-1,-3.2490637E-2,4.3473076E-2,-4.3748734E-3],"categories":[],"categories_nodes":[],"categories_segments":[],"categories_sizes":[],"default_left":[0,0,0,0,0,0,0],"id":97,"left_children":[1,3,-1,5,-1,-1,-1],"loss_changes":[8.21399E0,4.234639E0,0E0,9.869547E-1,0E0,0E0,0E0],"parents":[2147483647,0,0,1,1,3,3],"right_children":[2,4,-1,6,-1,-1,-1],"split_conditions":[-5.5785205E-2,-2.4398888E-2,-4.3166317E-2,3.9732503E-3,-3.2490637E-2,4.3473076E-2,-4.3748734E-3],"split_indices":[202,326,0,213,0,0,0],"split_type":[0,0,0,0,0,0,0],"sum_hessian":[1.7120543E1,1.0977379E1,6.143163E0,9.1297E0,1.8476794E0,8.124459E0,1.0052407E0],"tree_param":{"num_deleted":"0","num_feature":"384","num_nodes":"7","size_leaf_vector":"1"}},{"base_weights":[-2.9759433E-2,5.796661E-1,-7.431369E-1,4.0764898E-2,-2.794463E-2,-4.3372985E-2,3.9741322E-3],"categories":[],"categories_nodes":[],"categories_segments":[],"categories_sizes":[],"default_left":[0,0,0,0,0,0,0],"id":98,"left_children":[1,3,5,-1,-1,-1,-1],"loss_changes":[7.897676E0,3.0913038E0,9.3147707E-1,0E0,0E0,0E0,0E0],"parents":[2147483647,0,0,1,1,2,2],"right_children":[2,4,6,-1,-1,-1,-1],"split_conditions":[-1.8088564E-2,2.5138995E-2,5.6403164E-2,4.0764898E-2,-2.794463E-2,-4.3372985E-2,3.9741322E-3],"split_indices":[35,100,251,0,0,0,0],"split_type":[0,0,0,0,0,0,0],"sum_hessian":[1.6171392E1,8.81463E0,7.356763E0,7.5457025E0,1.2689266E0,6.354111E0,1.0026517E0],"tree_param":{"num_deleted":"0","num_feature":"384","num_nodes":"7","size_leaf_vector":"1"}},{"base_weights":[-3.27632E-2,-7.396107E-1,5.79021E-1,-4.3160234E-2,3.2952812E-3,4.120957E-2,-2.7904242E-2],"categories":[],"categories_nodes":[],"categories_segments":[],"categories_sizes":[],"default_left":[0,0,0,0,0,0,0],"id":99,"left_children":[1,3,5,-1,-1,-1,-1],"loss_changes":[7.6092486E0,8.76184E-1,3.0979304E0,0E0,0E0,0E0,0E0],"parents":[2147483647,0,0,1,1,2,2],"right_children":[2,4,6,-1,-1,-1,-1],"split_conditions":[-2.8512115E-33,5.3593356E-2,3.962397E-2,-4.3160234E-2,3.2952812E-3,4.120957E-2,-2.7904242E-2],"split_indices":[127,74,327,0,0,0,0],"split_type":[0,0,0,0,0,0,0],"sum_hessian":[1.5602129E1,7.149312E0,8.452817E0,6.146955E0,1.0023569E0,7.1871753E0,1.2656418E0],"tree_param":{"num_deleted":"0","num_feature":"384","num_nodes":"7","size_leaf_vector":"1"}},{"base_weights":[-3.3203267E-2,4.7348496E-1,-4.251673E-2,7.459276E-1,-3.1160671E-2,4.3364216E-2,-1.3660219E-3],"categories":[],"categories_nodes":[],"categories_segments":[],"categories_sizes":[],"default_left":[0,0,0,0,0,0,0],"id":100,"left_children":[1,3,-1,5,-1,-1,-1],"loss_changes":[7.112039E0,3.6427517E0,0E0,8.746457E-1,0E0,0E0,0E0],"parents":[2147483647,0,0,1,1,3,3],"right_children":[2,4,-1,6,-1,-1,-1],"split_conditions":[-5.5785205E-2,-2.4398888E-2,-4.251673E-2,-1.8088564E-2,-3.1160671E-2,4.3364216E-2,-1.3660219E-3],"split_indices":[202,326,0,35,0,0,0],"split_type":[0,0,0,0,0,0,0],"sum_hessian":[1.5196017E1,9.631817E0,5.5642E0,7.9787025E0,1.6531143E0,6.802423E0,1.1762799E0],"tree_param":{"num_deleted":"0","num_feature":"384","num_nodes":"7","size_leaf_vector":"1"}},{"base_weights":[-3.5796214E-2,5.5539453E-1,-7.29683E-1,7.812941E-1,-2.6560992E-2,-4.2605642E-2,1.8276097E-3,9.156092E-3,4.2690918E-2],"categories":[],"categories_nodes":[],"categories_segments":[],"categories_sizes":[],"default_left":[0,0,0,0,0,0,0,0,0],"id":101,"left_children":[1,3,5,7,-1,-1,-1,-1,-1],"loss_changes":[6.827919E0,2.629591E0,7.560806E-1,1.7482328E-1,0E0,0E0,0E0,0E0,0E0],"parents":[2147483647,0,0,1,1,2,2,3,3],"right_children":[2,4,6,8,-1,-1,-1,-1,-1],"split_conditions":[-4.6768222E-2,-1.2405777E-2,7.9661645E-2,-6.285473E-2,-2.6560992E-2,-4.2605642E-2,1.8276097E-3,9.156092E-3,4.2690918E-2],"split_indices":[326,154,307,168,0,0,0,0,0],"split_type":[0,0,0,0,0,0,0,0,0],"sum_hessian":[1.4652389E1,8.011649E0,6.640739E0,6.8729887E0,1.1386608E0,5.640472E0,1.0002671E0,1.13927E0,5.733719E0],"tree_param":{"num_deleted":"0","num_feature":"384","num_nodes":"9","size_leaf_vector":"1"}},{"base_weights":[-3.8312588E-2,-7.232986E-1,5.5212027E-1,-4.233417E-2,1.4706942E-3,-1.1068791E-2,3.8545705E-2],"categories":[],"categories_nodes":[],"categories_segments":[],"categories_sizes":[],"default_left":[0,0,0,0,0,0,0],"id":102,"left_children":[1,3,5,-1,-1,-1,-1],"loss_changes":[6.502283E0,7.2260356E-1,1.6419601E0,0E0,0E0,0E0,0E0],"parents":[2147483647,0,0,1,1,2,2],"right_children":[2,4,6,-1,-1,-1,-1],"split_conditions":[6.8408236E-2,3.1651337E-2,-3.0237684E-33,-4.233417E-2,1.4706942E-3,-1.1068791E-2,3.8545705E-2],"split_indices":[349,124,127,0,0,0,0],"split_type":[0,0,0,0,0,0,0],"sum_hessian":[1.4085672E1,6.424382E0,7.6612906E0,5.4237604E0,1.0006216E0,1.6765875E0,5.984703E0],"tree_param":{"num_deleted":"0","num_feature":"384","num_nodes":"7","size_leaf_vector":"1"}},{"base_weights":[-3.4547668E-2,-7.418012E-1,5.273822E-1,-4.1667927E-2,-4.7469805E-3,7.614208E-1,-2.6767416E-2,4.2118426E-2,1.0594021E-2],"categories":[],"categories_nodes":[],"categories_segments":[],"categories_sizes":[],"default_left":[0,0,0,0,0,0,0,0,0],"id":103,"left_children":[1,3,5,-1,-1,7,-1,-1,-1],"loss_changes":[6.2256947E0,3.2148576E-1,2.5872767E0,0E0,0E0,1.4883041E-1,0E0,0E0,0E0],"parents":[2147483647,0,0,1,1,2,2,5,5],"right_children":[2,4,6,-1,-1,8,-1,-1,-1],"split_conditions":[5.7443507E-2,3.474939E-2,-7.641716E-3,-4.1667927E-2,-4.7469805E-3,-4.6994023E-2,-2.6767416E-2,4.2118426E-2,1.0594021E-2],"split_indices":[88,277,154,0,0,326,0,0,0],"split_type":[0,0,0,0,0,0,0,0,0],"sum_hessian":[1.3675248E1,5.9208612E0,7.7543864E0,4.920623E0,1.0002385E0,6.594954E0,1.1594323E0,5.267927E0,1.327027E0],"tree_param":{"num_deleted":"0","num_feature":"384","num_nodes":"9","size_leaf_vector":"1"}},{"base_weights":[-4.6006396E-2,5.384688E-1,-7.1827817E-1,3.875704E-2,-2.6008008E-2,-0E0,-4.1891184E-2],"categories":[],"categories_nodes":[],"categories_segments":[],"categories_sizes":[],"default_left":[0,0,0,0,0,0,0],"id":104,"left_children":[1,3,5,-1,-1,-1,-1],"loss_changes":[6.0060353E0,2.463047E0,6.150477E-1,0E0,0E0,0E0,0E0],"parents":[2147483647,0,0,1,1,2,2],"right_children":[2,4,6,-1,-1,-1,-1],"split_conditions":[-4.6768222E-2,-1.2405777E-2,-6.4993545E-2,3.875704E-2,-2.6008008E-2,-0E0,-4.1891184E-2],"split_indices":[326,154,143,0,0,0,0],"split_type":[0,0,0,0,0,0,0],"sum_hessian":[1.3296495E1,7.2112064E0,6.085289E0,6.1201835E0,1.0910228E0,1.0014877E0,5.0838013E0],"tree_param":{"num_deleted":"0","num_feature":"384","num_nodes":"7","size_leaf_vector":"1"}},{"base_weights":[-3.3698577E-2,4.5783526E-1,-4.1280076E-2,-2.7937656E-2,6.927235E-1,-3.655348E-3,4.2394333E-2],"categories":[],"categories_nodes":[],"categories_segments":[],"categories_sizes":[],"default_left":[0,0,0,0,0,0,0],"id":105,"left_children":[1,3,-1,-1,5,-1,-1],"loss_changes":[5.7819247E0,2.5842023E0,0E0,0E0,1.011364E0,0E0,0E0],"parents":[2147483647,0,0,1,1,4,4],"right_children":[2,4,-1,-1,6,-1,-1],"split_conditions":[-5.5785205E-2,3.08917E-2,-4.1280076E-2,-2.7937656E-2,-2.8512115E-33,-3.655348E-3,4.2394333E-2],"split_indices":[202,156,0,0,127,0,0],"split_type":[0,0,0,0,0,0,0],"sum_hessian":[1.2873597E1,8.195735E0,4.6778626E0,1.2714717E0,6.924263E0,1.2447929E0,5.67947E0],"tree_param":{"num_deleted":"0","num_feature":"384","num_nodes":"7","size_leaf_vector":"1"}},{"base_weights":[-5.1186778E-2,-5.8957374E-1,6.649044E-1,-4.2862874E-2,2.511763E-2,3.9462667E-2,3.9865607E-3],"categories":[],"categories_nodes":[],"categories_segments":[],"categories_sizes":[],"default_left":[0,0,0,0,0,0,0],"id":106,"left_children":[1,3,5,-1,-1,-1,-1],"loss_changes":[5.5097003E0,2.8065574E0,3.7660336E-1,0E0,0E0,0E0,0E0],"parents":[2147483647,0,0,1,1,2,2],"right_children":[2,4,6,-1,-1,-1,-1],