{"learner":{"attributes":{"scikit_learn":"{\"_estimator_type\": \"classifier\"}"},"feature_names":[],"feature_types":[],"gradient_booster":{"model":{"cats":{"enc":[],"feature_segments":[],"sorted_idx":[]},"gbtree_model_param":{"num_parallel_tree":"1","num_trees":"300"},"iteration_indptr":[0,1,2,3,4,5,6,7,8,9,10,11,12,13,14,15,16,17,18,19,20,21,22,23,24,25,26,27,28,29,30,31,32,33,34,35,36,37,38,39,40,41,42,43,44,45,46,47,48,49,50,51,52,53,54,55,56,57,58,59,60,61,62,63,64,65,66,67,68,69,70,71,72,73,74,75,76,77,78,79,80,81,82,83,84,85,86,87,88,89,90,91,92,93,94,95,96,97,98,99,100,101,102,103,104,105,106,107,108,109,110,111,112,113,114,115,116,117,118,119,120,121,122,123,124,125,126,127,128,129,130,131,132,133,134,135,136,137,138,139,140,141,142,143,144,145,146,147,148,149,150,151,152,153,154,155,156,157,158,159,160,161,162,163,164,165,166,167,168,169,170,171,172,173,174,175,176,177,178,179,180,181,182,183,184,185,186,187,188,189,190,191,192,193,194,195,196,197,198,199,200,201,202,203,204,205,206,207,208,209,210,211,212,213,214,215,216,217,218,219,220,221,222,223,224,225,226,227,228,229,230,231,232,233,234,235,236,237,238,239,240,241,242,243,244,245,246,247,248,249,250,251,252,253,254,255,256,257,258,259,260,261,262,263,264,265,266,267,268,269,270,271,272,273,274,275,276,277,278,279,280,281,282,283,284,285,286,287,288,289,290,291,292,293,294,295,296,297,298,299,300],"tree_info":[0,0,0,0,0,0,0,0,0,0,0,0,0,0,0,0,0,0,0,0,0,0,0,0,0,0,0,0,0,0,0,0,0,0,0,0,0,0,0,0,0,0,0,0,0,0,0,0,0,0,0,0,0,0,0,0,0,0,0,0,0,0,0,0,0,0,0,0,0,0,0,0,0,0,0,0,0,0,0,0,0,0,0,0,0,0,0,0,0,0,0,0,0,0,0,0,0,0,0,0,0,0,0,0,0,0,0,0,0,0,0,0,0,0,0,0,0,0,0,0,0,0,0,0,0,0,0,0,0,0,0,0,0,0,0,0,0,0,0,0,0,0,0,0,0,0,0,0,0,0,0,0,0,0,0,0,0,0,0,0,0,0,0,0,0,0,0,0,0,0,0,0,0,0,0,0,0,0,0,0,0,0,0,0,0,0,0,0,0,0,0,0,0,0,0,0,0,0,0,0,0,0,0,0,0,0,0,0,0,0,0,0,0,0,0,0,0,0,0,0,0,0,0,0,0,0,0,0,0,0,0,0,0,0,0,0,0,0,0,0,0,0,0,0,0,0,0,0,0,0,0,0,0,0,0,0,0,0,0,0,0,0,0,0,0,0,0,0,0,0,0,0,0,0,0,0,0,0,0,0,0,0,0,0,0,0,0,0,0,0,0,0,0,0,0,0,0,0,0,0],"trees":[{"base_weights":[1.6431725E0,4.528579E0,-8.782563E-1,-1.9895101E-2,4.5353093E0,4.111974E0,-9.918135E-1,1.6324025E0,4.5463448E0,4.272774E0,-2.1687342E-2,4.313093E0,-1.0846598E0,-1.23001054E-1,1.6204834E-1,2.322141E0,4.553563E0,4.3852086E0,5.1281042E-3,5.1281042E-3,2.2296564E-1,3.9086287E0,-1.1291887E0,7.883973E-2,-4.8779882E-2,-4.394585E-2,1.7794484E-1,2.434314E0,4.558399E0,4.1483246E-2,2.2214165E-1,4.1325455E0,-7.4230405E-3,-1.1696595E0,3.8882422E0,-3.2123186E-2,1.5462196E-1,5.606061E-2,2.2799301E-1,4.1483246E-2,2.1359856E-1,1.5002184E-1,-5.980103E-2,4.772619E-4,2.1218984E-1],"categories":[],"categories_nodes":[],"categories_segments":[],"categories_sizes":[],"default_left":[0,0,0,0,0,0,0,0,0,0,0,0,0,0,0,0,0,0,0,0,0,0,0,0,0,0,0,0,0,0,0,0,0,0,0,0,0,0,0,0,0,0,0,0,0],"id":0,"left_children":[1,3,5,-1,7,9,11,13,15,17,-1,19,21,23,-1,25,27,29,-1,-1,-1,31,33,-1,-1,-1,-1,35,37,-1,-1,39,-1,41,43,-1,-1,-1,-1,-1,-1,-1,-1,-1,-1],"loss_changes":[3.218153E4,7.023828E1,1.3420328E3,0E0,5.851172E1,4.043213E1,1.1421123E3,2.6873442E1,2.2296875E1,2.342688E1,0E0,2.4075928E1,5.092129E2,9.414061E0,0E0,3.752656E1,9.78125E0,6.434387E0,0E0,0E0,0E0,1.9086334E1,4.6164282E2,0E0,0E0,0E0,0E0,1.5789242E1,5.0664062E0,0E0,0E0,5.2769775E0,0E0,2.4914307E2,2.5074371E1,0E0,0E0,0E0,0E0,0E0,0E0,0E0,0E0,0E0,0E0],"parents":[2147483647,0,0,1,1,2,2,4,4,5,5,6,6,7,7,8,8,9,9,11,11,12,12,13,13,15,15,16,16,17,17,21,21,22,22,27,27,28,28,31,31,33,33,34,34],"right_children":[2,4,6,-1,8,10,12,14,16,18,-1,20,22,24,-1,26,28,30,-1,-1,-1,32,34,-1,-1,-1,-1,36,38,-1,-1,40,-1,42,44,-1,-1,-1,-1,-1,-1,-1,-1,-1,-1],"split_conditions":[-2.1609E-8,-9.903236E-2,-4.5604985E-2,-1.9895101E-2,-9.226094E-2,3.6693238E-2,-6.577956E-2,-3.7003703E-2,-9.014374E-2,3.4018684E-2,-2.1687342E-2,-1.9684043E-2,-4.807344E-2,6.076365E-3,1.6204834E-1,-4.3862477E-2,-1.16535485E-1,-4.8485007E-2,5.1281042E-3,5.1281042E-3,2.2296564E-1,-3.1094307E-3,5.0114397E-2,7.883973E-2,-4.8779882E-2,-4.394585E-2,1.7794484E-1,-4.0531922E-2,-1.1089601E-1,4.1483246E-2,2.2214165E-1,-5.857328E-2,-7.4230405E-3,-7.040384E-2,5.555069E-3,-3.2123186E-2,1.5462196E-1,5.606061E-2,2.2799301E-1,4.1483246E-2,2.1359856E-1,1.5002184E-1,-5.980103E-2,4.772619E-4,2.1218984E-1],"split_indices":[319,345,326,0,273,52,8,71,92,125,0,260,88,103,0,71,208,241,0,0,0,18,359,0,0,0,0,27,15,0,0,20,0,302,83,0,0,0,0,0,0,0,0,0,0],"split_type":[0,0,0,0,0,0,0,0,0,0,0,0,0,0,0,0,0,0,0,0,0,0,0,0,0,0,0,0,0,0,0,0,0,0,0,0,0,0,0,0,0,0,0,0,0],"sum_hessian":[4.4218154E3,2.0617043E3,2.360111E3,2.7314124E0,2.058973E3,5.1726124E1,2.308385E3,8.36495E0,2.050608E3,5.001899E1,1.7071328E0,3.8922626E1,2.2694624E3,4.438545E0,3.9264054E0,7.6820974E0,2.0429258E3,4.8653282E1,1.3657062E0,1.3657062E0,3.755692E1,1.92906E1,2.2501716E3,1.1949929E0,3.2435522E0,2.2192726E0,5.462825E0,5.804251E0,2.0371215E3,1.0242796E0,4.7629005E1,1.8266321E1,1.0242796E0,2.2329297E3,1.724204E1,1.0242796E0,4.7799716E0,1.1949929E0,2.0359265E3,1.0242796E0,1.724204E1,1.3315636E1,2.219614E3,1.5364195E0,1.5705622E1],"tree_param":{"num_deleted":"0","num_feature":"384","num_nodes":"45","size_leaf_vector":"1"}},{"base_weights":[1.4784E0,3.8089583E0,-8.588244E-1,3.817979E0,-1.3472798E-1,2.9240172E0,-9.9462587E-1,1.1608895E0,3.8271925E0,1.035133E-1,-5.1668663E-2,-5.9254766E-2,3.883472E0,-1.0587487E0,1.8964037E-1,-7.045547E-1,2.146132E0,2.3592885E0,3.8314714E0,2.4824625E-2,3.9787626E0,3.224794E0,-1.1094327E0,-7.1513774E-3,-4.217788E-2,-3.2298263E-2,2.7974517E0,3.043096E0,-2.1770088E-2,1.6129909E0,3.833498E0,5.9837233E-2,2.0043288E-1,-3.783464E-2,3.4831197E0,-1.1380577E0,3.516333E0,1.5695064E-1,3.7297487E-2,1.6945539E-2,1.7038575E-1,1.2178748E-1,-1.0816281E-2,6.5695204E-2,1.9172324E-1,1.219863E-2,1.8123361E-1,-5.797095E-2,1.7569374E-1,3.807434E-2,1.8450081E-1],"categories":[],"categories_nodes":[],"categories_segments":[],"categories_sizes":[],"default_left":[0,0,0,0,0,0,0,0,0,0,0,0,0,0,0,0,0,0,0,0,0,0,0,0,0,0,0,0,0,0,0,0,0,0,0,0,0,0,0,0,0,0,0,0,0,0,0,0,0,0,0],"id":1,"left_children":[1,3,5,7,9,11,13,15,17,-1,-1,-1,19,21,-1,23,25,27,29,-1,31,33,35,-1,-1,-1,37,39,-1,41,43,-1,-1,-1,45,47,49,-1,-1,-1,-1,-1,-1,-1,-1,-1,-1,-1,-1,-1,-1],"loss_changes":[2.5326957E4,8.337109E1,1.1957517E3,5.2375E1,1.45657015E1,3.2287524E2,6.9233984E2,1.892326E1,5.4296875E0,0E0,0E0,0E0,1.9177124E1,4.8411353E2,0E0,1.8331826E-1,1.3548624E1,1.9192032E1,4.1328125E0,0E0,4.512329E-1,2.954596E1,2.9373926E2,0E0,0E0,0E0,1.4148216E0,6.329399E0,0E0,6.3216124E0,5.234375E-1,0E0,0E0,0E0,1.04140625E1,2.2024292E2,3.7009735E0,0E0,0E0,0E0,0E0,0E0,0E0,0E0,0E0,0E0,0E0,0E0,0E0,0E0,0E0],"parents":[2147483647,0,0,1,1,2,2,3,3,4,4,5,5,6,6,7,7,8,8,12,12,13,13,15,15,16,16,17,17,18,18,20,20,21,21,22,22,26,26,27,27,29,29,30,30,34,34,35,35,36,36],"right_children":[2,4,6,8,10,12,14,16,18,-1,-1,-1,20,22,-1,24,26,28,30,-1,32,34,36,-1,-1,-1,38,40,-1,42,44,-1,-1,-1,46,48,50,-1,-1,-1,-1,-1,-1,-1,-1,-1,-1,-1,-1,-1,-1],"split_conditions":[-2.1609E-8,1.2768099E-1,-7.2776854E-2,-9.226094E-2,-4.5365808E-3,-8.1778556E-2,1.587037E-1,-4.5660198E-2,-9.106764E-2,1.035133E-1,-5.1668663E-2,-5.9254766E-2,-6.2140383E-2,-4.8328977E-2,1.8964037E-1,-2.7550269E-2,-2.7517453E-2,4.30102E-2,-9.162522E-2,2.4824625E-2,-8.4678836E-2,-4.9898934E-2,9.758718E-2,-7.1513774E-3,-4.217788E-2,-3.2298263E-2,3.407786E-2,-8.727465E-3,-2.1770088E-2,-2.7516676E-2,-1.1089601E-1,5.9837233E-2,2.0043288E-1,-3.783464E-2,-3.6855496E-2,7.947604E-2,-6.665038E-2,1.5695064E-1,3.7297487E-2,1.6945539E-2,1.7038575E-1,1.2178748E-1,-1.0816281E-2,6.5695204E-2,1.9172324E-1,1.219863E-2,1.8123361E-1,-5.797095E-2,1.7569374E-1,3.807434E-2,1.8450081E-1],"split_indices":[319,351,124,273,267,248,381,85,92,0,0,0,359,326,0,3,286,158,117,0,37,238,63,0,0,0,80,264,0,94,15,0,0,0,179,12,109,0,0,0,0,0,0,0,0,0,0,0,0,0,0],"split_type":[0,0,0,0,0,0,0,0,0,0,0,0,0,0,0,0,0,0,0,0,0,0,0,0,0,0,0,0,0,0,0,0,0,0,0,0,0,0,0,0,0,0,0,0,0,0,0,0,0,0,0],"sum_hessian":[4.6480693E3,2.3270405E3,2.321029E3,2.3217642E3,5.2763906E0,7.972174E1,2.2413071E3,8.465497E0,2.3132986E3,1.1470349E0,4.129356E0,1.504444E1,6.46773E1,2.2124546E3,2.8852642E1,3.0207653E0,5.4447317E0,8.335796E0,2.304963E3,1.9426799E0,6.273462E1,2.513759E1,2.187317E3,1.0162668E0,2.0044987E0,1.0285177E0,4.416214E0,6.628598E0,1.7071987E0,2.8353302E0,2.3021274E3,1.106749E0,6.1627872E1,1.4116951E0,2.3725895E1,2.1746162E3,1.270077E1,3.3272676E0,1.0889463E0,1.0200852E0,5.608513E0,1.730827E0,1.1045033E0,1.4087467E0,2.3007188E3,1.1104163E0,2.2615479E1,2.1654258E3,9.19049E0,1.0759937E0,1.1624777E1],"tree_param":{"num_deleted":"0","num_feature":"384","num_nodes":"51","size_leaf_vector":"1"}},{"base_weights":[1.3706897E0,3.3196535E0,-8.379515E-1,3.326567E0,-6.5388125E-1,2.5727975E0,-9.736319E-1,1.318976E0,3.3325586E0,-4.8384603E-2,1.5101415E-2,-1.1122131E0,3.365361E0,1.6678998E-1,-1.0387262E0,-4.4423606E-2,2.2045498E0,1.2518151E0,3.3351235E0,-6.6430657E-3,-5.840942E-2,3.4208276E0,7.562898E-3,-1.0926718E0,2.7578795E0,1.4540672E-1,-2.1799037E-3,1.2076992E-1,-2.4284998E-2,1.9855458E0,3.3385088E0,5.4406334E-2,1.7223902E-1,-1.1208513E0,3.1398196E0,3.2664177E0,4.061382E-3,1.4280145E-1,-2.7403152E-2,5.0748646E-2,1.6696407E-1,1.4431368E-1,-5.750031E-2,-1.22983465E-2,1.7379862E-1,-1.04566915E-2,1.7206985E-1,1.0192519E-1,-4.92859E-2],"categories":[],"categories_nodes":[],"categories_segments":[],"categories_sizes":[],"default_left":[0,0,0,0,0,0,0,0,0,0,0,0,0,0,0,0,0,0,0,0,0,0,0,0,0,0,0,0,0,0,0,0,0,0,0,0,0,0,0,0,0,0,0,0,0,0,0,0,0],"id":2,"left_children":[1,3,5,7,9,11,13,15,17,-1,-1,19,21,-1,23,-1,25,27,29,-1,-1,31,-1,33,35,-1,-1,-1,-1,37,39,-1,-1,41,43,45,47,-1,-1,-1,-1,-1,-1,-1,-1,-1,-1,-1,-1],"loss_changes":[2.0567633E4,7.191797E1,1.0392478E3,2.6039062E1,1.8712144E0,2.5488715E2,6.0805676E2,1.9956392E1,9.261719E0,0E0,0E0,7.0719147E-1,1.2106812E1,0E0,4.3802026E2,0E0,1.1000553E1,1.0725458E1,4.841797E0,0E0,0E0,1.0412598E-1,0E0,2.5336816E2,4.202063E1,0E0,0E0,0E0,0E0,2.0964539E1,1.078125E0,0E0,0E0,2.4652246E2,1.6954102E1,1.6169708E1,1.3471012E1,0E0,0E0,0E0,0E0,0E0,0E0,0E0,0E0,0E0,0E0,0E0,0E0],"parents":[2147483647,0,0,1,1,2,2,3,3,4,4,5,5,6,6,7,7,8,8,11,11,12,12,14,14,16,16,17,17,18,18,21,21,23,23,24,24,29,29,30,30,33,33,34,34,35,35,36,36],"right_children":[2,4,6,8,10,12,14,16,18,-1,-1,20,22,-1,24,-1,26,28,30,-1,-1,32,-1,34,36,-1,-1,-1,-1,38,40,-1,-1,42,44,46,48,-1,-1,-1,-1,-1,-1,-1,-1,-1,-1,-1,-1],"split_conditions":[-2.1609E-8,1.2768099E-1,-7.2776854E-2,-9.226094E-2,-1.7932488E-2,-8.647392E-2,-1.1530791E-1,-4.4313494E-2,-9.162522E-2,-4.8384603E-2,1.5101415E-2,-7.020845E-2,7.929304E-2,1.6678998E-1,4.4201083E-2,-4.4423606E-2,3.5618585E-2,-7.5433865E-2,-9.106764E-2,-6.6430657E-3,-5.840942E-2,-4.3553393E-2,7.562898E-3,6.35359E-2,1.1894414E-2,1.4540672E-1,-2.1799037E-3,1.2076992E-1,-2.4284998E-2,-2.9806177E-8,-1.1089601E-1,5.4406334E-2,1.7223902E-1,-5.212466E-2,-4.6199843E-2,-4.3113437E-2,-6.6294126E-2,1.4280145E-1,-2.7403152E-2,5.0748646E-2,1.6696407E-1,1.4431368E-1,-5.750031E-2,-1.22983465E-2,1.7379862E-1,-1.04566915E-2,1.7206985E-1,1.0192519E-1,-4.92859E-2],"split_indices":[319,351,124,273,81,359,70,69,117,0,0,11,36,0,92,0,231,270,92,0,0,27,0,346,293,0,0,0,0,319,15,0,0,106,20,12,98,0,0,0,0,0,0,0,0,0,0,0,0],"split_type":[0,0,0,0,0,0,0,0,0,0,0,0,0,0,0,0,0,0,0,0,0,0,0,0,0,0,0,0,0,0,0,0,0,0,0,0,0,0,0,0,0,0,0,0,0,0,0,0,0],"sum_hessian":[4.776448E3,2.537124E3,2.2393242E3,2.5328828E3,4.2414007E0,8.498274E1,2.1543416E3,8.199928E0,2.5246829E3,3.1917367E0,1.049664E0,1.4968947E1,7.0013794E1,3.1307293E1,2.1230342E3,2.3435798E0,5.856349E0,3.715237E0,2.5209675E3,1.0013529E0,1.3967595E1,6.8759766E1,1.2540332E0,2.0939958E3,2.903854E1,4.2402053E0,1.6161437E0,1.9948983E0,1.7203385E0,7.7855325E0,2.513182E3,1.1750021E0,6.758476E1,2.080879E3,1.3116727E1,2.4351803E1,4.6867385E0,5.7028637E0,2.0826688E0,1.276497E0,2.5119055E3,1.4320306E1,2.0665586E3,1.2062019E0,1.1910525E1,1.1551476E0,2.3196655E1,1.1904262E0,3.4963124E0],"tree_param":{"num_deleted":"0","num_feature":"384","num_nodes":"49","size_leaf_vector":"1"}},{"base_weights":[1.2601525E0,2.9603903E0,-8.0864275E-1,2.9653974E0,-1.08977355E-1,7.152116E-1,-1.100618E0,1.242873E0,2.971356E0,8.866934E-2,-4.843531E-2,-9.3466586E-1,2.5231745E0,2.7601044E0,-1.170388E0,-4.0304074E-1,1.3435166E-1,1.7310617E0,2.974483E0,2.9049428E0,-1.1839355E0,3.148507E0,-8.666159E-1,3.1259212E0,-7.0084226E-1,2.6924164E0,-1.1924324E0,5.621006E-2,-5.0184935E-2,-3.0173054E-1,1.24684684E-1,1.090886E0,1.4881667E-1,3.715534E-2,1.5222478E-1,8.685333E-2,-6.1375614E-2,8.780537E-1,3.2095752E0,-5.9289604E-2,1.0943009E-1,1.664816E-1,-1.803537E-2,-4.1658133E-2,-7.6373923E-3,-1.2401353E-2,1.5465958E-1,-1.2040999E0,2.1401987E0,1.6582666E-2,-3.6243353E-2,-2.052168E-2,1.0486909E-1,-4.2311158E-2,1.1226256E-1,2.4135474E-2,1.6168465E-1,-6.0692646E-2,1.1017572E-1,1.4323469E-1,-2.6342818E-3],"categories":[],"categories_nodes":[],"categories_segments":[],"categories_sizes":[],"default_left":[0,0,0,0,0,0,0,0,0,0,0,0,0,0,0,0,0,0,0,0,0,0,0,0,0,0,0,0,0,0,0,0,0,0,0,0,0,0,0,0,0,0,0,0,0,0,0,0,0,0,0,0,0,0,0,0,0,0,0,0,0],"id":3,"left_children":[1,3,5,7,9,11,13,15,17,-1,-1,19,21,23,25,27,-1,29,31,33,35,37,39,41,43,45,47,-1,-1,49,-1,51,-1,-1,-1,-1,-1,53,55,-1,-1,-1,-1,-1,-1,-1,-1,57,59,-1,-1,-1,-1,-1,-1,-1,-1,-1,-1,-1,-1],"loss_changes":[1.7121E4,4.140625E1,9.779491E2,2.3640625E1,1.0306627E1,1.0575514E3,4.9977832E2,2.706146E1,5.111328E0,0E0,0E0,1.8113885E2,3.611095E2,4.4019104E1,1.5744751E2,6.6034474E0,0E0,1.4855799E1,5.9453125E0,1.201416E0,2.4412216E1,1.6960693E1,2.902291E1,2.2572754E1,1.5084434E-1,1.3267769E1,7.262988E1,0E0,0E0,1.1465896E0,0E0,7.199887E0,0E0,0E0,0E0,0E0,0E0,1.3995753E1,7.531616E0,0E0,0E0,0E0,0E0,0E0,0E0,0E0,0E0,6.2362305E1,1.0733524E1,0E0,0E0,0E0,0E0,0E0,0E0,0E0,0E0,0E0,0E0,0E0,0E0],"parents":[2147483647,0,0,1,1,2,2,3,3,4,4,5,5,6,6,7,7,8,8,11,11,12,12,13,13,14,14,15,15,17,17,18,18,19,19,20,20,21,21,22,22,23,23,24,24,25,25,26,26,29,29,31,31,37,37,38,38,47,47,48,48],"right_children":[2,4,6,8,10,12,14,16,18,-1,-1,20,22,24,26,28,-1,30,32,34,36,38,40,42,44,46,48,-1,-1,50,-1,52,-1,-1,-1,-1,-1,54,56,-1,-1,-1,-1,-1,-1,-1,-1,58,60,-1,-1,-1,-1,-1,-1,-1,-1,-1,-1,-1,-1],"split_conditions":[-2.1609E-8,1.2768099E-1,1.4325282E-2,-9.226094E-2,-4.3302026E-2,-4.727908E-2,-6.3330755E-2,-3.7003703E-2,-9.106764E-2,8.866934E-2,-4.843531E-2,-2.7284805E-2,5.5096004E-2,5.476002E-2,-1.0320555E-1,-1.2762482E-1,1.3435166E-1,-4.3862477E-2,-9.162522E-2,-2.7991852E-2,-1.7862476E-2,-6.5770194E-2,-1.8255556E-33,6.1784178E-2,6.369556E-3,-2.6980113E-2,6.35359E-2,5.621006E-2,-5.0184935E-2,-4.94383E-2,1.24684684E-1,-5.368312E-3,1.4881667E-1,3.715534E-2,1.5222478E-1,8.685333E-2,-6.1375614E-2,-1.5973109E-3,-1.0446877E-1,-5.9289604E-2,1.0943009E-1,1.664816E-1,-1.803537E-2,-4.1658133E-2,-7.6373923E-3,-1.2401353E-2,1.5465958E-1,8.8381186E-2,1.3477411E-2,1.6582666E-2,-3.6243353E-2,-2.052168E-2,1.0486909E-1,-4.2311158E-2,1.1226256E-1,2.4135474E-2,1.6168465E-1,-6.0692646E-2,1.1017572E-1,1.4323469E-1,-2.6342818E-3],"split_indices":[319,351,361,273,337,204,198,71,92,0,0,353,13,183,41,325,0,71,117,23,336,325,127,70,33,79,346,0,0,72,0,77,0,0,0,0,0,238,17,0,0,0,0,0,0,0,0,380,207,0,0,0,0,0,0,0,0,0,0,0,0],"split_type":[0,0,0,0,0,0,0,0,0,0,0,0,0,0,0,0,0,0,0,0,0,0,0,0,0,0,0,0,0,0,0,0,0,0,0,0,0,0,0,0,0,0,0,0,0,0,0,0,0,0,0,0,0,0,0,0,0,0,0,0,0],"sum_hessian":[4.865768E3,2.6705513E3,2.195217E3,2.6662393E3,4.3121567E0,3.5274005E2,1.8424769E3,9.919665E0,2.6563196E3,1.0151471E0,3.2970097E0,1.8468297E2,1.6805708E2,3.201871E1,1.8104583E3,4.9696884E0,4.9499774E0,8.083216E0,2.6482363E3,1.0606869E1,1.740761E2,1.4194572E2,2.6111351E1,2.9048065E1,2.970646E0,9.583431E0,1.8008748E3,1.1520935E0,3.8175948E0,2.3665173E0,5.716698E0,3.183905E0,2.6450525E3,1.0310631E0,9.575806E0,1.984152E0,1.7209195E2,4.124986E0,1.3782074E2,2.4198503E1,1.9128461E0,2.7489836E1,1.5582311E0,1.9592845E0,1.0113612E0,1.1922448E0,8.391187E0,1.7952314E3,5.6433296E0,1.0249144E0,1.3416029E0,1.5115342E0,1.6723706E0,1.9895508E0,2.1354353E0,1.3961346E0,1.364246E2,1.7907528E3,4.478672E0,4.0150285E0,1.6283011E0],"tree_param":{"num_deleted":"0","num_feature":"384","num_nodes":"61","size_leaf_vector":"1"}},{"base_weights":[1.1865418E0,2.6902726E0,-8.024615E-1,2.6946325E0,1.4047385E-2,6.0224575E-1,-1.0964379E0,1.2217644E0,2.699216E0,9.403708E-2,-4.781761E-2,2.5428116E0,-6.4501256E-1,2.3987925E0,-1.1568627E0,-2.5459537E-1,2.230328E0,1.1096964E0,2.7010348E0,-5.5999603E-2,2.8581846E0,2.6613812E0,-1.0383999E0,2.8042235E0,-3.7003487E-1,1.3284849E-1,-1.1784459E0,-4.6978284E-2,5.8346596E-2,1.2653331E-1,2.7142573E-2,1.0576581E-1,-2.4055121E-2,2.3549737E-2,2.701958E0,-2.553346E-3,2.8943787E0,2.7934728E0,-7.7544833E-3,-1.1804122E0,2.2434306E0,1.4652853E-1,6.9944165E-3,-4.4997495E-2,3.6927138E-2,-1.1910744E0,1.9779067E0,3.7610214E-2,1.35135E-1,1.4666311E-1,4.668286E-2,2.9055862E-2,1.4429362E-1,-6.0481198E-2,9.0466015E-2,-9.726757E-3,1.303134E-1,-5.992324E-2,1.4446704E-1,-1.5830493E-2,1.268162E-1],"categories":[],"categories_nodes":[],"categories_segments":[],"categories_sizes":[],"default_left":[0,0,0,0,0,0,0,0,0,0,0,0,0,0,0,0,0,0,0,0,0,0,0,0,0,0,0,0,0,0,0,0,0,0,0,0,0,0,0,0,0,0,0,0,0,0,0,0,0,0,0,0,0,0,0,0,0,0,0,0,0],"id":4,"left_children":[1,3,5,7,9,11,13,15,17,-1,-1,19,21,23,25,27,29,31,33,-1,35,37,39,41,43,-1,45,-1,-1,-1,-1,-1,-1,-1,47,-1,49,51,-1,53,55,-1,-1,-1,-1,57,59,-1,-1,-1,-1,-1,-1,-1,-1,-1,-1,-1,-1,-1,-1],"loss_changes":[1.4723793E4,3.264453E1,8.760725E2,1.5556641E1,1.1894761E1,8.911732E2,3.730725E2,1.6245138E1,5.029297E0,0E0,0E0,1.6955536E2,2.947701E2,3.4873062E1,1.4504736E2,6.1198707E0,1.8157768E0,8.85924E0,4.4277344E0,0E0,1.4166626E1,9.444122E0,9.648497E1,8.443741E0,3.4433045E0,0E0,7.071704E1,0E0,0E0,0E0,0E0,0E0,0E0,0E0,1.9609375E0,0E0,7.229248E0,3.0152893E0,0E0,1.9096771E1,8.221596E0,0E0,0E0,0E0,0E0,5.4983887E1,1.0060747E1,0E0,0E0,0E0,0E0,0E0,0E0,0E0,0E0,0E0,0E0,0E0,0E0,0E0,0E0],"parents":[2147483647,0,0,1,1,2,2,3,3,4,4,5,5,6,6,7,7,8,8,11,11,12,12,13,13,14,14,15,15,16,16,17,17,18,18,20,20,21,21,22,22,23,23,24,24,26,26,34,34,36,36,37,37,39,39,40,40,45,45,46,46],"right_children":[2,4,6,8,10,12,14,16,18,-1,-1,20,22,24,26,28,30,32,34,-1,36,38,40,42,44,-1,46,-1,-1,-1,-1,-1,-1,-1,48,-1,50,52,-1,54,56,-1,-1,-1,-1,58,60,-1,-1,-1,-1,-1,-1,-1,-1,-1,-1,-1,-1,-1,-1],"split_conditions":[-2.1609E-8,1.2768099E-1,1.814414E-2,-9.226094E-2,-3.3130467E-2,2.457446E-3,-6.3330755E-2,-4.5445297E-2,-8.749143E-2,9.403708E-2,-4.781761E-2,-7.1147226E-2,-3.0458808E-2,4.3411188E-2,-1.09542444E-1,8.88543E-2,1.0668241E-2,9.16107E-3,-1.1089601E-1,-5.5999603E-2,-7.13654E-2,1.4446776E-2,-1.5057333E-2,5.476002E-2,5.590022E-3,1.3284849E-1,6.35359E-2,-4.6978284E-2,5.8346596E-2,1.2653331E-1,2.7142573E-2,1.0576581E-1,-2.4055121E-2,2.3549737E-2,-1.0097388E-1,-2.553346E-3,2.2265533E-2,-3.6362298E-2,-7.7544833E-3,5.1446434E-2,7.5842263E-3,1.4652853E-1,6.9944165E-3,-4.4997495E-2,3.6927138E-2,4.9970783E-2,-1.5622615E-2,3.7610214E-2,1.35135E-1,1.4666311E-1,4.668286E-2,2.9055862E-2,1.4429362E-1,-6.0481198E-2,9.0466015E-2,-9.726757E-3,1.303134E-1,-5.992324E-2,1.4446704E-1,-1.5830493E-2,1.268162E-1],"split_indices":[319,351,361,273,337,18,198,71,117,0,0,117,125,70,41,205,111,279,15,0,48,136,37,183,238,0,346,0,0,0,0,0,0,0,31,0,198,25,0,346,311,0,0,0,0,279,117,0,0,0,0,0,0,0,0,0,0,0,0,0,0],"split_type":[0,0,0,0,0,0,0,0,0,0,0,0,0,0,0,0,0,0,0,0,0,0,0,0,0,0,0,0,0,0,0,0,0,0,0,0,0,0,0,0,0,0,0,0,0,0,0,0,0,0,0,0,0,0,0,0,0,0,0,0,0],"sum_hessian":[4.9210933E3,2.8022114E3,2.1188818E3,2.7976428E3,4.5684266E0,3.665091E2,1.7523727E3,9.515458E0,2.7881274E3,1.2452381E0,3.3231883E0,1.4299596E2,2.2351314E2,2.9119375E1,1.7232533E3,4.1614614E0,5.3539963E0,3.8915567E0,2.7842358E3,1.1131345E1,1.3186461E2,2.3149813E1,2.0036333E2,2.5392113E1,3.7272623E0,9.007586E0,1.7142457E3,3.041823E0,1.1196386E0,4.115854E0,1.2381426E0,2.1861522E0,1.7054045E0,1.368092E0,2.782868E3,1.6119292E0,1.3025269E2,2.2123924E1,1.025889E0,1.9266945E2,7.693878E0,2.414351E1,1.2486013E0,2.6552377E0,1.0720246E0,1.7080377E3,6.207947E0,1.449881E0,2.781418E3,1.2722848E2,3.0242035E0,1.1835339E0,2.094039E1,1.913981E2,1.2713383E0,1.0532435E0,6.6406345E0,1.7056572E3,2.3805554E0,1.2963611E0,4.911586E0],"tree_param":{"num_deleted":"0","num_feature":"384","num_nodes":"61","size_leaf_vector":"1"}},{"base_weights":[1.1235507E0,2.4759078E0,-7.7978045E-1,2.482641E0,9.8102605E-1,1.9944313E0,-9.221724E-1,1.2554617E0,2.4858034E0,2.15933E0,-9.563264E-1,-5.6227397E-2,2.4747276E0,1.151719E0,-1.0515959E0,-4.2721603E-2,2.0158646E0,9.9775565E-1,2.4871519E0,1.159907E-1,2.7881516E-2,-7.618929E-3,-5.4060202E-2,3.2001016E-1,2.5264003E0,-9.6346426E-1,2.5441902E0,-1.0904802E0,2.4114006E0,1.1696235E-1,8.355106E-3,9.1205455E-2,-3.5119813E-2,2.488062E0,3.464594E-2,-3.488941E-2,6.400991E-2,1.2712751E-1,3.2049417E-2,1.0329329E-1,-5.901136E-2,2.6423926E0,-3.0525777E-1,1.9820108E0,-1.1212925E0,1.32128E-1,-4.507672E-3,4.8208553E-2,1.2443687E-1,-9.33937E-3,1.3462017E-1,-3.3877548E-2,1.2872699E-2,-5.6704413E-3,1.3041808E-1,1.1299878E-1,-5.7480205E-2],"categories":[],"categories_nodes":[],"categories_segments":[],"categories_sizes":[],"default_left":[0,0,0,0,0,0,0,0,0,0,0,0,0,0,0,0,0,0,0,0,0,0,0,0,0,0,0,0,0,0,0,0,0,0,0,0,0,0,0,0,0,0,0,0,0,0,0,0,0,0,0,0,0,0,0,0,0],"id":5,"left_children":[1,3,5,7,9,11,13,15,17,19,21,-1,23,25,27,-1,29,31,33,-1,-1,-1,-1,35,37,39,41,43,45,-1,-1,-1,-1,47,-1,-1,-1,-1,-1,-1,-1,49,51,53,55,-1,-1,-1,-1,-1,-1,-1,-1,-1,-1,-1,-1],"loss_changes":[1.2806504E4,2.6802734E1,8.1839526E2,8.076172E0,3.563717E1,1.5444571E2,5.2914404E2,1.6926193E1,3.2773438E0,1.1071434E0,4.503541E-1,0E0,8.965271E0,3.44151E2,2.519834E2,0E0,3.925562E0,7.319601E0,2.9492188E0,0E0,0E0,0E0,0E0,4.037558E0,9.517822E-1,3.314441E1,2.0482758E1,1.7565112E2,1.2332886E1,0E0,0E0,0E0,0E0,5.332031E-1,0E0,0E0,0E0,0E0,0E0,0E0,0E0,1.0149292E1,8.559105E-1,2.466426E1,1.7628442E2,0E0,0E0,0E0,0E0,0E0,0E0,0E0,0E0,0E0,0E0,0E0,0E0],"parents":[2147483647,0,0,1,1,2,2,3,3,4,4,5,5,6,6,7,7,8,8,9,9,10,10,12,12,13,13,14,14,16,16,17,17,18,18,23,23,24,24,25,25,26,26,27,27,28,28,33,33,41,41,42,42,43,43,44,44],"right_children":[2,4,6,8,10,12,14,16,18,20,22,-1,24,26,28,-1,30,32,34,-1,-1,-1,-1,36,38,40,42,44,46,-1,-1,-1,-1,48,-1,-1,-1,-1,-1,-1,-1,50,52,54,56,-1,-1,-1,-1,-1,-1,-1,-1,-1,-1,-1,-1],"split_conditions":[-2.1609E-8,1.0784312E-1,-7.2776854E-2,-9.226094E-2,4.6624668E-2,-8.1778556E-2,-8.8007614E-2,-4.9657207E-2,-9.162522E-2,-8.1864995E-4,-1.7868252E-2,-5.6227397E-2,-6.2140383E-2,-3.4993082E-2,5.0114397E-2,-4.2721603E-2,4.250089E-2,6.6231965E-4,9.49625E-2,1.159907E-1,2.7881516E-2,-7.618929E-3,-5.4060202E-2,2.3496522E-2,5.6056883E-2,-4.2815533E-2,4.4653602E-2,-5.212466E-2,3.0533027E-2,1.1696235E-1,8.355106E-3,9.1205455E-2,-3.5119813E-2,-1.1121275E-1,3.464594E-2,-3.488941E-2,6.400991E-2,1.2712751E-1,3.2049417E-2,1.0329329E-1,-5.901136E-2,-5.1589895E-2,-8.190658E-3,1.1647873E-2,-4.8328977E-2,1.32128E-1,-4.507672E-3,4.8208553E-2,1.2443687E-1,-9.33937E-3,1.3462017E-1,-3.3877548E-2,1.2872699E-2,-5.6704413E-3,1.3041808E-1,1.1299878E-1,-5.7480205E-2],"split_indices":[319,351,124,273,96,248,198,85,117,244,201,0,359,316,359,0,151,85,18,0,0,0,0,43,216,0,229,106,80,0,0,0,0,164,0,0,0,0,0,0,0,322,350,324,326,0,0,0,0,0,0,0,0,0,0,0,0],"split_type":[0,0,0,0,0,0,0,0,0,0,0,0,0,0,0,0,0,0,0,0,0,0,0,0,0,0,0,0,0,0,0,0,0,0,0,0,0,0,0,0,0,0,0,0,0,0,0,0,0,0,0,0,0,0,0,0,0],"sum_hessian":[4.973607E3,2.907483E3,2.0661243E3,2.8937817E3,1.3701361E1,1.00232155E2,1.965892E3,8.469239E0,2.8853125E3,8.451634E0,5.2497263E0,1.3193461E1,8.70387E1,1.1500867E2,1.8508833E3,2.207439E0,6.2618E0,3.2900014E0,2.8820225E3,7.268746E0,1.1828885E0,1.0150772E0,4.234649E0,2.2113967E0,8.48273E1,4.577568E1,6.9232994E1,1.8310118E3,1.9871527E1,5.0991516E0,1.1626484E0,2.1688237E0,1.1211777E0,2.8801694E3,1.85295E0,1.2010984E0,1.0102983E0,8.3756035E1,1.0712686E0,2.484021E0,4.329166E1,6.70001E1,2.2328954E0,1.754788E1,1.813464E3,1.814266E1,1.7288667E0,1.9153054E0,2.8782542E3,1.1128001E0,6.58873E1,1.2316911E0,1.0012041E0,4.223012E0,1.3324867E1,1.4400744E1,1.7990632E3],"tree_param":{"num_deleted":"0","num_feature":"384","num_nodes":"57","size_leaf_vector":"1"}},{"base_weights":[1.0656033E0,2.302833E0,-7.577207E-1,2.306689E0,-2.8520352E-1,6.286936E-1,-1.0563741E0,9.5628434E-1,2.3106039E0,-4.7008093E-2,5.977669E-2,-8.676386E-1,1.9816521E0,2.1162164E0,-1.1284485E0,1.8317732E0,-4.1465673E-1,1.4522825E0,2.3127618E0,1.17329314E-1,-1.1483132E0,2.40375E0,-8.5224336E-1,2.387905E0,-6.7677546E-1,-1.1528915E0,2.2241187E0,1.10518634E-1,6.966784E-3,3.8127374E-2,-4.656901E-2,1.0251278E-1,-4.758766E-2,1.2897726E0,1.15727365E-1,6.933643E-2,-5.9441667E-2,2.4364023E0,-2.3449084E-2,9.485012E-2,-5.7318415E-2,1.2603597E-1,-3.9454577E-3,-4.0954653E-2,-6.6393414E-3,-1.1654224E0,1.9292692E0,1.2309881E-1,-8.344129E-3,8.9036904E-2,-2.4733124E-2,1.2317908E-1,4.8536016E-3,-5.8687426E-2,9.6466504E-2,1.1987608E-1,1.2452531E-3],"categories":[],"categories_nodes":[],"categories_segments":[],"categories_sizes":[],"default_left":[0,0,0,0,0,0,0,0,0,0,0,0,0,0,0,0,0,0,0,0,0,0,0,0,0,0,0,0,0,0,0,0,0,0,0,0,0,0,0,0,0,0,0,0,0,0,0,0,0,0,0,0,0,0,0,0,0],"id":6,"left_children":[1,3,5,7,9,11,13,15,17,-1,-1,19,21,23,25,27,29,31,33,-1,35,37,39,41,43,45,47,-1,-1,-1,-1,-1,-1,49,-1,-1,-1,51,-1,-1,-1,-1,-1,-1,-1,53,55,-1,-1,-1,-1,-1,-1,-1,-1,-1,-1],"loss_changes":[1.1112745E4,2.996289E1,8.253998E2,1.3249023E1,6.214773E0,7.1767255E2,3.771991E2,1.29966545E1,2.0146484E0,0E0,0E0,1.5479987E2,2.245863E2,2.9524765E1,1.3394934E2,3.7718563E0,3.6194115E0,1.6373703E1,2.296875E0,0E0,1.7645203E1,1.6374573E1,2.226239E1,1.1271591E1,1.940571E-1,6.374585E1,7.2266617E0,0E0,0E0,0E0,0E0,0E0,0E0,7.3262835E0,0E0,0E0,0E0,9.941284E0,0E0,0E0,0E0,0E0,0E0,0E0,0E0,4.3141357E1,5.9990177E0,0E0,0E0,0E0,0E0,0E0,0E0,0E0,0E0,0E0,0E0],"parents":[2147483647,0,0,1,1,2,2,3,3,4,4,5,5,6,6,7,7,8,8,11,11,12,12,13,13,14,14,15,15,16,16,17,17,18,18,20,20,21,21,22,22,23,23,24,24,25,25,26,26,33,33,37,37,45,45,46,46],"right_children":[2,4,6,8,10,12,14,16,18,-1,-1,20,22,24,26,28,30,32,34,-1,36,38,40,42,44,46,48,-1,-1,-1,-1,-1,-1,50,-1,-1,-1,52,-1,-1,-1,-1,-1,-1,-1,54,56,-1,-1,-1,-1,-1,-1,-1,-1,-1,-1],"split_conditions":[-2.1609E-8,1.2768099E-1,1.4325282E-2,-9.226094E-2,1.7799458E-3,-4.727908E-2,-6.3330755E-2,2.8559202E-2,-9.198058E-2,-4.7008093E-2,5.977669E-2,-3.4064602E-2,5.5096004E-2,5.3990096E-2,5.0114397E-2,1.6619364E-2,-3.153235E-2,-1.0672529E-2,-1.16535485E-1,1.17329314E-1,-1.7862476E-2,6.215489E-2,-5.6979875E-3,5.476002E-2,3.5524603E-3,6.35359E-2,-1.1813722E-2,1.10518634E-1,6.966784E-3,3.8127374E-2,-4.656901E-2,1.0251278E-1,-4.758766E-2,9.522892E-3,1.15727365E-1,6.933643E-2,-5.9441667E-2,6.1837096E-2,-2.3449084E-2,9.485012E-2,-5.7318415E-2,1.2603597E-1,-3.9454577E-3,-4.0954653E-2,-6.6393414E-3,8.8381186E-2,3.104151E-2,1.2309881E-1,-8.344129E-3,8.9036904E-2,-2.4733124E-2,1.2317908E-1,4.8536016E-3,-5.8687426E-2,9.6466504E-2,1.1987608E-1,1.2452531E-3],"split_indices":[319,351,361,273,81,204,198,231,43,0,0,353,13,70,359,17,293,18,208,0,336,125,203,183,119,346,110,0,0,0,0,0,0,18,0,0,0,193,0,0,0,0,0,0,0,380,275,0,0,0,0,0,0,0,0,0,0],"split_type":[0,0,0,0,0,0,0,0,0,0,0,0,0,0,0,0,0,0,0,0,0,0,0,0,0,0,0,0,0,0,0,0,0,0,0,0,0,0,0,0,0,0,0,0,0,0,0,0,0,0,0,0,0,0,0,0,0],"sum_hessian":[4.9243643E3,2.9335352E3,1.9908291E3,2.9292832E3,4.251825E0,3.5264325E2,1.6381858E3,9.183704E0,2.9200996E3,3.2057054E0,1.0461195E0,1.6761612E2,1.8502715E2,3.5756325E1,1.6024294E3,5.403901E0,3.7798033E0,9.02497E0,2.9110745E3,1.28672285E1,1.5474889E2,1.6117592E2,2.3851221E1,3.2721916E1,3.0344083E0,1.5914854E3,1.0944138E1,4.1611185E0,1.2427828E0,1.0019844E0,2.777819E0,7.3484564E0,1.6765136E0,6.3422995E0,2.9047322E3,1.9080278E0,1.5284085E2,1.5951816E2,1.6577656E0,1.7751238E0,2.2076097E1,3.103327E1,1.6886473E0,1.9897519E0,1.0446565E0,1.5856638E3,5.8215714E0,9.930723E0,1.013414E0,4.979835E0,1.3624648E0,1.5762936E2,1.8887885E0,1.5820314E3,3.632355E0,4.4605756E0,1.3609959E0],"tree_param":{"num_deleted":"0","num_feature":"384","num_nodes":"57","size_leaf_vector":"1"}},{"base_weights":[1.0128328E0,2.1576192E0,-7.5863755E-1,2.1611884E0,-1.5809129E-1,5.5369127E-1,-1.0471159E0,9.173621E-1,2.1650858E0,-4.726167E-2,7.732975E-2,-8.572239E-1,1.885258E0,1.9839561E0,-1.1150311E0,-3.2281196E-1,1.7574391E0,8.528031E-1,2.1663144E0,2.264424E0,-1.0901537E0,-8.3360034E-1,2.261034E0,2.2131271E0,-6.1947966E-1,-1.1385474E0,1.9778472E0,-4.5359936E-2,2.7977645E-2,1.0579101E-1,5.5101174E-3,-3.816311E-2,8.940067E-2,1.4023565E0,2.1683526E0,2.8324971E-2,1.1911674E-1,8.661971E-2,-1.1607237E0,6.618504E-2,-5.6700725E-2,-1.8643474E-2,2.2867632E0,-3.0771052E-2,2.3257325E0,-3.8221806E-2,-6.3144523E-3,-1.1507293E0,1.7785885E0,-3.182768E-2,1.1370677E-1,9.339204E-2,-4.1364588E-2,1.0845106E-1,3.8797613E-2,3.2244932E-2,-5.8855027E-2,1.1541885E-1,1.9144094E-2,3.18367E-2,1.18080035E-1,1.2509401E-1,-5.790791E-2,1.16699755E-1,-3.278827E-2],"categories":[],"categories_nodes":[],"categories_segments":[],"categories_sizes":[],"default_left":[0,0,0,0,0,0,0,0,0,0,0,0,0,0,0,0,0,0,0,0,0,0,0,0,0,0,0,0,0,0,0,0,0,0,0,0,0,0,0,0,0,0,0,0,0,0,0,0,0,0,0,0,0,0,0,0,0,0,0,0,0,0,0,0,0],"id":7,"left_children":[1,3,5,7,9,11,13,15,17,-1,-1,19,21,23,25,27,29,31,33,35,37,39,41,43,45,47,49,-1,-1,-1,-1,-1,-1,51,53,-1,-1,-1,55,-1,-1,-1,57,-1,59,-1,-1,61,63,-1,-1,-1,-1,-1,-1,-1,-1,-1,-1,-1,-1,-1,-1,-1,-1],"loss_changes":[9.988395E3,2.5088867E1,7.327102E2,1.2462891E1,8.878178E0,6.575818E2,3.286361E2,1.2118788E1,2.9208984E0,0E0,0E0,1.2621865E2,1.8574207E2,2.233371E1,1.1509741E2,3.2501862E0,3.7363129E0,8.087206E0,1.5556641E0,1.0515022E0,3.3689163E1,1.6131237E1,1.1603882E1,1.17968445E1,1.5322256E-1,5.6785767E1,1.0814098E1,0E0,0E0,0E0,0E0,0E0,0E0,1.2719763E1,1.0449219E0,0E0,0E0,0E0,5.371155E0,0E0,0E0,0E0,5.548889E0,0E0,3.7213135E-1,0E0,0E0,4.4529297E1,1.073587E1,0E0,0E0,0E0,0E0,0E0,0E0,0E0,0E0,0E0,0E0,0E0,0E0,0E0,0E0,0E0,0E0],"parents":[2147483647,0,0,1,1,2,2,3,3,4,4,5,5,6,6,7,7,8,8,11,11,12,12,13,13,14,14,15,15,16,16,17,17,18,18,19,19,20,20,21,21,22,22,23,23,24,24,25,25,26,26,33,33,34,34,38,38,42,42,44,44,47,47,48,48],"right_children":[2,4,6,8,10,12,14,16,18,-1,-1,20,22,24,26,28,30,32,34,36,38,40,42,44,46,48,50,-1,-1,-1,-1,-1,-1,52,54,-1,-1,-1,56,-1,-1,-1,58,-1,60,-1,-1,62,64,-1,-1,-1,-1,-1,-1,-1,-1,-1,-1,-1,-1,-1,-1,-1,-1],"split_conditions":[-2.1609E-8,1.2768099E-1,1.4325282E-2,-9.226094E-2,-3.088587E-2,-5.527378E-2,-6.3330755E-2,-6.935769E-3,-9.162522E-2,-4.726167E-2,7.732975E-2,9.223265E-3,-4.1532677E-2,4.4653602E-2,5.0114397E-2,1.1611454E-2,2.9059494E-2,-3.2251216E-3,-9.106764E-2,-4.190703E-2,-1.0564172E-2,-7.478041E-3,-5.2974775E-2,-9.825943E-2,2.5122944E-2,6.35359E-2,-3.4145717E-2,-4.5359936E-2,2.7977645E-2,1.0579101E-1,5.5101174E-3,-3.816311E-2,8.940067E-2,-2.7504061E-8,8.452883E-2,2.8324971E-2,1.1911674E-1,8.661971E-2,-2.8823713E-2,6.618504E-2,-5.6700725E-2,-1.8643474E-2,3.78363E-2,-3.0771052E-2,-4.9485467E-2,-3.8221806E-2,-6.3144523E-3,-8.500142E-2,1.9073108E-2,-3.182768E-2,1.1370677E-1,9.339204E-2,-4.1364588E-2,1.0845106E-1,3.8797613E-2,3.2244932E-2,-5.8855027E-2,1.1541885E-1,1.9144094E-2,3.18367E-2,1.18080035E-1,1.2509401E-1,-5.790791E-2,1.16699755E-1,-3.278827E-2],"split_indices":[319,351,361,273,40,309,198,358,117,0,0,26,117,229,359,239,229,143,92,297,39,245,27,235,265,346,61,0,0,0,0,0,0,319,207,0,0,0,23,0,0,0,369,0,322,0,0,85,239,0,0,0,0,0,0,0,0,0,0,0,0,0,0,0,0],"split_type":[0,0,0,0,0,0,0,0,0,0,0,0,0,0,0,0,0,0,0,0,0,0,0,0,0,0,0,0,0,0,0,0,0,0,0,0,0,0,0,0,0,0,0,0,0,0,0,0,0,0,0,0,0,0,0,0,0,0,0,0,0,0,0,0,0],"sum_hessian":[4.9235386E3,2.990658E3,1.9328806E3,2.9861265E3,4.5314736E0,3.4814874E2,1.5847319E3,1.0073773E1,2.9760527E3,3.4088194E0,1.122654E0,1.6920717E2,1.7894156E2,3.4108387E1,1.5506235E3,4.311985E0,5.761789E0,3.441186E0,2.9726116E3,1.1140563E1,1.580666E2,2.1577387E1,1.5736418E2,3.1490181E1,2.6182044E0,1.5395529E3,1.1070643E1,2.58388E0,1.728105E0,4.493602E0,1.268187E0,1.3248981E0,2.1162877E0,9.756788E0,2.9628547E3,1.1058272E0,1.0034736E1,3.2777581E0,1.5478885E2,2.2170453E0,1.9360342E1,1.3880631E0,1.5597612E2,1.031278E0,3.0458904E1,1.5827515E0,1.0354528E0,1.533757E3,5.795972E0,1.0065781E0,1.0064065E1,8.2096195E0,1.5471685E0,2.9608682E3,1.9865967E0,1.0408491E0,1.53748E2,1.5401001E2,1.9661107E0,1.0291291E0,2.9429775E1,2.4288313E0,1.5313281E3,4.756169E0,1.039803E0],"tree_param":{"num_deleted":"0","num_feature":"384","num_nodes":"65","size_leaf_vector":"1"}},{"base_weights":[9.732132E-1,2.037576E0,-7.429748E-1,2.0405278E0,2.2541143E-2,5.3477144E-1,-1.0445442E0,1.1619427E0,2.0432355E0,-4.5645554E-2,8.001693E-2,1.9375765E0,-6.2500256E-1,1.8135746E0,-1.1078897E0,1.7799479E0,-3.714479E-1,1.1098603E0,2.0452461E0,-5.2992135E-2,2.1264977E0,1.9851528E0,-9.949432E-1,-3.380699E-1,2.0849097E0,1.9056547E0,-1.1308012E0,9.945007E-2,8.1018E-3,-4.6189424E-2,3.255836E-2,-2.9666287E-1,8.710205E-2,2.0475848E0,1.4817425E0,2.162176E0,4.3581295E-1,2.089783E0,-9.351203E-3,-1.1457788E0,1.6512098E0,3.6520135E-2,-4.3609716E-2,-1.0443428E-2,1.0918631E-1,-1.2729962E-2,1.08511485E-1,-1.1422569E0,2.0438585E0,-4.6771E-2,3.1258803E-2,1.0241003E-1,3.7435498E-2,-2.2715123E-2,9.043776E-2,2.0703405E-2,1.0899291E-1,7.742213E-2,-4.0164318E-2,2.7643317E-2,1.0694387E-1,-5.8368947E-2,5.3582247E-2,-3.2365963E-2,1.0102961E-1,-5.767074E-2,7.147375E-2,7.3496825E-3,1.2538849E-1],"categories":[],"categories_nodes":[],"categories_segments":[],"categories_sizes":[],"default_left":[0,0,0,0,0,0,0,0,0,0,0,0,0,0,0,0,0,0,0,0,0,0,0,0,0,0,0,0,0,0,0,0,0,0,0,0,0,0,0,0,0,0,0,0,0,0,0,0,0,0,0,0,0,0,0,0,0,0,0,0,0,0,0,0,0,0,0,0,0],"id":8,"left_children":[1,3,5,7,9,11,13,15,17,-1,-1,19,21,23,25,27,29,31,33,-1,35,37,39,41,43,45,47,-1,-1,-1,-1,49,-1,51,53,55,57,59,-1,61,63,-1,-1,-1,-1,-1,-1,65,67,-1,-1,-1,-1,-1,-1,-1,-1,-1,-1,-1,-1,-1,-1,-1,-1,-1,-1,-1,-1],"loss_changes":[8.909062E3,1.7838867E1,7.2011755E2,4.7441406E0,9.466484E0,5.8241327E2,2.7559326E2,1.1634359E1,3.3173828E0,0E0,0E0,9.395746E1,1.9151907E2,2.0070953E1,1.0426489E2,2.504053E0,2.9453356E0,8.208881E0,8.6816406E-1,0E0,8.240112E0,6.02343E0,7.0780136E1,3.2452333E0,7.1791687E0,7.161045E0,5.5730835E1,0E0,0E0,0E0,0E0,2.664747E0,0E0,8.1640625E-1,1.0955261E1,3.6846313E0,7.33556E0,5.751343E-1,0E0,9.101883E0,9.569576E0,0E0,0E0,0E0,0E0,0E0,0E0,4.3651123E1,4.5637264E0,0E0,0E0,0E0,0E0,0E0,0E0,0E0,0E0,0E0,0E0,0E0,0E0,0E0,0E0,0E0,0E0,0E0,0E0,0E0,0E0],"parents":[2147483647,0,0,1,1,2,2,3,3,4,4,5,5,6,6,7,7,8,8,11,11,12,12,13,13,14,14,15,15,16,16,17,17,18,18,20,20,21,21,22,22,23,23,24,24,25,25,26,26,31,31,33,33,34,34,35,35,36,36,37,37,39,39,40,40,47,47,48,48],"right_children":[2,4,6,8,10,12,14,16,18,-1,-1,20,22,24,26,28,30,32,34,-1,36,38,40,42,44,46,48,-1,-1,-1,-1,50,-1,52,54,56,58,60,-1,62,64,-1,-1,-1,-1,-1,-1,66,68,-1,-1,-1,-1,-1,-1,-1,-1,-1,-1,-1,-1,-1,-1,-1,-1,-1,-1,-1,-1],"split_conditions":[-2.1609E-8,1.2768099E-1,1.814414E-2,-9.106764E-2,-3.088587E-2,2.457446E-3,-6.3330755E-2,2.8212976E-3,-1.16535485E-1,-4.5645554E-2,8.001693E-2,-8.510698E-2,-3.0458808E-2,-4.2968452E-2,-1.0320555E-1,5.526849E-2,1.2745109E-2,-4.0777575E-2,7.755779E-2,-5.2992135E-2,2.2265533E-2,1.4446776E-2,3.1769015E-3,-4.157548E-3,-4.6204284E-2,-3.1170115E-4,8.8381186E-2,9.945007E-2,8.1018E-3,-4.6189424E-2,3.255836E-2,4.4932943E-2,8.710205E-2,8.452883E-2,-3.828632E-2,-1.03713185E-1,-4.6508465E-2,-4.1154277E-2,-9.351203E-3,-1.5057333E-2,4.126216E-3,3.6520135E-2,-4.3609716E-2,-1.0443428E-2,1.0918631E-1,-1.2729962E-2,1.08511485E-1,6.35359E-2,-1.9279126E-2,-4.6771E-2,3.1258803E-2,1.0241003E-1,3.7435498E-2,-2.2715123E-2,9.043776E-2,2.0703405E-2,1.0899291E-1,7.742213E-2,-4.0164318E-2,2.7643317E-2,1.0694387E-1,-5.8368947E-2,5.3582247E-2,-3.2365963E-2,1.0102961E-1,-5.767074E-2,7.147375E-2,7.3496825E-3,1.2538849E-1],"split_indices":[319,351,361,92,40,18,198,293,208,0,0,100,125,248,41,331,214,325,125,0,198,136,346,278,12,187,380,0,0,0,0,225,0,207,245,314,293,214,0,37,83,0,0,0,0,0,0,346,366,0,0,0,0,0,0,0,0,0,0,0,0,0,0,0,0,0,0,0,0],"split_type":[0,0,0,0,0,0,0,0,0,0,0,0,0,0,0,0,0,0,0,0,0,0,0,0,0,0,0,0,0,0,0,0,0,0,0,0,0,0,0,0,0,0,0,0,0,0,0,0,0,0,0,0,0,0,0,0,0,0,0,0,0,0,0,0,0,0,0,0,0],"sum_hessian":[4.8754414E3,3.0090667E3,1.8663745E3,3.0046472E3,4.4193034E0,3.562291E2,1.5101454E3,1.0564599E1,2.9940828E3,3.034976E0,1.3843277E0,1.6092282E2,1.9530629E2,3.2141624E1,1.4780038E3,7.4198804E0,3.1447184E0,7.6345396E0,2.9864482E3,9.264802E0,1.5165802E2,2.369941E1,1.7160687E2,3.56768E0,2.8573944E1,1.0528938E1,1.4674749E3,6.3622575E0,1.0576229E0,2.1109564E0,1.0337619E0,2.527059E0,5.1074805E0,2.9714636E3,1.4984549E1,1.4824484E2,3.4131784E0,2.265089E1,1.0485196E0,1.6289249E2,8.71439E0,1.0603455E0,2.5073342E0,1.1299545E0,2.744399E1,1.1488101E0,9.380128E0,1.4628396E3,4.6352615E0,1.4904307E0,1.0366285E0,2.9694714E3,1.9921707E0,2.1046078E0,1.2879941E1,1.734657E0,1.465102E2,1.6710788E0,1.7420996E0,1.0870011E0,2.1563889E1,1.6179448E2,1.0980018E0,1.0986145E0,7.615775E0,1.4570732E3,5.766366E0,1.1738745E0,3.4613872E0],"tree_param":{"num_deleted":"0","num_feature":"384","num_nodes":"69","size_leaf_vector":"1"}},{"base_weights":[9.3380165E-1,1.9354384E0,-7.4205476E-1,1.9379246E0,-1.5582951E-2,5.1290184E-1,-1.0292246E0,1.9432658E0,1.4016162E0,7.089593E-2,-4.3524187E-2,-8.715599E-1,1.6704177E0,1.6833142E0,-1.0934467E0,1.0720571E0,1.9451237E0,-4.1806418E-1,1.7957293E0,-1.149242E0,1.6971596E0,-3.7645227E-1,2.000375E0,1.9110576E0,-6.5743697E-1,9.642326E-2,-1.1151937E0,1.5868908E0,-3.1993896E-2,1.945602E0,1.9549375E-2,5.8416437E-2,-1.0982927E0,9.453967E-2,6.0035707E-3,-1.1128742E-2,-5.779173E-2,-1.6909212E-2,1.8899693E0,-5.542798E-2,8.555267E-2,5.538427E-1,2.0400417E0,2.0141025E0,-1.6202502E-2,-7.68073E-3,-3.8996052E-2,-1.1283554E0,1.4022635E0,8.711061E-2,2.1507887E-2,9.7313546E-2,3.1619616E-2,-1.1321341E-2,-6.271161E-2,2.2451434E-2,9.9305235E-2,-4.055574E-2,6.785117E-2,1.0284001E-1,1.0699221E-2,1.753356E-2,1.0366102E-1,1.301478E-1,-5.6853134E-2,-3.4117557E-2,9.4394006E-2],"categories":[],"categories_nodes":[],"categories_segments":[],"categories_sizes":[],"default_left":[0,0,0,0,0,0,0,0,0,0,0,0,0,0,0,0,0,0,0,0,0,0,0,0,0,0,0,0,0,0,0,0,0,0,0,0,0,0,0,0,0,0,0,0,0,0,0,0,0,0,0,0,0,0,0,0,0,0,0,0,0,0,0,0,0,0,0],"id":9,"left_children":[1,3,5,7,9,11,13,15,17,-1,-1,19,21,23,25,27,29,31,33,35,37,39,41,43,45,-1,47,49,-1,51,-1,-1,53,-1,-1,-1,-1,-1,55,-1,-1,57,59,61,-1,-1,-1,63,65,-1,-1,-1,-1,-1,-1,-1,-1,-1,-1,-1,-1,-1,-1,-1,-1,-1,-1],"loss_changes":[8.075766E3,1.4654297E1,6.492893E2,5.8564453E0,7.1344643E0,5.3972894E2,2.5709558E2,2.7001953E0,2.4617073E1,0E0,0E0,1.1150672E2,1.2455435E2,1.9543297E1,9.625049E1,8.577933E0,1.421875E0,8.54244E0,4.1385727E0,5.79422E-1,6.6922264E0,4.205565E1,7.9102173E0,7.9246216E0,1.0410273E-1,0E0,4.870984E1,4.6499443E-1,0E0,1.3486328E0,0E0,0E0,4.1206837E-1,0E0,0E0,0E0,0E0,0E0,1.0522537E0,0E0,0E0,7.2415595E0,4.2316284E0,2.2239838E0,0E0,0E0,0E0,4.89364E1,9.236736E0,0E0,0E0,0E0,0E0,0E0,0E0,0E0,0E0,0E0,0E0,0E0,0E0,0E0,0E0,0E0,0E0,0E0,0E0],"parents":[2147483647,0,0,1,1,2,2,3,3,4,4,5,5,6,6,7,7,8,8,11,11,12,12,13,13,14,14,15,15,16,16,17,17,18,18,19,19,20,20,21,21,22,22,23,23,24,24,26,26,27,27,29,29,32,32,38,38,41,41,42,42,43,43,47,47,48,48],"right_children":[2,4,6,8,10,12,14,16,18,-1,-1,20,22,24,26,28,30,32,34,36,38,40,42,44,46,-1,48,50,-1,52,-1,-1,54,-1,-1,-1,-1,-1,56,-1,-1,58,60,62,-1,-1,-1,64,66,-1,-1,-1,-1,-1,-1,-1,-1,-1,-1,-1,-1,-1,-1,-1,-1,-1,-1],"split_conditions":[-2.1609E-8,1.2768099E-1,1.4325282E-2,8.458633E-2,-5.470617E-3,-4.727908E-2,-6.3330755E-2,-1.16535485E-1,-6.011812E-2,7.089593E-2,-4.3524187E-2,-5.1199753E-2,-6.956453E-2,5.843426E-2,-1.09542444E-1,1.163819E-2,1.2000607E-1,-7.7865673E-3,6.2412124E-2,2.4538284E-2,-2.4840293E-2,4.395161E-2,-3.8959473E-2,6.5810874E-2,-6.7195497E-3,9.642326E-2,5.812913E-2,-2.185486E-3,-3.1993896E-2,4.38506E-33,1.9549375E-2,5.8416437E-2,-2.194222E-2,9.453967E-2,6.0035707E-3,-1.1128742E-2,-5.779173E-2,-1.6909212E-2,7.976857E-3,-5.542798E-2,8.555267E-2,2.9895247E-3,6.215489E-2,-6.840348E-2,-1.6202502E-2,-7.68073E-3,-3.8996052E-2,-8.438345E-2,-4.483865E-2,8.711061E-2,2.1507887E-2,9.7313546E-2,3.1619616E-2,-1.1321341E-2,-6.271161E-2,2.2451434E-2,9.9305235E-2,-4.055574E-2,6.785117E-2,1.0284001E-1,1.0699221E-2,1.753356E-2,1.0366102E-1,1.301478E-1,-5.6853134E-2,-3.4117557E-2,9.4394006E-2],"split_indices":[319,351,361,351,54,204,198,208,71,0,0,309,179,183,41,139,58,152,305,67,31,15,311,367,286,0,92,36,0,223,0,0,133,0,0,0,0,0,153,0,0,28,125,206,0,0,0,0,352,0,0,0,0,0,0,0,0,0,0,0,0,0,0,0,0,0,0],"split_type":[0,0,0,0,0,0,0,0,0,0,0,0,0,0,0,0,0,0,0,0,0,0,0,0,0,0,0,0,0,0,0,0,0,0,0,0,0,0,0,0,0,0,0,0,0,0,0,0,0,0,0,0,0,0,0,0,0,0,0,0,0,0,0,0,0,0,0],"sum_hessian":[4.8091514E3,3.0099788E3,1.7991726E3,3.00616E3,3.8189762E0,3.3488324E2,1.4642894E3,2.9739001E3,3.2259754E1,1.1762915E0,2.6426847E0,1.5260112E2,1.8228214E2,3.3280037E1,1.4310093E3,7.569747E0,2.9663303E3,5.727743E0,2.653201E1,1.3821625E2,1.4384873E1,2.528112E1,1.5700102E2,3.0500349E1,2.7796884E0,9.594848E0,1.4214146E3,5.8802514E0,1.6894959E0,2.9651594E3,1.1710856E0,1.4991801E0,4.2285633E0,2.498045E1,1.5515587E0,1.2326179E0,1.3698363E2,1.1750395E0,1.3209834E1,1.9067661E1,6.2134585E0,4.596421E0,1.5240459E2,2.9254965E1,1.2453852E0,1.0004146E0,1.7792736E0,1.4145746E3,6.8398714E0,4.7302933E0,1.1499579E0,2.9631604E3,1.9989069E0,1.0233128E0,3.2052505E0,1.1873823E0,1.2022451E1,1.6944594E0,2.9019613E0,1.50888E2,1.5165982E0,1.2477353E0,2.8007229E1,2.5970027E0,1.4119777E3,1.2118833E0,5.6279883E0],"tree_param":{"num_deleted":"0","num_feature":"384","num_nodes":"67","size_leaf_vector":"1"}},{"base_weights":[9.0461195E-1,-6.292684E-1,1.756241E0,-9.362757E-1,1.0103673E0,1.8235714E0,-4.502647E-1,-1.0094798E0,9.45659E-2,-8.512395E-1,1.8440207E0,1.8520253E0,1.8431488E-1,-1.1228361E0,1.5527923E0,-1.0540869E0,1.5512695E0,-1.1122E0,1.7215269E0,1.6111498E-1,1.8848058E0,7.017282E-1,1.8557143E0,9.251713E-2,-1.0918878E0,-1.2061006E-2,-5.7059336E-2,1.6894118E0,-1.7729772E-2,1.7254751E0,-1.0862973E0,-2.9445201E-2,1.7442867E0,1.892784E-2,-5.7009876E-2,-7.005704E-3,1.0242893E-1,-5.5154502E-2,5.5869825E-2,1.8180497E-2,1.900297E0,1.2020826E0,-4.625416E-2,1.8593729E0,9.288878E-1,-5.574928E-2,-1.0601867E-2,8.942205E-2,8.622161E-3,9.7731225E-2,-3.7672635E-2,8.566032E-2,-5.545311E-2,-3.3968457E-3,9.2719235E-2,3.989886E-2,9.5472544E-2,8.41339E-2,-3.0645877E-2,5.4297913E-2,9.313404E-2,6.7401886E-2,-3.701779E-2],"categories":[],"categories_nodes":[],"categories_segments":[],"categories_sizes":[],"default_left":[0,0,0,0,0,0,0,0,0,0,0,0,0,0,0,0,0,0,0,0,0,0,0,0,0,0,0,0,0,0,0,0,0,0,0,0,0,0,0,0,0,0,0,0,0,0,0,0,0,0,0,0,0,0,0,0,0,0,0,0,0,0,0],"id":10,"left_children":[1,3,5,7,9,11,13,15,-1,17,19,21,23,25,27,29,31,33,35,37,39,41,43,-1,45,-1,-1,47,-1,49,51,-1,53,-1,-1,-1,-1,-1,-1,-1,55,57,-1,59,61,-1,-1,-1,-1,-1,-1,-1,-1,-1,-1,-1,-1,-1,-1,-1,-1,-1,-1],"loss_changes":[6.1706724E3,8.50059E2,4.5204395E2,2.961012E2,4.1518088E2,1.3711328E2,1.23969864E2,1.5996143E2,0E0,5.770917E1,1.2332214E1,1.096582E1,1.1132177E2,8.1921387E-1,6.663887E0,1.23895996E2,1.1007732E1,3.614174E0,5.2030125E0,7.836336E0,3.5265503E0,9.968992E0,8.033203E0,0E0,3.5455322E-1,0E0,0E0,2.954193E0,0E0,1.0571388E1,8.78009E1,0E0,4.61174E0,0E0,0E0,0E0,0E0,0E0,0E0,0E0,2.4401855E-1,8.68197E0,0E0,5.3027344E0,1.0352162E1,0E0,0E0,0E0,0E0,0E0,0E0,0E0,0E0,0E0,0E0,0E0,0E0,0E0,0E0,0E0,0E0,0E0,0E0],"parents":[2147483647,0,0,1,1,2,2,3,3,4,4,5,5,6,6,7,7,9,9,10,10,11,11,12,12,13,13,14,14,15,15,16,16,17,17,18,18,19,19,20,20,21,21,22,22,24,24,27,27,29,29,30,30,32,32,40,40,41,41,43,43,44,44],"right_children":[2,4,6,8,10,12,14,16,-1,18,20,22,24,26,28,30,32,34,36,38,40,42,44,-1,46,-1,-1,48,-1,50,52,-1,54,-1,-1,-1,-1,-1,-1,-1,56,58,-1,60,62,-1,-1,-1,-1,-1,-1,-1,-1,-1,-1,-1,-1,-1,-1,-1,-1,-1,-1],"split_conditions":[-3.228609E-33,2.6818601E-2,5.965257E-2,4.9970783E-2,-2.4301482E-2,8.2362294E-2,-6.176813E-2,4.4201083E-2,9.45659E-2,-3.3442482E-2,-2.7487408E-2,-1.16535485E-1,3.0054025E-2,-2.3919992E-2,5.2645173E-2,-3.9314635E-2,-1.9468386E-2,2.3274548E-2,-6.966141E-2,3.656886E-2,-7.027449E-2,2.5183833E-3,6.0867894E-2,9.251713E-2,-2.6623506E-2,-1.2061006E-2,-5.7059336E-2,2.1325586E-2,-1.7729772E-2,4.4825643E-2,-8.5428245E-2,-2.9445201E-2,-6.593405E-2,1.892784E-2,-5.7009876E-2,-7.005704E-3,1.0242893E-1,-5.5154502E-2,5.5869825E-2,1.8180497E-2,-1.1175328E-1,9.522892E-3,-4.625416E-2,-8.136516E-2,6.767563E-2,-5.574928E-2,-1.0601867E-2,8.942205E-2,8.622161E-3,9.7731225E-2,-3.7672635E-2,8.566032E-2,-5.545311E-2,-3.3968457E-3,9.2719235E-2,3.989886E-2,9.5472544E-2,8.41339E-2,-3.0645877E-2,5.4297913E-2,9.313404E-2,6.7401886E-2,-3.701779E-2],"split_indices":[127,118,46,279,117,111,19,92,0,37,381,208,46,370,351,336,381,286,64,294,366,125,52,0,383,0,0,231,0,98,124,0,115,0,0,0,0,0,0,0,348,18,0,20,6,0,0,0,0,0,0,0,0,0,0,0,0,0,0,0,0,0,0],"split_type":[0,0,0,0,0,0,0,0,0,0,0,0,0,0,0,0,0,0,0,0,0,0,0,0,0,0,0,0,0,0,0,0,0,0,0,0,0,0,0,0,0,0,0,0,0,0,0,0,0,0,0,0,0,0,0,0,0,0,0,0,0,0,0],"sum_hessian":[4.721935E3,1.6858241E3,3.0361108E3,1.4203173E3,2.655068E2,2.9463813E3,8.972946E1,1.3851045E3,3.521271E1,8.211196E1,1.8339485E2,2.8959778E3,5.0403618E1,6.750693E1,2.2222538E1,1.3619719E3,2.313266E1,7.5069145E1,7.042815E0,4.4623275E0,1.7893253E2,9.877625E0,2.8861E3,2.1671007E1,2.8732613E1,1.6760209E0,6.58309E1,2.0848738E1,1.3737988E0,1.4996379E1,1.3469755E3,1.739726E0,2.1392935E1,1.1464552E0,7.392269E1,1.1332345E0,5.90958E0,1.8511406E0,2.611187E0,2.0570085E0,1.7687552E2,7.758569E0,2.1190567E0,2.8737395E3,1.2360793E1,2.772614E1,1.0064735E0,1.9396936E1,1.4518015E0,1.392473E1,1.0716487E0,1.0262404E1,1.3367131E3,1.2419788E0,2.0150955E1,2.1918914E0,1.7468362E2,6.196268E0,1.5623004E0,1.3653993E1,2.8600854E3,1.003852E1,2.3222733E0],"tree_param":{"num_deleted":"0","num_feature":"384","num_nodes":"63","size_leaf_vector":"1"}},{"base_weights":[8.7318593E-1,-6.2703544E-1,1.6839769E0,-9.2707723E-1,9.78944E-1,1.7490159E0,-4.2855036E-1,-1.0006814E0,8.9940615E-2,-8.317574E-1,1.7803926E0,1.7695457E0,-2.1797805E-1,-1.1009535E0,1.512077E0,-1.0467796E0,1.5903829E0,-1.1192995E0,1.5587708E0,-2.9157314E-1,1.8149958E0,1.7748951E0,-4.8158146E-2,-5.4672994E-2,8.112034E-2,-5.6480568E-2,1.2161218E-2,-3.797433E-1,8.537924E-2,1.6869127E0,-1.081688E0,1.9732732E-1,1.7701702E0,-1.2101005E-2,-5.6524485E-2,9.7508244E-2,-2.9599274E-2,-5.2304614E-2,3.680132E-2,9.119209E-2,2.9293347E-2,8.9767647E-1,1.7826223E0,-3.409083E-2,5.534957E-3,9.832598E-2,-7.287394E-3,7.948345E-2,-5.5250406E-2,5.4189812E-2,-4.0876813E-2,9.234271E-2,8.383562E-3,6.540303E-2,-3.605039E-2,8.942097E-2,6.676356E-2],"categories":[],"categories_nodes":[],"categories_segments":[],"categories_sizes":[],"default_left":[0,0,0,0,0,0,0,0,0,0,0,0,0,0,0,0,0,0,0,0,0,0,0,0,0,0,0,0,0,0,0,0,0,0,0,0,0,0,0,0,0,0,0,0,0,0,0,0,0,0,0,0,0,0,0,0,0],"id":11,"left_children":[1,3,5,7,9,11,13,15,-1,17,19,21,23,25,27,29,31,33,35,37,39,41,-1,-1,-1,-1,-1,43,-1,45,47,49,51,-1,-1,-1,-1,-1,-1,-1,-1,53,55,-1,-1,-1,-1,-1,-1,-1,-1,-1,-1,-1,-1,-1,-1],"loss_changes":[5.6207383E3,7.822993E2,4.1287695E2,2.760348E2,3.7263376E2,1.17913086E2,1.1960274E2,1.6070679E2,0E0,5.6143875E1,1.3278137E1,4.382129E1,5.16265E1,2.891838E0,9.418671E0,1.2672534E2,5.559086E0,4.1197205E-1,8.670204E0,3.6993825E0,8.082886E-1,1.7860352E1,0E0,0E0,0E0,0E0,0E0,5.3021085E-1,0E0,8.959972E0,8.230127E1,4.340994E0,2.2301407E0,0E0,0E0,0E0,0E0,0E0,0E0,0E0,0E0,1.8970062E1,4.9677734E0,0E0,0E0,0E0,0E0,0E0,0E0,0E0,0E0,0E0,0E0,0E0,0E0,0E0,0E0],"parents":[2147483647,0,0,1,1,2,2,3,3,4,4,5,5,6,6,7,7,9,9,10,10,11,11,12,12,13,13,14,14,15,15,16,16,17,17,18,18,19,19,20,20,21,21,27,27,29,29,30,30,31,31,32,32,41,41,42,42],"right_children":[2,4,6,8,10,12,14,16,-1,18,20,22,24,26,28,30,32,34,36,38,40,42,-1,-1,-1,-1,-1,44,-1,46,48,50,52,-1,-1,-1,-1,-1,-1,-1,-1,54,56,-1,-1,-1,-1,-1,-1,-1,-1,-1,-1,-1,-1,-1,-1],"split_conditions":[-3.228609E-33,2.6818601E-2,5.965257E-2,4.9970783E-2,-2.4301482E-2,1.2338766E-1,-6.176813E-2,4.4201083E-2,8.9940615E-2,-3.007706E-2,-3.8887415E-2,1.2964953E-1,-7.936186E-2,-5.8712658E-2,-6.7429245E-2,-3.9314635E-2,-3.331335E-2,-3.8297042E-2,2.3645839E-2,4.067539E-2,2.9526414E-2,-5.7613414E-2,-4.8158146E-2,-5.4672994E-2,8.112034E-2,-5.6480568E-2,1.2161218E-2,-3.2557823E-2,8.537924E-2,3.531954E-2,-4.7110844E-2,-8.220228E-3,7.915877E-2,-1.2101005E-2,-5.6524485E-2,9.7508244E-2,-2.9599274E-2,-5.2304614E-2,3.680132E-2,9.119209E-2,2.9293347E-2,6.835122E-2,7.5889856E-2,-3.409083E-2,5.534957E-3,9.832598E-2,-7.287394E-3,7.948345E-2,-5.5250406E-2,5.4189812E-2,-4.0876813E-2,9.234271E-2,8.383562E-3,6.540303E-2,-3.605039E-2,8.942097E-2,6.676356E-2],"split_indices":[127,118,46,279,117,360,19,92,0,287,250,111,19,16,71,336,117,42,327,380,91,117,0,0,0,0,0,69,0,301,269,77,361,0,0,0,0,0,0,0,0,99,351,0,0,0,0,0,0,0,0,0,0,0,0,0,0],"split_type":[0,0,0,0,0,0,0,0,0,0,0,0,0,0,0,0,0,0,0,0,0,0,0,0,0,0,0,0,0,0,0,0,0,0,0,0,0,0,0,0,0,0,0,0,0,0,0,0,0,0,0,0,0,0,0,0,0],"sum_hessian":[4.619051E3,1.6206135E3,2.998437E3,1.3658615E3,2.547521E2,2.9090518E3,8.938515E1,1.3305701E3,3.5291344E1,7.8146515E1,1.7660559E2,2.879108E3,2.9944033E1,6.670911E1,2.2676037E1,1.3079008E3,2.2669317E1,7.0234406E1,7.9121084E0,2.7742372E0,1.7383134E2,2.8738364E3,5.2715096E0,2.0570034E1,9.373999E0,6.548014E1,1.2289686E0,2.030878E0,2.064516E1,1.5890579E1,1.2920103E3,2.8373904E0,1.9831926E1,1.1808463E0,6.905356E1,6.7767863E0,1.1353225E0,1.5949061E0,1.1793311E0,1.7210075E2,1.7305957E0,2.6128633E1,2.8477078E3,1.0279351E0,1.0029428E0,1.3728459E1,2.1621199E0,1.0596212E1,1.2814141E3,1.4835025E0,1.3538879E0,1.8774778E1,1.0571489E0,2.1002068E1,5.126566E0,2.808296E3,3.941175E1],"tree_param":{"num_deleted":"0","num_feature":"384","num_nodes":"57","size_leaf_vector":"1"}},{"base_weights":[8.517796E-1,-6.065948E-1,1.6182836E0,-9.064019E-1,9.4434816E-1,1.701696E0,8.633524E-2,-9.814535E-1,8.629274E-2,-8.442463E-1,1.710061E0,-3.3076465E-1,1.7092991E0,-1.0398527E0,1.4996735E0,-1.0336365E0,1.4886651E0,-1.0922797E0,1.6598651E0,-3.0132962E-2,1.7291112E0,-5.17501E-2,6.488466E-2,1.0440649E0,1.715649E0,-5.6334138E-2,9.3025076E-1,-3.1454682E-1,1.6821662E0,1.5700297E0,-1.0681124E0,1.6193442E0,-4.3474454E-2,-5.6313496E-2,3.0797226E-2,1.28833875E-2,9.336368E-2,1.962871E-2,1.7384825E0,1.4333487E0,-3.381832E-2,1.2605397E0,1.7193611E0,2.580364E-3,5.9629377E-2,-5.4741886E-2,7.82711E-1,8.558533E-2,2.175512E-2,-3.957049E-2,9.054809E-2,7.786957E-2,-5.4686423E-2,-1.4779662E-2,8.628796E-2,1.9703971E-2,8.736522E-2,-6.5770694E-3,8.0445096E-2,-4.6040047E-2,4.6360724E-2,8.376778E-2,-9.929321E-3,5.5878904E-2,8.6074196E-2,5.6617685E-2,-0E0],"categories":[],"categories_nodes":[],"categories_segments":[],"categories_sizes":[],"default_left":[0,0,0,0,0,0,0,0,0,0,0,0,0,0,0,0,0,0,0,0,0,0,0,0,0,0,0,0,0,0,0,0,0,0,0,0,0,0,0,0,0,0,0,0,0,0,0,0,0,0,0,0,0,0,0,0,0,0,0,0,0,0,0,0,0,0,0],"id":12,"left_children":[1,3,5,7,9,11,13,15,-1,17,19,21,23,25,27,29,31,33,35,-1,37,-1,-1,39,41,-1,43,45,47,49,51,53,-1,-1,-1,-1,-1,-1,55,57,59,61,63,-1,-1,-1,65,-1,-1,-1,-1,-1,-1,-1,-1,-1,-1,-1,-1,-1,-1,-1,-1,-1,-1,-1,-1],"loss_changes":[5.105275E3,7.3266284E2,3.82333E2,2.623407E2,3.5128082E2,4.4445312E1,2.4927191E2,1.6697046E2,0E0,4.977986E1,8.948303E0,1.44284725E1,1.0128906E1,1.5966537E1,2.352916E1,1.1455078E2,9.723217E0,4.8145294E0,1.6364136E0,0E0,1.5256958E0,0E0,0E0,1.2361467E1,2.5332031E0,0E0,8.996024E-1,7.009955E0,1.5636292E0,1.1021362E1,8.52074E1,5.801628E0,0E0,0E0,0E0,0E0,0E0,0E0,1.3827515E0,6.1504555E0,8.3100395E0,1.6340157E1,1.5917969E0,0E0,0E0,0E0,9.744613E-1,0E0,0E0,0E0,0E0,0E0,0E0,0E0,0E0,0E0,0E0,0E0,0E0,0E0,0E0,0E0,0E0,0E0,0E0,0E0,0E0],"parents":[2147483647,0,0,1,1,2,2,3,3,4,4,5,5,6,6,7,7,9,9,10,10,11,11,12,12,13,13,14,14,15,15,16,16,17,17,18,18,20,20,23,23,24,24,26,26,27,27,28,28,29,29,30,30,31,31,38,38,39,39,40,40,41,41,42,42,46,46],"right_children":[2,4,6,8,10,12,14,16,-1,18,20,22,24,26,28,30,32,34,36,-1,38,-1,-1,40,42,-1,44,46,48,50,52,54,-1,-1,-1,-1,-1,-1,56,58,60,62,64,-1,-1,-1,66,-1,-1,-1,-1,-1,-1,-1,-1,-1,-1,-1,-1,-1,-1,-1,-1,-1,-1,-1,-1],"split_conditions":[-3.228609E-33,2.6818601E-2,4.4868976E-2,4.9970783E-2,-2.4301482E-2,-1.0097388E-1,-3.3580683E-2,4.4201083E-2,8.629274E-2,-3.3442482E-2,-7.335358E-2,1.7535469E-2,-5.7613414E-2,-1.3794468E-2,-6.7429245E-2,-4.7110844E-2,8.2164414E-2,4.1101195E-2,-5.0169658E-2,-3.0132962E-2,-5.494095E-2,-5.17501E-2,6.488466E-2,4.4653602E-2,-8.750709E-2,-5.6334138E-2,-6.133352E-3,-2.286999E-3,5.661601E-2,-4.935559E-2,-4.0210187E-2,-6.725748E-2,-4.3474454E-2,-5.6313496E-2,3.0797226E-2,1.28833875E-2,9.336368E-2,1.962871E-2,-1.1175328E-1,-6.1596412E-2,-1.8675515E-2,-1.8406782E-2,-6.900176E-2,2.580364E-3,5.9629377E-2,-5.4741886E-2,-4.4348845E-3,8.558533E-2,2.175512E-2,-3.957049E-2,9.054809E-2,7.786957E-2,-5.4686423E-2,-1.4779662E-2,8.628796E-2,1.9703971E-2,8.736522E-2,-6.5770694E-3,8.0445096E-2,-4.6040047E-2,4.6360724E-2,8.376778E-2,-9.929321E-3,5.5878904E-2,8.6074196E-2,5.6617685E-2,-0E0],"split_indices":[127,118,46,279,117,31,100,92,0,37,164,276,117,276,71,269,78,317,101,0,267,0,0,229,71,0,19,69,278,381,336,252,0,0,0,0,0,0,348,148,61,103,196,0,0,0,106,0,0,0,0,0,0,0,0,0,0,0,0,0,0,0,0,0,0,0,0],"split_type":[0,0,0,0,0,0,0,0,0,0,0,0,0,0,0,0,0,0,0,0,0,0,0,0,0,0,0,0,0,0,0,0,0,0,0,0,0,0,0,0,0,0,0,0,0,0,0,0,0,0,0,0,0,0,0,0,0,0,0,0,0,0,0,0,0,0,0],"sum_hessian":[4.5651616E3,1.5728342E3,2.9923276E3,1.318401E3,2.5443321E2,2.8377014E3,1.5462622E2,1.282466E3,3.593505E1,7.623759E1,1.7819563E2,1.0412404E1,2.827289E3,8.619822E1,6.8428E1,1.256507E3,2.5958982E1,6.988341E1,6.3541822E0,1.201263E0,1.7699437E2,7.527609E0,2.8847954E0,2.8311073E1,2.7989778E3,8.297441E1,3.2238126E0,6.182941E0,6.2245064E1,1.5834547E1,1.2406725E3,2.4896845E1,1.0621392E0,6.8859764E1,1.0236397E0,1.1139295E0,5.2402525E0,1.5384545E0,1.7545592E2,2.0563824E1,7.747248E0,2.542245E1,2.7735554E3,1.0251434E0,2.1986692E0,3.6199863E0,2.5629547E0,6.0432926E1,1.8121396E0,1.2506171E0,1.458393E1,1.1406232E1,1.2292662E3,1.2121675E0,2.3684677E1,1.4489287E0,1.7400699E2,2.0937529E0,1.8470072E1,4.056022E0,3.691226E0,1.9684883E1,5.737566E0,1.1619882E1,2.7619355E3,1.4623274E0,1.1006273E0],"tree_param":{"num_deleted":"0","num_feature":"384","num_nodes":"67","size_leaf_vector":"1"}},{"base_weights":[8.278556E-1,1.6442561E0,-6.922301E-1,3.4211412E-1,1.6488637E0,4.4835716E-1,-9.813327E-1,-8.015234E-1,1.3883066E0,-2.7535329E-2,1.6506253E0,-8.324931E-1,1.3483176E0,1.5178652E0,-1.0519787E0,-5.219823E-2,1.0631969E-2,7.737332E-2,1.7576857E-2,8.519786E-1,1.6528648E0,-1.1141517E0,1.4286191E0,-8.230143E-1,1.683291E0,1.7053369E0,-4.282684E-2,8.797027E-2,-1.0729445E0,1.43074E0,-3.6465865E-2,3.7262407E-1,1.6539825E0,-1.1729082E-2,-5.60804E-2,-3.350177E-2,1.6319556E0,6.9542944E-2,-5.4352432E-2,1.7174758E0,5.9672125E-2,1.7863476E0,-1.1991704E-2,9.225071E-2,-1.0882274E0,1.803932E-2,7.7703916E-2,-3.6716286E-2,5.6423396E-2,1.7042208E-2,8.2732186E-2,1.985918E-2,8.515673E-2,-6.86983E-3,8.678602E-2,-4.512253E-2,5.8683183E-2,2.7836114E-2,9.097934E-2,-5.4997038E-2,8.013039E-2],"categories":[],"categories_nodes":[],"categories_segments":[],"categories_sizes":[],"default_left":[0,0,0,0,0,0,0,0,0,0,0,0,0,0,0,0,0,0,0,0,0,0,0,0,0,0,0,0,0,0,0,0,0,0,0,0,0,0,0,0,0,0,0,0,0,0,0,0,0,0,0,0,0,0,0,0,0,0,0,0,0],"id":13,"left_children":[1,3,5,7,9,11,13,15,17,-1,19,21,23,25,27,-1,-1,-1,-1,29,31,33,35,37,39,41,-1,-1,43,45,-1,47,49,-1,-1,-1,51,-1,-1,53,55,57,-1,-1,59,-1,-1,-1,-1,-1,-1,-1,-1,-1,-1,-1,-1,-1,-1,-1,-1],"loss_changes":[5.5346436E3,1.6821777E1,5.144223E2,1.4876894E1,1.2121094E1,3.6523566E2,2.2120105E2,1.7358205E0,4.8913097E-1,0E0,3.7333984E0,8.499486E1,1.3661017E2,1.68703E1,7.3215576E1,0E0,0E0,0E0,0E0,1.034312E1,3.4838867E0,4.9079895E-1,7.4788837E0,1.6422995E1,8.837402E0,5.5503006E0,0E0,0E0,5.5598877E1,4.462576E-1,0E0,4.0206127E0,1.9135742E0,0E0,0E0,0E0,5.256729E-1,0E0,0E0,5.602112E0,5.7456336E0,2.3977661E-1,0E0,0E0,3.9462646E1,0E0,0E0,0E0,0E0,0E0,0E0,0E0,0E0,0E0,0E0,0E0,0E0,0E0,0E0,0E0,0E0],"parents":[2147483647,0,0,1,1,2,2,3,3,4,4,5,5,6,6,7,7,8,8,10,10,11,11,12,12,13,13,14,14,19,19,20,20,21,21,22,22,23,23,24,24,25,25,28,28,29,29,31,31,32,32,36,36,39,39,40,40,41,41,44,44],"right_children":[2,4,6,8,10,12,14,16,18,-1,20,22,24,26,28,-1,-1,-1,-1,30,32,34,36,38,40,42,-1,-1,44,46,-1,48,50,-1,-1,-1,52,-1,-1,54,56,58,-1,-1,60,-1,-1,-1,-1,-1,-1,-1,-1,-1,-1,-1,-1,-1,-1,-1,-1],"split_conditions":[-2.1609E-8,-9.226094E-2,1.7831037E-2,-3.7003703E-2,-1.1565041E-1,-4.727908E-2,-6.3330755E-2,1.0855078E-1,1.7572971E-3,-2.7535329E-2,-9.014374E-2,-5.1199753E-2,-9.323776E-2,5.476002E-2,-8.500142E-2,-5.219823E-2,1.0631969E-2,7.737332E-2,1.7576857E-2,-3.173171E-8,-9.162522E-2,-2.2869024E-2,-2.214882E-2,-1.9954707E-2,6.0365234E-2,3.913257E-2,-4.282684E-2,8.797027E-2,-1.053066E-1,-6.2303998E-2,-3.6465865E-2,-3.8060993E-2,-1.1089601E-1,-1.1729082E-2,-5.60804E-2,-3.350177E-2,-1.9668525E-2,6.9542944E-2,-5.4352432E-2,-6.545233E-2,-6.64509E-3,-3.903046E-2,-1.1991704E-2,9.225071E-2,8.8381186E-2,1.803932E-2,7.7703916E-2,-3.6716286E-2,5.6423396E-2,1.7042208E-2,8.2732186E-2,1.985918E-2,8.515673E-2,-6.86983E-3,8.678602E-2,-4.512253E-2,5.8683183E-2,2.7836114E-2,9.097934E-2,-5.4997038E-2,8.013039E-2],"split_indices":[319,273,361,71,288,204,198,176,100,0,92,309,109,183,85,0,0,0,0,319,117,353,358,18,183,219,0,0,91,64,0,92,15,0,0,0,291,0,0,273,85,214,0,0,380,0,0,0,0,0,0,0,0,0,0,0,0,0,0,0,0],"split_type":[0,0,0,0,0,0,0,0,0,0,0,0,0,0,0,0,0,0,0,0,0,0,0,0,0,0,0,0,0,0,0,0,0,0,0,0,0,0,0,0,0,0,0,0,0,0,0,0,0,0,0,0,0,0,0,0,0,0,0,0,0],"sum_hessian":[4.457905E3,2.9002024E3,1.5577023E3,1.0499097E1,2.8897034E3,3.1487006E2,1.2428323E3,5.123112E0,5.3759847E0,2.058606E0,2.8876448E3,1.2996454E2,1.849055E2,3.359888E1,1.2092334E3,4.118933E0,1.0041794E0,4.225133E0,1.1508517E0,9.15375E0,2.878491E3,1.1602358E2,1.394096E1,2.451432E1,1.6039119E2,3.140526E1,2.1936197E0,8.333764E0,1.2008997E3,6.7754426E0,2.378308E0,2.8103023E0,2.8756807E3,1.259431E0,1.1476415E2,1.024333E0,1.2916627E1,2.1533475E0,2.2360971E1,1.570212E2,3.3699975E0,3.0232937E1,1.1723228E0,5.629779E0,1.1952698E3,1.1143925E0,5.66105E0,1.1464866E0,1.6638156E0,1.7145404E0,2.873966E3,1.0702975E0,1.184633E1,1.4604615E0,1.5556073E2,1.9053333E0,1.4646643E0,1.2708237E0,2.8962112E1,1.1906816E3,4.588177E0],"tree_param":{"num_deleted":"0","num_feature":"384","num_nodes":"61","size_leaf_vector":"1"}},{"base_weights":[8.090803E-1,1.5919589E0,-6.8354243E-1,4.6622673E-1,1.5962888E0,4.5283967E-1,-9.6778804E-1,-5.8478093E-1,7.3328756E-2,-2.692889E-2,1.5979979E0,-8.3088946E-1,1.3709464E0,1.468667E0,-1.0067842E0,2.9567352E-2,-5.2082982E-2,8.0879545E-1,1.6001576E0,7.988931E-2,-1.0917088E0,1.6326253E0,-7.6913047E-1,-3.836298E-2,1.6970454E0,1.4114631E0,-1.0469534E0,7.134848E-2,-5.6598134E-2,8.4858996E-1,1.6019853E0,-5.5800457E-2,3.6745284E-2,-3.5662856E-2,1.6536188E0,6.491672E-2,-5.3479135E-2,9.0121254E-2,1.8464823E-3,-2.7615142E-1,1.6724287E0,1.6967276E0,-1.0669717E0,6.9089316E-2,-2.791035E-2,1.8983116E-2,8.01292E-2,1.9727083E-2,8.443606E-2,2.742443E-2,-4.149573E-2,8.923741E-3,8.805087E-2,-1.31573705E-2,1.004551E-1,8.5352235E-2,-5.3972304E-2],"categories":[],"categories_nodes":[],"categories_segments":[],"categories_sizes":[],"default_left":[0,0,0,0,0,0,0,0,0,0,0,0,0,0,0,0,0,0,0,0,0,0,0,0,0,0,0,0,0,0,0,0,0,0,0,0,0,0,0,0,0,0,0,0,0,0,0,0,0,0,0,0,0,0,0,0,0],"id":14,"left_children":[1,3,5,7,9,11,13,15,-1,-1,17,19,21,23,25,-1,-1,27,29,-1,31,33,35,-1,37,39,41,-1,-1,43,45,-1,-1,-1,47,-1,-1,-1,-1,49,51,53,55,-1,-1,-1,-1,-1,-1,-1,-1,-1,-1,-1,-1,-1,-1],"loss_changes":[5.0979478E3,1.3182129E1,4.8539032E2,1.3887622E1,1.1271484E1,3.5598218E2,1.1560889E2,4.247362E0,0E0,0E0,3.5351562E0,8.165158E1,9.977734E1,1.118013E1,1.1638342E2,0E0,0E0,1.3383804E1,2.5166016E0,0E0,5.907135E0,8.924286E0,1.3711585E1,0E0,3.0378914E0,9.174042E0,6.574524E1,0E0,0E0,7.5510664E0,1.4428711E0,0E0,0E0,0E0,6.2068176E0,0E0,0E0,0E0,0E0,2.0554993E0,1.9495773E0,5.9427853E0,4.1851562E1,0E0,0E0,0E0,0E0,0E0,0E0,0E0,0E0,0E0,0E0,0E0,0E0,0E0,0E0],"parents":[2147483647,0,0,1,1,2,2,3,3,4,4,5,5,6,6,7,7,10,10,11,11,12,12,13,13,14,14,17,17,18,18,20,20,21,21,22,22,24,24,25,25,26,26,29,29,30,30,34,34,39,39,40,40,41,41,42,42],"right_children":[2,4,6,8,10,12,14,16,-1,-1,18,20,22,24,26,-1,-1,28,30,-1,32,34,36,-1,38,40,42,-1,-1,44,46,-1,-1,-1,48,-1,-1,-1,-1,50,52,54,56,-1,-1,-1,-1,-1,-1,-1,-1,-1,-1,-1,-1,-1,-1],"split_conditions":[-2.1609E-8,-9.226094E-2,1.4325282E-2,-3.7003703E-2,-1.1565041E-1,-4.727908E-2,-5.0545897E-2,6.076365E-3,7.3328756E-2,-2.692889E-2,-9.198058E-2,-3.4064602E-2,5.5096004E-2,-4.935559E-2,-4.2026296E-2,2.9567352E-2,-5.2082982E-2,-1.0672529E-2,-1.16535485E-1,7.988931E-2,-3.299647E-3,-1.1528034E-1,-5.6979875E-3,-3.836298E-2,4.1627042E-2,-4.8802428E-2,-5.05821E-2,7.134848E-2,-5.6598134E-2,5.3517666E-2,-1.1121275E-1,-5.5800457E-2,3.6745284E-2,-3.5662856E-2,-7.9308294E-2,6.491672E-2,-5.3479135E-2,9.0121254E-2,1.8464823E-3,-1.3980847E-2,-3.482896E-2,-1.7984593E-2,-8.163603E-2,6.9089316E-2,-2.791035E-2,1.8983116E-2,8.01292E-2,1.9727083E-2,8.443606E-2,2.742443E-2,-4.149573E-2,8.923741E-3,8.805087E-2,-1.31573705E-2,1.004551E-1,8.5352235E-2,-5.3972304E-2],"split_indices":[319,273,361,71,288,204,106,103,0,0,43,353,13,381,326,0,0,18,208,0,290,17,203,0,348,352,269,0,0,158,164,0,0,0,71,0,0,0,0,215,20,322,181,0,0,0,0,0,0,0,0,0,0,0,0,0,0],"split_type":[0,0,0,0,0,0,0,0,0,0,0,0,0,0,0,0,0,0,0,0,0,0,0,0,0,0,0,0,0,0,0,0,0,0,0,0,0,0,0,0,0,0,0,0,0,0,0,0,0,0,0,0,0,0,0,0,0],"sum_hessian":[4.360717E3,2.8603875E3,1.5003292E3,1.1384917E1,2.8490024E3,3.00067E2,1.2002622E3,5.749588E0,5.6353297E0,2.0231452E0,2.8469792E3,1.2515498E2,1.7491199E2,1.8326351E1,1.1819359E3,1.5201384E0,4.2294493E0,8.806881E0,2.8381724E3,1.1636337E1,1.1351865E2,1.5607022E2,1.8841764E1,1.4756545E0,1.6850697E1,1.8750336E1,1.1631855E3,6.884049E0,1.9228325E0,8.027486E0,2.830145E3,1.1241761E2,1.1010402E0,1.0875953E0,1.5498264E2,1.9650892E0,1.6876677E1,1.57586355E1,1.0920606E0,2.498233E0,1.6252102E1,7.8149433E0,1.1553706E3,5.8392234E0,2.1882627E0,1.7044426E0,2.8284404E3,4.5433455E0,1.5043929E2,1.0002182E0,1.4980149E0,1.0848465E0,1.5167255E1,1.0916116E0,6.7233315E0,4.5605664E0,1.15081E3],"tree_param":{"num_deleted":"0","num_feature":"384","num_nodes":"57","size_leaf_vector":"1"}},{"base_weights":[7.797402E-1,-5.926939E-1,1.4723158E0,-8.862752E-1,8.620532E-1,1.5250176E0,-4.038079E-1,-9.576424E-1,7.786065E-2,-7.745947E-1,1.5451375E0,1.5416548E0,-1.8441607E-1,-1.0709867E0,1.2858646E0,1.3891308E0,-1.0045763E0,-1.0686575E0,1.439024E0,8.2369804E-2,1.5676849E0,1.546557E0,-4.6541303E-2,7.0732355E-2,-5.2804857E-2,-5.5124987E-2,1.158086E-2,-3.899068E-1,1.4716249E0,1.5621771E0,-1.8237837E-2,-1.0389448E0,1.3656821E0,-5.52131E-2,2.7223567E-2,-1.2532172E-2,8.563506E-2,-4.508945E-2,4.7451477E-2,1.5823553E0,-1.833362E-2,1.5564528E0,9.4085336E-1,3.4362457E-3,-3.304426E-2,7.5468935E-2,1.8320447E-2,1.7305931E-2,8.1655756E-2,6.3903525E-2,-5.2909285E-2,-3.643617E-2,7.8324646E-2,1.6928189E-2,7.952354E-2,7.80327E-2,5.734661E-2,-1.1125417E-2,6.8042696E-2],"categories":[],"categories_nodes":[],"categories_segments":[],"categories_sizes":[],"default_left":[0,0,0,0,0,0,0,0,0,0,0,0,0,0,0,0,0,0,0,0,0,0,0,0,0,0,0,0,0,0,0,0,0,0,0,0,0,0,0,0,0,0,0,0,0,0,0,0,0,0,0,0,0,0,0,0,0,0,0],"id":15,"left_children":[1,3,5,7,9,11,13,15,-1,17,19,21,23,25,27,29,31,33,35,37,39,41,-1,-1,-1,-1,-1,43,45,47,-1,49,51,-1,-1,-1,-1,-1,-1,53,-1,55,57,-1,-1,-1,-1,-1,-1,-1,-1,-1,-1,-1,-1,-1,-1,-1,-1],"loss_changes":[4.016569E3,6.062154E2,2.782798E2,2.0727344E2,2.6789752E2,7.798535E1,8.875587E1,1.2774963E2,0E0,4.76907E1,5.416504E0,3.423633E1,3.9426983E1,2.5677261E0,7.5551987E0,7.5348015E0,9.308557E1,4.2349854E0,4.4841347E0,3.9458122E0,5.30365E0,1.4696777E1,0E0,0E0,0E0,0E0,0E0,4.2662597E-1,2.782669E-1,1.2305145E0,0E0,5.082617E1,8.094313E0,0E0,0E0,0E0,0E0,0E0,0E0,1.1074524E0,0E0,2.7519531E0,2.2767876E1,0E0,0E0,0E0,0E0,0E0,0E0,0E0,0E0,0E0,0E0,0E0,0E0,0E0,0E0,0E0,0E0],"parents":[2147483647,0,0,1,1,2,2,3,3,4,4,5,5,6,6,7,7,9,9,10,10,11,11,12,12,13,13,14,14,15,15,16,16,17,17,18,18,19,19,20,20,21,21,27,27,28,28,29,29,31,31,32,32,39,39,41,41,42,42],"right_children":[2,4,6,8,10,12,14,16,-1,18,20,22,24,26,28,30,32,34,36,38,40,42,-1,-1,-1,-1,-1,44,46,48,-1,50,52,-1,-1,-1,-1,-1,-1,54,-1,56,58,-1,-1,-1,-1,-1,-1,-1,-1,-1,-1,-1,-1,-1,-1,-1,-1],"split_conditions":[-3.228609E-33,2.6818601E-2,5.965257E-2,4.9970783E-2,-2.4301482E-2,1.2338766E-1,-6.176813E-2,-4.2026296E-2,7.786065E-2,-3.3442482E-2,-7.027449E-2,1.2964953E-1,2.6949631E-2,1.7943332E-2,-6.7429245E-2,3.128227E-2,5.578989E-2,4.1101195E-2,-6.966141E-2,4.378094E-2,7.196405E-2,7.5889856E-2,-4.6541303E-2,7.0732355E-2,-5.2804857E-2,-5.5124987E-2,1.158086E-2,-7.1704425E-3,2.3451377E-2,-3.3819266E-2,-1.8237837E-2,-4.0210187E-2,-6.563975E-2,-5.52131E-2,2.7223567E-2,-1.2532172E-2,8.563506E-2,-4.508945E-2,4.7451477E-2,-9.1894865E-2,-1.833362E-2,4.826681E-2,-5.677089E-2,3.4362457E-3,-3.304426E-2,7.5468935E-2,1.8320447E-2,1.7305931E-2,8.1655756E-2,6.3903525E-2,-5.2909285E-2,-3.643617E-2,7.8324646E-2,1.6928189E-2,7.952354E-2,7.80327E-2,5.734661E-2,-1.1125417E-2,6.8042696E-2],"split_indices":[127,118,46,279,117,360,19,326,0,37,366,111,29,78,71,52,121,317,64,211,76,351,0,0,0,0,0,306,128,311,0,336,322,0,0,0,0,0,0,30,0,18,71,0,0,0,0,0,0,0,0,0,0,0,0,0,0,0,0],"split_type":[0,0,0,0,0,0,0,0,0,0,0,0,0,0,0,0,0,0,0,0,0,0,0,0,0,0,0,0,0,0,0,0,0,0,0,0,0,0,0,0,0,0,0,0,0,0,0,0,0,0,0,0,0,0,0,0,0,0,0],"sum_hessian":[4.2237515E3,1.4166312E3,2.8071204E3,1.1790798E3,2.3755139E2,2.730608E3,7.651247E1,1.1462145E3,3.286544E1,6.990726E1,1.6764413E2,2.7043914E3,2.6216654E1,5.5120018E1,2.1392445E1,2.1909174E1,1.1243053E3,6.2170166E1,7.737092E0,2.622235E0,1.650219E2,2.6994177E3,4.973588E0,9.025456E0,1.7191196E1,5.3975525E1,1.144493E0,2.0196915E0,1.9372753E1,2.0046324E1,1.8628508E0,1.1087937E3,1.55115E1,6.1142303E1,1.0278624E0,1.0851376E0,6.651954E0,1.2034979E0,1.4187372E0,1.6396552E2,1.0563861E0,2.6544639E3,4.495397E1,1.0136182E0,1.0060731E0,1.837049E1,1.0022644E0,1.4367592E0,1.8609564E1,8.588648E0,1.1002051E3,1.1227545E0,1.4388746E1,1.3478186E0,1.6261769E2,2.6247017E3,2.976221E1,1.2042843E1,3.2911125E1],"tree_param":{"num_deleted":"0","num_feature":"384","num_nodes":"59","size_leaf_vector":"1"}},{"base_weights":[7.6583874E-1,1.5003647E0,-6.595088E-1,1.5053174E0,2.577495E-1,4.5574182E-1,-9.597955E-1,5.2889305E-1,1.5087173E0,1.2421308E0,-5.0129987E-2,-7.5752085E-1,1.223959E0,1.3828683E0,-1.0317515E0,-4.126174E-2,1.2234893E0,7.1509844E-1,1.511213E0,1.5312376E-2,6.7889094E-2,-1.083207E0,1.3728509E0,-8.279418E-1,1.519781E0,1.5455809E0,-4.0997665E-2,1.5815169E0,-1.0544745E0,4.1460907E-3,7.478077E-2,1.1763291E0,-4.655086E-2,1.0475534E-2,1.5120465E0,6.3163764E-3,-5.5006612E-2,1.5013179E0,-3.5160102E-3,6.250358E-2,-5.3256333E-2,-3.560757E-2,1.5409006E0,-0E0,8.190335E-2,2.0369945E-2,8.422468E-2,-1.067895E0,9.567808E-2,-1.7806826E-2,7.258614E-2,3.5176825E-2,7.567378E-2,1.774574E-2,7.815891E-2,9.4306347E-4,7.848152E-2,-5.406446E-2,6.574498E-2],"categories":[],"categories_nodes":[],"categories_segments":[],"categories_sizes":[],"default_left":[0,0,0,0,0,0,0,0,0,0,0,0,0,0,0,0,0,0,0,0,0,0,0,0,0,0,0,0,0,0,0,0,0,0,0,0,0,0,0,0,0,0,0,0,0,0,0,0,0,0,0,0,0,0,0,0,0,0,0],"id":16,"left_children":[1,3,5,7,9,11,13,15,17,19,-1,21,23,25,27,-1,29,31,33,-1,-1,35,37,39,41,43,-1,45,47,-1,-1,49,-1,-1,51,-1,-1,53,-1,-1,-1,-1,55,-1,-1,-1,-1,57,-1,-1,-1,-1,-1,-1,-1,-1,-1,-1,-1],"loss_changes":[4.3147686E3,1.6330078E1,4.699367E2,8.172852E0,1.6148584E1,2.787458E2,1.8766602E2,1.1310676E1,4.241699E0,3.4625244E-1,0E0,8.208892E1,1.1228183E2,1.3227303E1,6.534888E1,0E0,2.2326155E0,8.970929E0,2.583496E0,0E0,0E0,2.2231216E0,3.0570107E0,1.300507E1,8.657379E0,4.4741364E0,0E0,4.5853996E-1,4.4411255E1,0E0,0E0,4.1350117E0,0E0,0E0,2.0180664E0,0E0,0E0,4.6128845E-1,0E0,0E0,0E0,0E0,6.9082947E0,0E0,0E0,0E0,0E0,3.5240723E1,0E0,0E0,0E0,0E0,0E0,0E0,0E0,0E0,0E0,0E0,0E0],"parents":[2147483647,0,0,1,1,2,2,3,3,4,4,5,5,6,6,7,7,8,8,9,9,11,11,12,12,13,13,14,14,16,16,17,17,18,18,21,21,22,22,23,23,24,24,25,25,27,27,28,28,31,31,34,34,37,37,42,42,47,47],"right_children":[2,4,6,8,10,12,14,16,18,20,-1,22,24,26,28,-1,30,32,34,-1,-1,36,38,40,42,44,-1,46,48,-1,-1,50,-1,-1,52,-1,-1,54,-1,-1,-1,-1,56,-1,-1,-1,-1,58,-1,-1,-1,-1,-1,-1,-1,-1,-1,-1,-1],"split_conditions":[-2.1609E-8,1.0784312E-1,1.814414E-2,-9.226094E-2,-6.829084E-3,-4.727908E-2,-6.3330755E-2,-4.4163242E-2,-9.106764E-2,-1.1845411E-2,-5.0129987E-2,-5.355836E-2,-9.323776E-2,4.4653602E-2,-9.9482656E-2,-4.126174E-2,-2.9821003E-2,-2.7504061E-8,-1.1121275E-1,1.5312376E-2,6.7889094E-2,-3.3510953E-2,7.797615E-2,-1.9954707E-2,-1.1802959E-1,-4.2968452E-2,-4.0997665E-2,1.2690799E-2,7.365409E-2,4.1460907E-3,7.478077E-2,-4.207628E-2,-4.655086E-2,1.0475534E-2,-8.619803E-2,6.3163764E-3,-5.5006612E-2,-3.692465E-2,-3.5160102E-3,6.250358E-2,-5.3256333E-2,-3.560757E-2,-4.22352E-2,-0E0,8.190335E-2,2.0369945E-2,8.422468E-2,6.35359E-2,9.567808E-2,-1.7806826E-2,7.258614E-2,3.5176825E-2,7.567378E-2,1.774574E-2,7.815891E-2,9.4306347E-4,7.848152E-2,-5.406446E-2,6.574498E-2],"split_indices":[319,351,361,273,267,204,198,64,92,8,0,309,109,229,80,0,247,319,164,0,0,269,172,18,17,248,0,185,115,0,0,105,0,0,121,0,0,273,0,0,0,0,238,0,0,0,0,346,0,0,0,0,0,0,0,0,0,0,0],"split_type":[0,0,0,0,0,0,0,0,0,0,0,0,0,0,0,0,0,0,0,0,0,0,0,0,0,0,0,0,0,0,0,0,0,0,0,0,0,0,0,0,0,0,0,0,0,0,0,0,0,0,0,0,0,0,0,0,0,0,0],"sum_hessian":[4.1193027E3,2.7183875E3,1.4009153E3,2.7073772E3,1.1010365E1,2.970679E2,1.1038474E3,9.947621E0,2.6974297E3,6.1945624E0,4.815802E0,1.1517319E2,1.818947E2,3.2347786E1,1.0714996E3,3.3039792E0,6.643642E0,9.36998E0,2.6880596E3,1.0920293E0,5.102533E0,1.0033105E2,1.4842135E1,2.2688515E1,1.5920619E2,3.040482E1,1.9429667E0,8.641465E0,1.0628582E3,1.5381652E0,5.1054764E0,7.546864E0,1.8231155E0,1.889172E0,2.6861704E3,1.2872189E0,9.904383E1,1.3598293E1,1.2438421E0,1.8825538E0,2.0805962E1,1.1812133E0,1.5802498E2,1.778729E0,2.8626091E1,1.1042602E0,7.5372047E0,1.0587146E3,4.1436114E0,1.0994306E0,6.4474335E0,5.622413E0,2.680548E3,1.049415E0,1.2548879E1,2.9647245E0,1.5506026E2,1.0533439E3,5.3706355E0],"tree_param":{"num_deleted":"0","num_feature":"384","num_nodes":"59","size_leaf_vector":"1"}},{"base_weights":[7.452202E-1,1.4637578E0,-6.5488744E-1,1.4718113E0,7.9530185E-1,4.0650624E-1,-9.4629693E-1,-1.2927164E-2,1.4726988E0,1.2631769E0,-5.2638835E-1,1.3739089E0,-5.4925245E-1,1.3328718E0,-1.0205624E0,3.933989E-1,1.4739348E0,7.295105E-2,-3.8889047E-2,4.356403E-2,-1.0984697E0,-4.989439E-2,1.5125846E0,1.3611221E0,-8.934766E-1,-4.6087587E-3,8.026371E-2,1.2744255E0,-1.0461012E0,6.2055405E-2,-4.147736E-2,1.4754969E0,7.304675E-1,-1.0053049E-2,-6.0512334E-2,-1.9920243E-2,1.5317558E0,1.4798889E0,-2.2123473E-2,1.2939885E0,-1.0579345E0,-4.5621317E-2,4.8484217E-2,-3.486181E-2,7.960861E-2,9.168969E-2,-1.0603594E0,2.1300616E-2,7.382006E-2,6.204618E-2,-4.4492442E-2,-1.5583756E-2,7.741279E-2,7.645448E-2,1.3433103E-2,1.2259525E-2,6.961992E-2,-5.435387E-2,3.836314E-2,5.2556913E-2,-5.368134E-2],"categories":[],"categories_nodes":[],"categories_segments":[],"categories_sizes":[],"default_left":[0,0,0,0,0,0,0,0,0,0,0,0,0,0,0,0,0,0,0,0,0,0,0,0,0,0,0,0,0,0,0,0,0,0,0,0,0,0,0,0,0,0,0,0,0,0,0,0,0,0,0,0,0,0,0,0,0,0,0,0,0],"id":17,"left_children":[1,3,5,7,9,11,13,-1,15,17,19,21,23,25,27,29,31,-1,-1,-1,33,-1,35,37,39,41,-1,43,45,-1,-1,47,49,-1,-1,-1,51,53,-1,55,57,-1,-1,-1,-1,-1,59,-1,-1,-1,-1,-1,-1,-1,-1,-1,-1,-1,-1,-1,-1],"loss_changes":[3.9992195E3,1.2947754E1,4.175011E2,4.376953E0,2.1363798E1,2.699967E2,1.8050153E2,0E0,2.8603516E0,1.1139187E1,8.514097E0,4.9207764E1,9.799982E1,1.2347954E1,6.1439697E1,5.532424E0,1.9077148E0,0E0,0E0,0E0,4.599352E-1,0E0,5.6551514E0,5.562706E0,4.6450485E1,6.8232913E0,0E0,8.469839E0,4.3606934E1,0E0,0E0,1.8046875E0,7.24797E0,0E0,0E0,0E0,4.6389465E0,8.63575E-1,0E0,5.9266376E-1,7.0666656E0,0E0,0E0,0E0,0E0,0E0,2.9435913E1,0E0,0E0,0E0,0E0,0E0,0E0,0E0,0E0,0E0,0E0,0E0,0E0,0E0,0E0],"parents":[2147483647,0,0,1,1,2,2,3,3,4,4,5,5,6,6,8,8,9,9,10,10,11,11,12,12,13,13,14,14,15,15,16,16,20,20,22,22,23,23,24,24,25,25,27,27,28,28,31,31,32,32,36,36,37,37,39,39,40,40,46,46],"right_children":[2,4,6,8,10,12,14,-1,16,18,20,22,24,26,28,30,32,-1,-1,-1,34,-1,36,38,40,42,-1,44,46,-1,-1,48,50,-1,-1,-1,52,54,-1,56,58,-1,-1,-1,-1,-1,60,-1,-1,-1,-1,-1,-1,-1,-1,-1,-1,-1,-1,-1,-1],"split_conditions":[-2.1609E-8,8.458633E-2,1.814414E-2,-1.1121275E-1,-2.5395225E-3,2.457446E-3,-6.3330755E-2,-1.2927164E-2,-9.162522E-2,4.9591936E-2,-4.508363E-8,-6.556445E-2,-3.0458808E-2,-2.0484272E-2,-5.4204278E-2,-7.5433865E-2,8.430548E-2,7.295105E-2,-3.8889047E-2,4.356403E-2,-1.5993938E-2,-4.989439E-2,-8.9895986E-2,2.5490455E-2,-5.8856875E-2,9.770948E-3,8.026371E-2,1.6527016E-2,-1.10131845E-1,6.2055405E-2,-4.147736E-2,-9.577867E-2,-4.960467E-4,-1.0053049E-2,-6.0512334E-2,-1.9920243E-2,-6.680707E-2,6.0557134E-2,-2.2123473E-2,-7.527184E-2,5.7980943E-2,-4.5621317E-2,4.8484217E-2,-3.486181E-2,7.960861E-2,9.168969E-2,-4.2026296E-2,2.1300616E-2,7.382006E-2,6.204618E-2,-4.4492442E-2,-1.5583756E-2,7.741279E-2,7.645448E-2,1.3433103E-2,1.2259525E-2,6.961992E-2,-5.435387E-2,3.836314E-2,5.2556913E-2,-5.368134E-2],"split_indices":[319,351,361,164,125,18,198,0,117,152,319,117,125,322,106,270,383,0,0,0,131,0,304,74,110,166,0,380,122,0,0,310,261,0,0,0,27,340,0,72,95,0,0,0,0,0,326,0,0,0,0,0,0,0,0,0,0,0,0,0,0],"split_type":[0,0,0,0,0,0,0,0,0,0,0,0,0,0,0,0,0,0,0,0,0,0,0,0,0,0,0,0,0,0,0,0,0,0,0,0,0,0,0,0,0,0,0,0,0,0,0,0,0,0,0,0,0,0,0,0,0,0,0,0,0],"sum_hessian":[3.9732876E3,2.6257236E3,1.347564E3,2.5932632E3,3.2460514E1,2.9018845E2,1.0573756E3,1.1746873E0,2.5920884E3,2.401212E1,8.448393E0,1.4400351E2,1.4618494E2,3.2827713E1,1.0245479E3,3.3394804E0,2.588749E3,2.2174366E1,1.8377551E0,2.2967222E0,6.151671E0,7.6083617E0,1.3639514E2,2.1863527E1,1.243214E2,5.714789E0,2.7112925E1,1.0733278E1,1.0138146E3,1.9683828E0,1.3710976E0,2.5823252E3,6.4237947E0,1.0012558E0,5.150415E0,1.1530738E0,1.3524207E2,2.068635E1,1.1771791E0,8.208652E0,1.1611275E2,2.9965007E0,2.7182882E0,1.3195437E0,9.413734E0,4.362441E0,1.00945215E3,2.6393726E0,2.5796858E3,5.0676327E0,1.3561622E0,1.0357007E0,1.3420638E2,1.9618738E1,1.0676113E0,1.0123818E0,7.1962695E0,1.1469136E2,1.4213871E0,5.810037E0,1.0036421E3],"tree_param":{"num_deleted":"0","num_feature":"384","num_nodes":"61","size_leaf_vector":"1"}},{"base_weights":[7.387763E-1,1.4283159E0,-6.442727E-1,1.4329727E0,3.9756718E-1,4.162581E-1,-9.3968827E-1,4.464293E-1,1.4360934E0,1.259291E0,-9.554797E-1,-8.0015665E-1,1.1600806E0,1.3295335E0,-1.0197228E0,-3.9858248E-2,1.131394E0,6.306109E-1,1.43776E0,1.31042255E-2,6.878249E-2,-5.40886E-2,-9.013162E-3,7.0433445E-2,-1.0347066E0,-7.648176E-1,1.4403944E0,1.4790422E0,-2.9720545E-2,1.3963231E0,-1.0405225E0,6.827638E-2,-0E0,-4.777811E-2,1.0914828E0,7.928403E-1,1.4397234E0,4.5548007E-2,-5.4479647E-2,6.319703E-2,-5.2609302E-2,-1.460818E-1,1.4720582E0,1.55353E0,-1.5585385E-2,-1.8996381E-3,8.06689E-2,-1.0520363E0,1.0295639E-1,6.31233E-2,7.863245E-3,6.0664464E-2,-3.2563563E-2,2.2976737E-2,7.204436E-2,-4.466364E-2,4.3724317E-2,7.519399E-2,4.148486E-3,1.1037412E-2,7.956786E-2,-5.331682E-2,6.394937E-2],"categories":[],"categories_nodes":[],"categories_segments":[],"categories_sizes":[],"default_left":[0,0,0,0,0,0,0,0,0,0,0,0,0,0,0,0,0,0,0,0,0,0,0,0,0,0,0,0,0,0,0,0,0,0,0,0,0,0,0,0,0,0,0,0,0,0,0,0,0,0,0,0,0,0,0,0,0,0,0,0,0,0,0],"id":18,"left_children":[1,3,5,7,9,11,13,15,17,19,21,23,25,27,29,-1,31,33,35,-1,-1,-1,-1,-1,37,39,41,43,-1,45,47,-1,-1,-1,49,51,53,-1,-1,-1,-1,55,57,59,-1,-1,-1,61,-1,-1,-1,-1,-1,-1,-1,-1,-1,-1,-1,-1,-1,-1,-1],"loss_changes":[3.7217368E3,1.1910645E1,4.0728198E2,7.3188477E0,1.6485464E1,2.5756256E2,1.8589032E2,9.111604E0,2.5405273E0,6.0260963E-1,3.4678268E-1,5.7516792E1,9.630061E1,1.0968826E1,5.0799805E1,0E0,1.7694693E0,6.254566E0,2.0996094E0,0E0,0E0,0E0,0E0,0E0,1.1503159E1,1.4780071E1,7.9816895E0,4.873207E0,0E0,2.8182926E0,3.692578E1,0E0,0E0,0E0,7.4477243E-1,6.905364E0,2.2475586E0,0E0,0E0,0E0,0E0,3.7734609E0,6.552704E0,1.2273788E0,0E0,0E0,0E0,3.3738647E1,0E0,0E0,0E0,0E0,0E0,0E0,0E0,0E0,0E0,0E0,0E0,0E0,0E0,0E0,0E0],"parents":[2147483647,0,0,1,1,2,2,3,3,4,4,5,5,6,6,7,7,8,8,9,9,10,10,11,11,12,12,13,13,14,14,16,16,17,17,18,18,24,24,25,25,26,26,27,27,29,29,30,30,34,34,35,35,36,36,41,41,42,42,43,43,47,47],"right_children":[2,4,6,8,10,12,14,16,18,20,22,24,26,28,30,-1,32,34,36,-1,-1,-1,-1,-1,38,40,42,44,-1,46,48,-1,-1,-1,50,52,54,-1,-1,-1,-1,56,58,60,-1,-1,-1,62,-1,-1,-1,-1,-1,-1,-1,-1,-1,-1,-1,-1,-1,-1,-1],"split_conditions":[-2.1609E-8,1.0784312E-1,1.7831037E-2,-9.226094E-2,3.1265955E-2,-4.727908E-2,-6.3330755E-2,-4.1975893E-2,-1.16535485E-1,-4.8939837E-3,4.1155353E-2,-2.7284805E-2,-9.323776E-2,5.476002E-2,-9.9482656E-2,-3.9858248E-2,7.2533265E-3,-4.6829622E-2,-9.2675224E-2,1.31042255E-2,6.878249E-2,-5.40886E-2,-9.013162E-3,7.0433445E-2,-1.7862476E-2,-1.9954707E-2,-4.4812214E-2,3.5899013E-2,-2.9720545E-2,-2.9803444E-2,4.9970783E-2,6.827638E-2,-0E0,-4.777811E-2,1.1017422E-2,-2.7504061E-8,-9.162522E-2,4.5548007E-2,-5.4479647E-2,6.319703E-2,-5.2609302E-2,-9.413921E-4,6.0365234E-2,-4.542664E-2,-1.5585385E-2,-1.8996381E-3,8.06689E-2,7.255679E-2,1.0295639E-1,6.31233E-2,7.863245E-3,6.0664464E-2,-3.2563563E-2,2.2976737E-2,7.204436E-2,-4.466364E-2,4.3724317E-2,7.519399E-2,4.148486E-3,1.1037412E-2,7.956786E-2,-5.331682E-2,6.394937E-2],"split_indices":[319,351,361,273,361,204,198,64,208,286,17,353,109,183,80,0,53,9,92,0,0,0,0,0,336,18,241,194,0,192,279,0,0,0,219,319,117,0,0,0,0,12,183,224,0,0,0,173,0,0,0,0,0,0,0,0,0,0,0,0,0,0,0],"split_type":[0,0,0,0,0,0,0,0,0,0,0,0,0,0,0,0,0,0,0,0,0,0,0,0,0,0,0,0,0,0,0,0,0,0,0,0,0,0,0,0,0,0,0,0,0,0,0,0,0,0,0,0,0,0,0,0,0,0,0,0,0,0,0],"sum_hessian":[3.9005808E3,2.6028606E3,1.2977202E3,2.590756E3,1.2104475E1,2.8263354E2,1.0150867E3,8.633927E0,2.5821223E3,7.4417086E0,4.662767E0,1.07212975E2,1.7542058E2,3.4045887E1,9.8104083E2,3.003141E0,5.630786E0,6.127313E0,2.5759949E3,1.1264286E0,6.31528E0,3.6584203E0,1.0043464E0,9.807202E0,9.740577E1,2.2074211E1,1.5334637E2,3.1810364E1,2.2355242E0,7.80508E0,9.732357E2,4.5008364E0,1.1299495E0,1.1329582E0,4.9943547E0,9.062274E0,2.5669326E3,2.2394643E0,9.5166306E1,2.3128529E0,1.9761358E1,2.923784E0,1.5042259E2,3.0672565E1,1.1377976E0,1.1282703E0,6.67681E0,9.702953E2,2.9404082E0,3.9156384E0,1.0787164E0,7.1479344E0,1.9143393E0,3.5237257E0,2.563409E3,1.7656342E0,1.1581497E0,1.4696602E2,3.4565687E0,1.0424796E0,2.9630087E1,9.6492267E2,5.372636E0],"tree_param":{"num_deleted":"0","num_feature":"384","num_nodes":"63","size_leaf_vector":"1"}},{"base_weights":[7.2117543E-1,1.3970819E0,-6.5068704E-1,6.8017465E-1,1.4031497E0,3.6546132E-1,-9.3677926E-1,1.1663455E0,-7.8462774E-1,3.0741307E-1,1.4058958E0,-7.7594584E-1,1.0844586E0,1.2265965E0,-1.001462E0,1.3087674E0,-2.6234172E-3,-6.0204353E-2,3.1385925E-2,-5.4593354E-1,5.7165153E-2,6.634182E-4,1.4069734E0,1.1737971E0,-1.0603387E0,1.4292681E0,-1.7622511E-1,1.4521471E0,-3.377598E-2,1.2592996E0,-1.0312105E0,8.0824485E-3,6.896223E-2,-5.294404E-2,2.2915335E-2,4.856541E-1,1.4082793E0,-3.344073E-2,1.3693558E0,2.3240656E-2,-5.415171E-2,1.4494132E0,-2.1827748E-2,-8.842433E-1,1.2613275E0,7.530484E-2,6.579117E-3,1.5586007E0,-3.5934262E-2,8.4164545E-2,-1.0445822E0,5.323568E-2,-4.0892437E-2,2.7706388E-2,7.046782E-2,7.172158E-2,1.492469E-2,1.5129614E-2,7.36761E-2,4.6071064E-2,-5.374611E-2,6.796331E-2,3.3358254E-3,1.7721865E-2,8.263268E-2,-5.297426E-2,5.8611404E-2],"categories":[],"categories_nodes":[],"categories_segments":[],"categories_sizes":[],"default_left":[0,0,0,0,0,0,0,0,0,0,0,0,0,0,0,0,0,0,0,0,0,0,0,0,0,0,0,0,0,0,0,0,0,0,0,0,0,0,0,0,0,0,0,0,0,0,0,0,0,0,0,0,0,0,0,0,0,0,0,0,0,0,0,0,0,0,0],"id":19,"left_children":[1,3,5,7,9,11,13,15,17,19,21,23,25,27,29,31,-1,-1,-1,33,-1,-1,35,37,39,41,43,45,-1,47,49,-1,-1,-1,-1,51,53,-1,55,-1,-1,57,-1,59,61,-1,-1,63,-1,-1,65,-1,-1,-1,-1,-1,-1,-1,-1,-1,-1,-1,-1,-1,-1,-1,-1],"loss_changes":[3.4837896E3,9.972656E0,3.6096533E2,1.735295E1,7.057129E0,2.2507715E2,1.3671362E2,3.1595097E0,4.519496E0,5.998009E0,3.7001953E0,6.011641E1,7.331816E1,1.3238918E1,6.4560974E1,1.0490208E0,0E0,0E0,0E0,2.7551022E0,0E0,0E0,2.2875977E0,5.9623737E0,3.7352219E0,5.6073914E0,3.8747658E1,1.6270294E0,0E0,8.625275E0,3.5472534E1,0E0,0E0,0E0,0E0,4.689489E0,1.4838867E0,0E0,4.588108E-1,0E0,0E0,3.1557007E0,0E0,9.726162E0,1.370369E0,0E0,0E0,6.760788E-1,0E0,0E0,3.1802795E1,0E0,0E0,0E0,0E0,0E0,0E0,0E0,0E0,0E0,0E0,0E0,0E0,0E0,0E0,0E0,0E0],"parents":[2147483647,0,0,1,1,2,2,3,3,4,4,5,5,6,6,7,7,8,8,9,9,10,10,11,11,12,12,13,13,14,14,15,15,19,19,22,22,23,23,24,24,25,25,26,26,27,27,29,29,30,30,35,35,36,36,38,38,41,41,43,43,44,44,47,47,50,50],"right_children":[2,4,6,8,10,12,14,16,18,20,22,24,26,28,30,32,-1,-1,-1,34,-1,-1,36,38,40,42,44,46,-1,48,50,-1,-1,-1,-1,52,54,-1,56,-1,-1,58,-1,60,62,-1,-1,64,-1,-1,66,-1,-1,-1,-1,-1,-1,-1,-1,-1,-1,-1,-1,-1,-1,-1,-1],"split_conditions":[-2.1609E-8,-7.641378E-2,1.814414E-2,2.5419775E-2,-1.16535485E-1,-4.727908E-2,-6.3330755E-2,3.6198948E-2,3.4839556E-2,2.4438815E-2,-1.1089601E-1,1.6177187E-2,1.8111028E-2,5.0082594E-2,-5.4204278E-2,-4.2894192E-2,-2.6234172E-3,-6.0204353E-2,3.1385925E-2,8.847918E-4,5.7165153E-2,6.634182E-4,-8.616572E-2,-2.214882E-2,-1.4189128E-2,6.69384E-2,1.3098339E-2,5.3990096E-2,-3.377598E-2,7.8995054E-4,-1.10131845E-1,8.0824485E-3,6.896223E-2,-5.294404E-2,2.2915335E-2,2.8014265E-2,-9.162522E-2,-3.344073E-2,5.3990096E-2,2.3240656E-2,-5.415171E-2,-6.2140383E-2,-2.1827748E-2,-8.190742E-2,2.5420324E-3,7.530484E-2,6.579117E-3,-1.7098632E-2,-3.5934262E-2,8.4164545E-2,6.35359E-2,5.323568E-2,-4.0892437E-2,2.7706388E-2,7.046782E-2,7.172158E-2,1.492469E-2,1.5129614E-2,7.36761E-2,4.6071064E-2,-5.374611E-2,6.796331E-2,3.3358254E-3,1.7721865E-2,8.263268E-2,-5.297426E-2,5.8611404E-2],"split_indices":[319,92,361,52,208,204,198,60,214,117,15,67,125,183,106,273,0,0,0,230,0,0,135,358,336,193,281,70,0,52,122,0,0,0,0,226,117,0,70,0,0,359,0,18,183,0,0,297,0,0,346,0,0,0,0,0,0,0,0,0,0,0,0,0,0,0,0],"split_type":[0,0,0,0,0,0,0,0,0,0,0,0,0,0,0,0,0,0,0,0,0,0,0,0,0,0,0,0,0,0,0,0,0,0,0,0,0,0,0,0,0,0,0,0,0,0,0,0,0,0,0,0,0,0,0,0,0,0,0,0,0,0,0,0,0,0,0],"sum_hessian":[3.7551287E3,2.5156672E3,1.2394615E3,2.2076765E1,2.4935903E3,2.7223154E2,9.6723004E2,1.673347E1,5.3432937E0,6.525359E0,2.487065E3,1.0517433E2,1.670572E2,2.7553673E1,9.396764E2,1.4923964E1,1.8095081E0,4.2388997E0,1.1043937E0,3.3946927E0,3.1306667E0,1.9403127E0,2.4851248E3,1.2985523E1,9.218881E1,1.3107979E2,3.5977413E1,2.4848936E1,2.7047372E0,1.166312E1,9.2801324E2,1.0626876E0,1.3861276E1,2.2175548E0,1.177138E0,4.0559316E0,2.4810688E3,1.0088342E0,1.1976689E1,1.059629E0,9.112918E1,1.2990575E2,1.174038E0,2.4367752E1,1.1609664E1,2.373136E1,1.1175768E0,1.03188E1,1.3443199E0,3.933136E0,9.2408014E2,2.9405174E0,1.1154139E0,3.7857838E0,2.477283E3,1.0961702E1,1.0149873E0,2.9622307E0,1.2694352E2,1.956413E0,2.2411339E1,1.0594855E1,1.0148083E0,1.1007438E0,9.218057E0,9.184324E2,5.6477714E0],"tree_param":{"num_deleted":"0","num_feature":"384","num_nodes":"67","size_leaf_vector":"1"}},{"base_weights":[7.0440954E-1,1.3686568E0,-6.357331E-1,2.9499623E-1,1.3728802E0,6.2357557E-1,-8.204892E-1,-6.1051947E-1,1.032369E0,1.3788763E0,8.512223E-1,-8.65957E-1,1.3537052E0,1.3785284E0,-9.043266E-1,-4.951216E-2,1.8805617E-2,-3.8093291E-3,6.480199E-2,-0E0,1.3798144E0,1.0773385E0,-6.911638E-2,6.2679015E-2,-5.351029E-2,1.4250431E0,-4.892318E-1,1.4685633E0,-3.4744382E-2,1.0004799E-1,-1.01015E0,4.2199147E-1,1.3814019E0,1.3211734E0,-4.7347167E-1,-3.6252525E-2,1.4627131E0,-4.6E-2,2.6307842E-2,1.6988983E-2,7.4744195E-2,-9.8223054E-1,1.1655331E0,9.012285E-1,-1.0320514E0,-5.6320842E-2,5.3943563E-2,6.911629E-2,9.19681E-3,-4.2476464E-4,6.918975E-2,-4.7299474E-2,2.9147347E-2,-1.3344905E-2,7.416356E-2,5.5724025E-2,-5.3431194E-2,-4.0796738E-2,7.45322E-2,6.107937E-2,-1.5413995E-2,-5.227117E-2,5.8645077E-2],"categories":[],"categories_nodes":[],"categories_segments":[],"categories_sizes":[],"default_left":[0,0,0,0,0,0,0,0,0,0,0,0,0,0,0,0,0,0,0,0,0,0,0,0,0,0,0,0,0,0,0,0,0,0,0,0,0,0,0,0,0,0,0,0,0,0,0,0,0,0,0,0,0,0,0,0,0,0,0,0,0,0,0],"id":20,"left_children":[1,3,5,7,9,11,13,15,17,19,21,23,25,27,29,-1,-1,-1,-1,-1,31,33,-1,-1,-1,35,37,39,-1,41,43,45,47,49,51,-1,53,-1,-1,-1,-1,55,57,59,61,-1,-1,-1,-1,-1,-1,-1,-1,-1,-1,-1,-1,-1,-1,-1,-1,-1,-1],"loss_changes":[3.2183652E3,1.0538086E1,2.7935696E2,7.814531E0,6.333496E0,1.6854733E2,1.9400494E2,2.4199207E0,1.9537477E0,3.084961E0,1.6630543E1,2.3516846E1,1.4335999E1,8.26963E0,1.07224365E2,0E0,0E0,0E0,0E0,0E0,3.0126953E0,1.11447525E1,0E0,0E0,0E0,9.172714E0,2.501146E0,5.879135E-1,0E0,1.1295935E2,3.9102173E1,6.68965E0,2.354004E0,2.0479279E0,2.8049617E0,0E0,3.9168243E0,0E0,0E0,0E0,0E0,1.0001297E1,3.2996353E1,4.5931063E0,2.781903E1,0E0,0E0,0E0,0E0,0E0,0E0,0E0,0E0,0E0,0E0,0E0,0E0,0E0,0E0,0E0,0E0,0E0,0E0],"parents":[2147483647,0,0,1,1,2,2,3,3,4,4,5,5,6,6,7,7,8,8,9,9,10,10,11,11,12,12,13,13,14,14,20,20,21,21,25,25,26,26,27,27,29,29,30,30,31,31,32,32,33,33,34,34,36,36,41,41,42,42,43,43,44,44],"right_children":[2,4,6,8,10,12,14,16,18,20,22,24,26,28,30,-1,-1,-1,-1,-1,32,34,-1,-1,-1,36,38,40,-1,42,44,46,48,50,52,-1,54,-1,-1,-1,-1,56,58,60,62,-1,-1,-1,-1,-1,-1,-1,-1,-1,-1,-1,-1,-1,-1,-1,-1,-1,-1],"split_conditions":[-2.1609E-8,-9.226094E-2,-6.3330755E-2,-4.1975893E-2,8.458633E-2,-5.6544647E-2,-5.05821E-2,-2.4087137E-2,-5.3506885E-2,-1.1121275E-1,4.7614574E-2,-1.6043805E-2,7.493959E-2,2.729042E-2,-9.541651E-3,-4.951216E-2,1.8805617E-2,-3.8093291E-3,6.480199E-2,-0E0,-8.619803E-2,4.875166E-2,-6.911638E-2,6.2679015E-2,-5.351029E-2,-6.312549E-2,6.087507E-3,-4.935559E-2,-3.4744382E-2,-4.4940077E-2,-4.5604985E-2,-8.244463E-3,9.49625E-2,-6.594247E-2,1.5067593E-2,-3.6252525E-2,-9.970148E-2,-4.6E-2,2.6307842E-2,1.6988983E-2,7.4744195E-2,-2.2106074E-2,-2.7487734E-2,1.1285151E-2,1.23740524E-1,-5.6320842E-2,5.3943563E-2,6.911629E-2,9.19681E-3,-4.2476464E-4,6.918975E-2,-4.7299474E-2,2.9147347E-2,-1.3344905E-2,7.416356E-2,5.5724025E-2,-5.3431194E-2,-4.0796738E-2,7.45322E-2,6.107937E-2,-1.5413995E-2,-5.227117E-2,5.8645077E-2],"split_indices":[319,273,198,64,351,254,269,85,250,164,296,151,183,77,337,0,0,0,0,0,121,96,0,0,0,241,232,381,0,100,326,35,18,316,282,0,304,0,0,0,0,67,187,229,99,0,0,0,0,0,0,0,0,0,0,0,0,0,0,0,0,0,0],"split_type":[0,0,0,0,0,0,0,0,0,0,0,0,0,0,0,0,0,0,0,0,0,0,0,0,0,0,0,0,0,0,0,0,0,0,0,0,0,0,0,0,0,0,0,0,0,0,0,0,0,0,0,0,0,0,0,0,0,0,0,0,0,0,0],"sum_hessian":[3.6133994E3,2.4159233E3,1.1974761E3,9.753335E0,2.40617E3,1.5289632E2,1.0445798E3,4.4486876E0,5.3046474E0,2.3771836E3,2.8986343E1,5.02276E1,1.02668724E2,3.7790462E1,1.0067893E3,3.217029E0,1.2316582E0,1.1486185E0,4.1560287E0,1.6118448E0,2.3755718E3,2.6795773E1,2.1905704E0,3.9588816E0,4.626872E1,9.906617E1,3.6025536E0,3.650196E1,1.2885027E0,9.596271E1,9.108266E2,4.3827243E0,2.371189E3,2.3288612E1,3.5071607E0,1.3870119E0,9.767915E1,2.6023324E0,1.0002213E0,1.1573422E0,3.534462E1,4.7640293E1,4.8322414E1,9.858414E0,9.009682E2,1.0880148E0,3.2947092E0,2.3691985E3,1.9906781E0,1.0791543E0,2.2209457E1,2.5020392E0,1.0051215E0,1.0009081E0,9.6678246E1,1.4097888E0,4.6230503E1,6.5938864E0,4.1728527E1,7.7926726E0,2.065741E0,8.960644E2,4.9037824E0],"tree_param":{"num_deleted":"0","num_feature":"384","num_nodes":"63","size_leaf_vector":"1"}},{"base_weights":[6.949119E-1,1.3416048E0,-6.3174295E-1,5.706979E-1,1.3485683E0,4.222386E-1,-9.1796994E-1,9.816303E-1,-7.456569E-1,4.8556703E-1,1.3515022E0,-7.67235E-1,1.1386003E0,1.1705043E0,-9.9373996E-1,-3.75028E-1,1.2347142E0,2.9177634E-2,-5.806136E-2,1.0389603E0,-3.56476E-2,1.7432593E-3,1.352602E0,1.1430787E0,-1.04046E0,1.3375365E0,-6.4794225E-1,1.4112886E0,-1.59741E-1,1.1773417E0,-1.0207496E0,-4.4003382E-2,2.2350695E-2,1.1610765E-3,6.630544E-2,-5.097896E-3,6.4546466E-2,1.3551282E0,7.2434664E-1,6.7179255E-2,-1.9778155E-2,3.5838947E-2,-5.368644E-2,1.3618531E0,-3.7275165E-2,-5.141135E-2,5.0943334E-2,2.0262485E-2,7.195387E-2,5.4140218E-2,-4.578608E-2,-3.446309E-2,1.488408E0,-1.0361369E0,1.5162516E0,2.7188871E-2,6.783091E-2,-4.5039114E-2,5.6883514E-2,6.0120034E-3,6.9604784E-2,7.9275355E-2,1.7377926E-2,-5.254501E-2,5.192944E-2,-1.3007316E-2,1.0005619E-1],"categories":[],"categories_nodes":[],"categories_segments":[],"categories_sizes":[],"default_left":[0,0,0,0,0,0,0,0,0,0,0,0,0,0,0,0,0,0,0,0,0,0,0,0,0,0,0,0,0,0,0,0,0,0,0,0,0,0,0,0,0,0,0,0,0,0,0,0,0,0,0,0,0,0,0,0,0,0,0,0,0,0,0,0,0,0,0],"id":21,"left_children":[1,3,5,7,9,11,13,15,17,19,21,23,25,27,29,31,33,-1,-1,35,-1,-1,37,39,41,43,45,47,49,51,53,-1,-1,-1,-1,-1,-1,55,57,-1,-1,-1,-1,59,-1,-1,-1,-1,-1,-1,-1,-1,61,63,65,-1,-1,-1,-1,-1,-1,-1,-1,-1,-1,-1,-1],"loss_changes":[3.0127856E3,1.18828125E1,3.4767407E2,1.310952E1,5.246582E0,2.1094466E2,1.4447247E2,6.6080723E0,4.000579E0,7.042131E0,3.3125E0,4.9863766E1,5.5703415E1,1.0539112E1,5.2479492E1,1.8801576E0,1.6499653E0,0E0,0E0,2.1296725E0,0E0,0E0,2.6933594E0,4.2866087E0,5.5738373E0,8.06958E0,1.1269442E1,1.6269684E-1,6.4578524E0,7.5400324E0,3.5305237E1,0E0,0E0,0E0,0E0,0E0,0E0,2.0449219E0,8.7438345E0,0E0,0E0,0E0,0E0,4.995575E0,0E0,0E0,0E0,0E0,0E0,0E0,0E0,0E0,5.2913475E-1,2.7422913E1,5.3720646E0,0E0,0E0,0E0,0E0,0E0,0E0,0E0,0E0,0E0,0E0,0E0,0E0],"parents":[2147483647,0,0,1,1,2,2,3,3,4,4,5,5,6,6,7,7,8,8,9,9,10,10,11,11,12,12,13,13,14,14,15,15,16,16,19,19,22,22,23,23,24,24,25,25,26,26,27,27,28,28,29,29,30,30,37,37,38,38,43,43,52,52,53,53,54,54],"right_children":[2,4,6,8,10,12,14,16,18,20,22,24,26,28,30,32,34,-1,-1,36,-1,-1,38,40,42,44,46,48,50,52,54,-1,-1,-1,-1,-1,-1,56,58,-1,-1,-1,-1,60,-1,-1,-1,-1,-1,-1,-1,-1,62,64,66,-1,-1,-1,-1,-1,-1,-1,-1,-1,-1,-1,-1],"split_conditions":[-2.1609E-8,-7.641378E-2,1.4325282E-2,2.5419775E-2,-9.226094E-2,-4.727908E-2,-6.3330755E-2,-4.2702142E-2,-2.480069E-2,-3.3377276E-3,-1.12293996E-1,4.247517E-3,4.8057955E-2,2.0595256E-2,-5.4204278E-2,-1.4827212E-2,-6.0187947E-2,2.9177634E-2,-5.806136E-2,-5.1987793E-2,-3.56476E-2,1.7432593E-3,7.755779E-2,-9.016805E-3,-1.6991517E-2,6.676458E-2,-2.4069173E-2,-3.355365E-2,-4.087687E-2,1.6527016E-2,8.8381186E-2,-4.4003382E-2,2.2350695E-2,1.1610765E-3,6.630544E-2,-5.097896E-3,6.4546466E-2,-1.2527922E-1,-3.828632E-2,6.7179255E-2,-1.9778155E-2,3.5838947E-2,-5.368644E-2,-4.1532677E-2,-3.7275165E-2,-5.141135E-2,5.0943334E-2,2.0262485E-2,7.195387E-2,5.4140218E-2,-4.578608E-2,-3.446309E-2,-7.790002E-3,6.35359E-2,-4.3724287E-2,2.7188871E-2,6.783091E-2,-4.5039114E-2,5.6883514E-2,6.0120034E-3,6.9604784E-2,7.9275355E-2,1.7377926E-2,-5.254501E-2,5.192944E-2,-1.3007316E-2,1.0005619E-1],"split_indices":[319,92,361,52,273,204,198,113,351,49,117,67,13,183,106,72,143,0,0,112,0,0,125,72,286,125,235,315,301,380,380,0,0,0,0,0,0,370,245,0,0,0,0,117,0,0,0,0,0,0,0,0,18,346,79,0,0,0,0,0,0,0,0,0,0,0,0],"split_type":[0,0,0,0,0,0,0,0,0,0,0,0,0,0,0,0,0,0,0,0,0,0,0,0,0,0,0,0,0,0,0,0,0,0,0,0,0,0,0,0,0,0,0,0,0,0,0,0,0,0,0,0,0,0,0,0,0,0,0,0,0,0,0,0,0,0,0],"sum_hessian":[3.5096611E3,2.3594949E3,1.1501664E3,2.1877518E1,2.3376174E3,2.4553091E2,9.0463544E2,1.6872295E1,5.0052223E0,8.495846E0,2.3291216E3,9.225775E1,1.5327316E2,3.116076E1,8.734747E2,2.5706985E0,1.4301598E1,1.0901315E0,3.915091E0,5.9089665E0,2.586879E0,1.9786592E0,2.3271428E3,1.1141214E1,8.111654E1,1.3814705E2,1.5126103E1,2.633968E1,4.821082E0,1.0205167E1,8.6326953E2,1.556194E0,1.0145047E0,1.098871E0,1.3202726E1,1.1694323E0,4.7395344E0,2.3166545E3,1.0488202E1,9.97465E0,1.1665642E0,1.1198748E0,7.9996666E1,1.3689995E2,1.2471023E0,1.2632986E1,2.493117E0,1.1365392E0,2.520314E1,1.6551301E0,3.165952E0,1.2794816E0,8.925685E0,8.5865717E2,4.612357E0,4.9301295E0,2.3117244E3,1.8825862E0,8.605616E0,3.3814294E0,1.3351852E2,7.8583283E0,1.0673566E0,8.53085E2,5.5721116E0,1.083961E0,3.528396E0],"tree_param":{"num_deleted":"0","num_feature":"384","num_nodes":"67","size_leaf_vector":"1"}},{"base_weights":[6.8944407E-1,1.3178935E0,-6.1169016E-1,5.113004E-1,1.3233069E0,3.948031E-1,-9.076006E-1,-4.6392128E-1,1.0725888E0,7.442471E-1,1.3276124E0,-7.5616366E-1,1.042835E0,1.3464893E0,-9.428944E-1,5.4883224E-1,-5.5578437E-2,-9.756788E-3,6.2288728E-2,1.10198E0,-5.406148E-2,1.7858826E-3,1.3287251E0,-1.0471184E0,1.1055453E0,-7.533775E-1,1.2836308E0,7.594369E-2,-2.8457863E-3,6.68736E-2,-9.70901E-1,-6.2132454E-3,4.8516203E-2,-1.5218074E-2,1.2439961E0,1.3331118E0,9.229801E-1,5.79868E-3,-5.3332366E-2,1.2645314E0,-1.7584573E-2,5.4827638E-2,-5.10146E-2,1.3323052E0,1.7673792E-1,-9.9632657E-1,1.3341188E0,6.576243E-2,6.0626618E-3,6.669182E-2,1.48994345E-2,6.230518E-2,-4.1591E-2,6.658576E-2,1.3283665E-2,6.769125E-2,-3.8552728E-2,5.0725598E-2,-4.2316694E-2,6.654179E-2,-5.0588936E-2,-1.6847456E-2,8.119472E-2],"categories":[],"categories_nodes":[],"categories_segments":[],"categories_sizes":[],"default_left":[0,0,0,0,0,0,0,0,0,0,0,0,0,0,0,0,0,0,0,0,0,0,0,0,0,0,0,0,0,0,0,0,0,0,0,0,0,0,0,0,0,0,0,0,0,0,0,0,0,0,0,0,0,0,0,0,0,0,0,0,0,0,0],"id":22,"left_children":[1,3,5,7,9,11,13,15,17,19,21,23,25,27,29,31,-1,-1,-1,33,-1,-1,35,37,39,41,43,-1,-1,-1,45,-1,-1,-1,47,49,51,-1,-1,53,-1,-1,-1,55,57,59,61,-1,-1,-1,-1,-1,-1,-1,-1,-1,-1,-1,-1,-1,-1,-1,-1],"loss_changes":[2.7827578E3,9.323486E0,3.3058047E2,9.775299E0,4.672119E0,1.8919476E2,6.945557E1,5.127731E0,2.6816406E0,1.3670604E1,3.1879883E0,5.0755035E1,7.1055084E1,3.3964272E0,5.5230103E1,1.0785E0,0E0,0E0,0E0,3.6790276E0,0E0,0E0,2.7668457E0,1.9436569E0,3.4327202E0,1.08845215E1,7.4676056E0,0E0,0E0,0E0,5.0253662E1,0E0,0E0,0E0,1.03969E0,1.260498E0,1.6594067E1,0E0,0E0,4.2320633E-1,0E0,0E0,0E0,7.2534485E0,7.027751E0,3.105774E1,5.1755905E0,0E0,0E0,0E0,0E0,0E0,0E0,0E0,0E0,0E0,0E0,0E0,0E0,0E0,0E0,0E0,0E0],"parents":[2147483647,0,0,1,1,2,2,3,3,4,4,5,5,6,6,7,7,8,8,9,9,10,10,11,11,12,12,13,13,14,14,15,15,19,19,22,22,23,23,24,24,25,25,26,26,30,30,34,34,35,35,36,36,39,39,43,43,44,44,45,45,46,46],"right_children":[2,4,6,8,10,12,14,16,18,20,22,24,26,28,30,32,-1,-1,-1,34,-1,-1,36,38,40,42,44,-1,-1,-1,46,-1,-1,-1,48,50,52,-1,-1,54,-1,-1,-1,56,58,60,62,-1,-1,-1,-1,-1,-1,-1,-1,-1,-1,-1,-1,-1,-1,-1,-1],"split_conditions":[-2.1609E-8,-8.1587024E-2,1.814414E-2,-4.5445297E-2,-7.641378E-2,-4.727908E-2,-4.807344E-2,6.076365E-3,-2.5733324E-2,-2.4751856E-8,-1.12293996E-1,-5.1199753E-2,-9.323776E-2,1.1348366E-2,-6.1928514E-2,5.0784174E-2,-5.5578437E-2,-9.756788E-3,6.2288728E-2,-4.6142686E-2,-5.406148E-2,1.7858826E-3,7.540781E-2,-2.2869024E-2,3.6977705E-2,1.4374196E-2,5.1246576E-2,7.594369E-2,-2.8457863E-3,6.68736E-2,7.092568E-2,-6.2132454E-3,4.8516203E-2,-1.5218074E-2,3.508606E-2,1.3185568E-1,-2.1520605E-2,5.79868E-3,-5.3332366E-2,-4.4414583E-3,-1.7584573E-2,5.4827638E-2,-5.10146E-2,5.661601E-2,-1.5266504E-2,-1.053066E-1,-4.7911514E-2,6.576243E-2,6.0626618E-3,6.669182E-2,1.48994345E-2,6.230518E-2,-4.1591E-2,6.658576E-2,1.3283665E-2,6.769125E-2,-3.8552728E-2,5.0725598E-2,-4.2316694E-2,6.654179E-2,-5.0588936E-2,-1.6847456E-2,8.119472E-2],"split_indices":[319,273,361,71,92,204,88,103,78,319,117,309,109,383,199,224,0,0,0,206,0,0,60,353,205,13,183,0,0,0,27,0,0,0,46,236,18,0,0,339,0,0,0,278,283,91,129,0,0,0,0,0,0,0,0,0,0,0,0,0,0,0,0],"split_type":[0,0,0,0,0,0,0,0,0,0,0,0,0,0,0,0,0,0,0,0,0,0,0,0,0,0,0,0,0,0,0,0,0,0,0,0,0,0,0,0,0,0,0,0,0,0,0,0,0,0,0,0,0,0,0,0,0,0,0,0,0,0,0],"sum_hessian":[3.4011694E3,2.293433E3,1.1077363E3,1.5938152E1,2.2774949E3,2.5159773E2,8.5613855E2,5.879081E0,1.0059072E1,1.8109146E1,2.2593857E3,9.056439E1,1.6103334E2,1.262139E1,8.4351715E2,2.346654E0,3.5324268E0,1.1868452E0,8.872226E0,1.54778185E1,2.631328E0,1.9805099E0,2.2574053E3,7.870673E1,1.185766E1,1.877929E1,1.4225404E2,1.1173734E1,1.4476565E0,9.662454E0,8.3385474E2,1.1660289E0,1.1806251E0,1.3083253E0,1.4169493E1,2.230975E3,2.64302E1,1.2096926E0,7.749704E1,1.0816655E1,1.0410053E0,1.9712476E0,1.680804E1,1.3605835E2,6.1956973E0,8.2532306E2,8.531643E0,1.3154316E1,1.0151776E0,2.2291165E3,1.8587711E0,2.2569847E1,3.8603532E0,9.813354E0,1.0033015E0,1.3503787E2,1.0204835E0,3.4162977E0,2.7793996E0,4.8781724E0,8.204449E2,1.2316579E0,7.299985E0],"tree_param":{"num_deleted":"0","num_feature":"384","num_nodes":"63","size_leaf_vector":"1"}},{"base_weights":[6.752904E-1,1.2952145E0,-6.098755E-1,1.305703E0,7.1707207E-1,3.884477E-1,-9.006174E-1,3.741528E-1,1.3079462E0,-8.0408883E-1,1.1418927E0,-7.391165E-1,1.0126001E0,1.1228986E0,-9.751051E-1,-4.4193152E-2,9.4281054E-1,2.878584E-3,1.3089402E0,-1.2192458E0,3.6328733E-2,-1.7093379E-2,1.2491261E0,6.378309E-2,-1.0122083E0,-5.290479E-1,1.2512629E0,1.3028411E0,-4.0482976E-2,1.3395156E0,-1.0013272E0,5.2983504E-2,1.1493887E-2,1.3100363E0,2.9846576E-1,-7.1598075E-2,4.992602E-3,-1.6079126E-3,6.5068E-2,4.4761032E-2,-1.0581977E0,5.3952266E-2,-5.1078886E-2,-4.1782957E-2,1.2798649E0,1.3802269E0,-1.8274084E-2,9.683942E-3,7.340536E-2,7.319159E-2,-1.0178182E0,3.317541E-2,6.558911E-2,-2.6318312E-2,4.0765785E-2,-1.4851443E-2,-5.3288102E-2,-1.275734E-3,6.602287E-2,7.150828E-2,7.5612986E-3,-5.1432695E-2,9.072611E-2],"categories":[],"categories_nodes":[],"categories_segments":[],"categories_sizes":[],"default_left":[0,0,0,0,0,0,0,0,0,0,0,0,0,0,0,0,0,0,0,0,0,0,0,0,0,0,0,0,0,0,0,0,0,0,0,0,0,0,0,0,0,0,0,0,0,0,0,0,0,0,0,0,0,0,0,0,0,0,0,0,0,0,0],"id":23,"left_children":[1,3,5,7,9,11,13,15,17,19,21,23,25,27,29,-1,31,-1,33,35,-1,-1,37,-1,39,41,43,45,-1,47,49,-1,-1,51,53,-1,-1,-1,-1,-1,55,-1,-1,-1,57,59,-1,-1,-1,-1,61,-1,-1,-1,-1,-1,-1,-1,-1,-1,-1,-1,-1],"loss_changes":[2.615398E3,1.2470215E1,3.105136E2,4.0354004E0,2.7861519E1,1.7085452E2,1.258761E2,5.5788407E0,2.6052246E0,7.0437164E0,5.6876526E0,4.8988846E1,5.8070343E1,1.1441097E1,4.983374E1,0E0,1.6484547E-1,0E0,1.9921875E0,2.3997068E0,0E0,0E0,2.1294289E0,0E0,7.695343E0,1.8218662E1,9.155914E0,4.0905304E0,0E0,1.080265E0,3.3627686E1,0E0,0E0,1.5522461E0,1.98897E0,0E0,0E0,0E0,0E0,0E0,1.0485077E-1,0E0,0E0,0E0,7.1453857E0,1.4057007E0,0E0,0E0,0E0,0E0,2.5980774E1,0E0,0E0,0E0,0E0,0E0,0E0,0E0,0E0,0E0,0E0,0E0,0E0],"parents":[2147483647,0,0,1,1,2,2,3,3,4,4,5,5,6,6,7,7,8,8,9,9,10,10,11,11,12,12,13,13,14,14,16,16,18,18,19,19,22,22,24,24,25,25,26,26,27,27,29,29,30,30,33,33,34,34,40,40,44,44,45,45,50,50],"right_children":[2,4,6,8,10,12,14,16,18,20,22,24,26,28,30,-1,32,-1,34,36,-1,-1,38,-1,40,42,44,46,-1,48,50,-1,-1,52,54,-1,-1,-1,-1,-1,56,-1,-1,-1,58,60,-1,-1,-1,-1,62,-1,-1,-1,-1,-1,-1,-1,-1,-1,-1,-1,-1],"split_conditions":[-2.1609E-8,7.5889856E-2,1.814414E-2,-1.16535485E-1,-2.6680814E-2,-4.727908E-2,-6.3330755E-2,-6.175386E-3,-1.1121275E-1,2.484444E-2,-2.9596165E-2,-3.4064602E-2,-6.745209E-2,5.476002E-2,-9.9482656E-2,-4.4193152E-2,2.7571233E-2,2.878584E-3,1.114327E-1,3.8138278E-2,3.6328733E-2,-1.7093379E-2,-8.683024E-2,6.378309E-2,-1.5490893E-2,-8.896769E-2,-1.1528034E-1,5.319355E-2,-4.0482976E-2,5.400938E-4,-8.500142E-2,5.2983504E-2,1.1493887E-2,-9.2675224E-2,1.9179873E-2,-7.1598075E-2,4.992602E-3,-1.6079126E-3,6.5068E-2,4.4761032E-2,-4.293795E-2,5.3952266E-2,-5.1078886E-2,-4.1782957E-2,-7.1817964E-2,6.910733E-2,-1.8274084E-2,9.683942E-3,7.340536E-2,7.319159E-2,8.886717E-2,3.317541E-2,6.558911E-2,-2.6318312E-2,4.0765785E-2,-1.4851443E-2,-5.3288102E-2,-1.275734E-3,6.602287E-2,7.150828E-2,7.5612986E-3,-5.1432695E-2,9.072611E-2],"split_indices":[319,351,361,208,92,204,198,189,164,218,243,353,179,183,80,0,231,0,192,324,0,0,161,0,86,14,17,348,0,185,85,0,0,92,38,0,0,0,0,0,308,0,0,0,325,167,0,0,0,0,276,0,0,0,0,0,0,0,0,0,0,0,0],"split_type":[0,0,0,0,0,0,0,0,0,0,0,0,0,0,0,0,0,0,0,0,0,0,0,0,0,0,0,0,0,0,0,0,0,0,0,0,0,0,0,0,0,0,0,0,0,0,0,0,0,0,0,0,0,0,0,0,0,0,0,0,0,0,0],"sum_hessian":[3.2807666E3,2.2131917E3,1.067575E3,2.172503E3,4.06885E1,2.4070244E2,8.2687256E2,5.632745E0,2.1668704E3,8.68253E0,3.200597E1,8.56931E1,1.5500934E2,2.8852856E1,7.980197E2,1.575486E0,4.0572586E0,1.7758734E0,2.1650945E3,6.9952235E0,1.6873065E0,2.0034513E0,3.0002518E1,9.786185E0,7.590691E1,2.0611334E1,1.34398E2,2.6697998E1,2.1548567E0,8.3740835E0,7.896456E2,3.055964E0,1.0012947E0,2.1624424E3,2.6520605E0,5.9566784E0,1.0385451E0,1.1827514E0,2.8819767E1,1.3472189E0,7.455969E1,4.5487375E0,1.6062597E1,1.4308523E0,1.3296715E2,2.5685257E1,1.0127412E0,1.1056778E0,7.2684064E0,4.660114E0,7.8498553E2,6.8653445E0,2.155577E3,1.0070949E0,1.6449658E0,1.1428962E0,7.34168E1,4.013868E0,1.2895328E2,2.451722E1,1.1680384E0,7.826318E2,2.3537562E0],"tree_param":{"num_deleted":"0","num_feature":"384","num_nodes":"63","size_leaf_vector":"1"}},{"base_weights":[6.712671E-1,1.2762202E0,-6.048456E-1,6.425092E-1,1.2837983E0,3.7457892E-1,-8.9150774E-1,-2.0140883E-1,6.1383754E-2,4.6775573E-1,1.2865609E0,-7.392735E-1,9.9033624E-1,1.1819495E0,-9.6889293E-1,-1.1010329E0,6.739566E-1,-3.8414832E-2,1.1047521E0,-1.152576E-2,1.2876858E0,-1.0362655E0,1.0847515E0,-7.667595E-1,1.2247224E0,1.3417648E0,-1.718962E-1,1.2512608E0,-9.9785846E-1,-6.6197656E-2,1.8363558E-3,-1.9484906E-2,5.088208E-2,6.2274456E-2,9.154312E-3,-0E0,1.2886919E0,8.487043E-3,-5.2868128E-2,-3.017742E-2,6.460104E-2,-5.082647E-2,5.12307E-2,-3.7831572E-1,1.2705106E0,8.741489E-3,6.976499E-2,-3.8112458E-2,3.665349E-2,-5.5518188E-3,7.152961E-2,9.708856E-1,-1.0209652E0,3.0270258E-2,6.450684E-2,-5.0591208E-2,3.9824314E-2,6.552052E-2,-9.078652E-3,-2.0047192E-2,7.3811404E-2,-5.1605213E-2,9.475549E-2],"categories":[],"categories_nodes":[],"categories_segments":[],"categories_sizes":[],"default_left":[0,0,0,0,0,0,0,0,0,0,0,0,0,0,0,0,0,0,0,0,0,0,0,0,0,0,0,0,0,0,0,0,0,0,0,0,0,0,0,0,0,0,0,0,0,0,0,0,0,0,0,0,0,0,0,0,0,0,0,0,0,0,0],"id":24,"left_children":[1,3,5,7,9,11,13,15,-1,17,19,21,23,25,27,29,31,-1,33,-1,35,37,39,41,43,45,47,49,51,-1,-1,-1,-1,-1,-1,-1,53,-1,-1,-1,-1,-1,-1,55,57,-1,-1,-1,-1,-1,-1,59,61,-1,-1,-1,-1,-1,-1,-1,-1,-1,